# DATE: 2024-07-07  UNITS: metal  CONTRIBUTOR: By STUDENT			
# FHEP: Temp 77 [K], mr 0.923076923076923 [g/mol], Sigma 3 [A], Epsilon 0.00294742729934855 [eV]			
			
ENTRY			
N 1200 R 1.0 12.99			
			
1	1.00	2.958360E+04	3.516618E+05
2	1.01	2.584519E+04	3.035534E+05
3	1.02	2.261070E+04	2.624218E+05
4	1.03	1.980806E+04	2.271994E+05
5	1.04	1.737609E+04	1.969903E+05
6	1.05	1.526277E+04	1.710415E+05
7	1.06	1.342378E+04	1.487186E+05
8	1.07	1.182131E+04	1.294869E+05
9	1.08	1.042308E+04	1.128942E+05
10	1.09	9.201437E+03	9.855815E+04
11	1.10	8.132702E+03	8.615460E+04
12	1.11	7.196546E+03	7.540835E+04
13	1.12	6.375500E+03	6.608545E+04
14	1.13	5.654526E+03	5.798668E+04
15	1.14	5.020665E+03	5.094218E+04
16	1.15	4.462733E+03	4.480688E+04
17	1.16	3.971063E+03	3.945675E+04
18	1.17	3.537291E+03	3.478553E+04
19	1.18	3.154169E+03	3.070214E+04
20	1.19	2.815410E+03	2.712833E+04
21	1.20	2.515551E+03	2.399685E+04
22	1.21	2.249844E+03	2.124978E+04
23	1.22	2.014150E+03	1.883719E+04
24	1.23	1.804866E+03	1.671600E+04
25	1.24	1.618842E+03	1.484894E+04
26	1.25	1.453328E+03	1.320380E+04
27	1.26	1.305919E+03	1.175265E+04
28	1.27	1.174508E+03	1.047127E+04
29	1.28	1.057246E+03	9.338627E+03
30	1.29	9.525127E+02	8.336443E+03
31	1.30	8.588832E+02	7.448799E+03
32	1.31	7.751044E+02	6.661827E+03
33	1.32	7.000729E+02	5.963432E+03
34	1.33	6.328165E+02	5.343048E+03
35	1.34	5.724772E+02	4.791440E+03
36	1.35	5.182976E+02	4.300528E+03
37	1.36	4.696081E+02	3.863232E+03
38	1.37	4.258161E+02	3.473343E+03
39	1.38	3.863969E+02	3.125412E+03
40	1.39	3.508855E+02	2.814650E+03
41	1.40	3.188692E+02	2.536846E+03
42	1.41	2.899815E+02	2.288292E+03
43	1.42	2.638967E+02	2.065721E+03
44	1.43	2.403251E+02	1.866250E+03
45	1.44	2.190085E+02	1.687336E+03
46	1.45	1.997172E+02	1.526731E+03
47	1.46	1.822460E+02	1.382444E+03
48	1.47	1.664120E+02	1.252717E+03
49	1.48	1.520516E+02	1.135989E+03
50	1.49	1.390187E+02	1.030877E+03
51	1.50	1.271824E+02	9.361539E+02
52	1.51	1.164256E+02	8.507285E+02
53	1.52	1.066434E+02	7.736315E+02
54	1.53	9.774160E+01	7.040002E+02
55	1.54	8.963577E+01	6.410666E+02
56	1.55	8.225001E+01	5.841460E+02
57	1.56	7.551611E+01	5.326278E+02
58	1.57	6.937273E+01	4.859670E+02
59	1.58	6.376465E+01	4.436767E+02
60	1.59	5.864212E+01	4.053217E+02
61	1.60	5.396033E+01	3.705126E+02
62	1.61	4.967883E+01	3.389009E+02
63	1.62	4.576113E+01	3.101741E+02
64	1.63	4.217425E+01	2.840522E+02
65	1.64	3.888840E+01	2.602839E+02
66	1.65	3.587665E+01	2.386436E+02
67	1.66	3.311460E+01	2.189286E+02
68	1.67	3.058018E+01	2.009566E+02
69	1.68	2.825338E+01	1.845636E+02
70	1.69	2.611605E+01	1.696019E+02
71	1.70	2.415175E+01	1.559386E+02
72	1.71	2.234554E+01	1.434536E+02
73	1.72	2.068384E+01	1.320388E+02
74	1.73	1.915432E+01	1.215964E+02
75	1.74	1.774578E+01	1.120384E+02
76	1.75	1.644801E+01	1.032848E+02
77	1.76	1.525171E+01	9.526360E+01
78	1.77	1.414843E+01	8.790952E+01
79	1.78	1.313045E+01	8.116345E+01
80	1.79	1.219074E+01	7.497183E+01
81	1.80	1.132289E+01	6.928610E+01
82	1.81	1.052104E+01	6.406222E+01
83	1.82	9.779824E+00	5.926021E+01
84	1.83	9.094369E+00	5.484375E+01
85	1.84	8.460197E+00	5.077986E+01
86	1.85	7.873220E+00	4.703854E+01
87	1.86	7.329693E+00	4.359248E+01
88	1.87	6.826188E+00	4.041685E+01
89	1.88	6.359564E+00	3.748902E+01
90	1.89	5.926943E+00	3.478838E+01
91	1.90	5.525685E+00	3.229613E+01
92	1.91	5.153366E+00	2.999511E+01
93	1.92	4.807763E+00	2.786969E+01
94	1.93	4.486835E+00	2.590557E+01
95	1.94	4.188704E+00	2.408969E+01
96	1.95	3.911646E+00	2.241013E+01
97	1.96	3.654074E+00	2.085596E+01
98	1.97	3.414531E+00	1.941721E+01
99	1.98	3.191671E+00	1.808472E+01
100	1.99	2.984258E+00	1.685013E+01
101	2.00	2.791153E+00	1.570577E+01
102	2.01	2.611306E+00	1.464459E+01
103	2.02	2.443747E+00	1.366016E+01
104	2.03	2.287585E+00	1.274654E+01
105	2.04	2.141993E+00	1.189830E+01
106	2.05	2.006212E+00	1.111045E+01
107	2.06	1.879539E+00	1.037841E+01
108	2.07	1.761324E+00	9.697952E+00
109	2.08	1.650966E+00	9.065204E+00
110	2.09	1.547912E+00	8.476595E+00
111	2.10	1.451647E+00	7.928841E+00
112	2.11	1.361697E+00	7.418917E+00
113	2.12	1.277621E+00	6.944034E+00
114	2.13	1.199013E+00	6.501625E+00
115	2.14	1.125495E+00	6.089319E+00
116	2.15	1.056717E+00	5.704933E+00
117	2.16	9.923557E-01	5.346449E+00
118	2.17	9.321096E-01	5.012006E+00
119	2.18	8.757001E-01	4.699884E+00
120	2.19	8.228682E-01	4.408494E+00
121	2.20	7.733735E-01	4.136367E+00
122	2.21	7.269928E-01	3.882146E+00
123	2.22	6.835187E-01	3.644573E+00
124	2.23	6.427584E-01	3.422488E+00
125	2.24	6.045327E-01	3.214812E+00
126	2.25	5.686749E-01	3.020550E+00
127	2.26	5.350300E-01	2.838778E+00
128	2.27	5.034536E-01	2.668639E+00
129	2.28	4.738114E-01	2.509341E+00
130	2.29	4.459783E-01	2.360147E+00
131	2.30	4.198379E-01	2.220375E+00
132	2.31	3.952815E-01	2.089390E+00
133	2.32	3.722079E-01	1.966605E+00
134	2.33	3.505228E-01	1.851471E+00
135	2.34	3.301382E-01	1.743483E+00
136	2.35	3.109719E-01	1.642166E+00
137	2.36	2.929474E-01	1.547084E+00
138	2.37	2.759930E-01	1.457826E+00
139	2.38	2.600421E-01	1.374015E+00
140	2.39	2.450323E-01	1.295295E+00
141	2.40	2.309052E-01	1.221338E+00
142	2.41	2.176065E-01	1.151838E+00
143	2.42	2.050851E-01	1.086508E+00
144	2.43	1.932935E-01	1.025084E+00
145	2.44	1.821872E-01	9.673158E-01
146	2.45	1.717244E-01	9.129732E-01
147	2.46	1.618662E-01	8.618403E-01
148	2.47	1.525762E-01	8.137157E-01
149	2.48	1.438200E-01	7.684115E-01
150	2.49	1.355658E-01	7.257522E-01
151	2.50	1.277834E-01	6.855740E-01
152	2.51	1.204449E-01	6.477237E-01
153	2.52	1.135240E-01	6.120584E-01
154	2.53	1.069958E-01	5.784443E-01
155	2.54	1.008372E-01	5.467565E-01
156	2.55	9.502666E-02	5.168778E-01
157	2.56	8.954363E-02	4.886991E-01
158	2.57	8.436905E-02	4.621178E-01
159	2.58	7.948496E-02	4.370381E-01
160	2.59	7.487452E-02	4.133704E-01
161	2.60	7.052190E-02	3.910305E-01
162	2.61	6.641225E-02	3.699397E-01
163	2.62	6.253158E-02	3.500242E-01
164	2.63	5.886679E-02	3.312149E-01
165	2.64	5.540554E-02	3.134469E-01
166	2.65	5.213623E-02	2.966594E-01
167	2.66	4.904796E-02	2.807953E-01
168	2.67	4.613048E-02	2.658011E-01
169	2.68	4.337413E-02	2.516266E-01
170	2.69	4.076984E-02	2.382245E-01
171	2.70	3.830907E-02	2.255507E-01
172	2.71	3.598377E-02	2.135634E-01
173	2.72	3.378637E-02	2.022236E-01
174	2.73	3.170975E-02	1.914945E-01
175	2.74	2.974718E-02	1.813417E-01
176	2.75	2.789234E-02	1.717326E-01
177	2.76	2.613927E-02	1.626367E-01
178	2.77	2.448235E-02	1.540254E-01
179	2.78	2.291628E-02	1.458715E-01
180	2.79	2.143608E-02	1.381498E-01
181	2.80	2.003703E-02	1.308361E-01
182	2.81	1.871470E-02	1.239081E-01
183	2.82	1.746489E-02	1.173445E-01
184	2.83	1.628366E-02	1.111252E-01
185	2.84	1.516728E-02	1.052316E-01
186	2.85	1.411223E-02	9.964574E-02
187	2.86	1.311519E-02	9.435103E-02
188	2.87	1.217302E-02	8.933166E-02
189	2.88	1.128277E-02	8.457277E-02
190	2.89	1.044163E-02	8.006034E-02
191	2.90	9.646961E-03	7.578115E-02
192	2.91	8.896274E-03	7.172272E-02
193	2.92	8.187211E-03	6.787327E-02
194	2.93	7.517542E-03	6.422170E-02
195	2.94	6.885162E-03	6.075750E-02
196	2.95	6.288082E-03	5.747078E-02
197	2.96	5.724420E-03	5.435218E-02
198	2.97	5.192396E-03	5.139285E-02
199	2.98	4.690329E-03	4.858444E-02
200	2.99	4.216627E-03	4.591907E-02
201	3.00	3.769786E-03	4.338927E-02
202	3.01	3.348380E-03	4.098800E-02
203	3.02	2.951064E-03	3.870859E-02
204	3.03	2.576562E-03	3.654473E-02
205	3.04	2.223667E-03	3.449045E-02
206	3.05	1.891238E-03	3.254013E-02
207	3.06	1.578193E-03	3.068842E-02
208	3.07	1.283508E-03	2.893027E-02
209	3.08	1.006216E-03	2.726090E-02
210	3.09	7.453969E-04	2.567579E-02
211	3.10	5.001825E-04	2.417064E-02
212	3.11	2.697494E-04	2.274140E-02
213	3.12	5.331752E-05	2.138424E-02
214	3.13	-1.498519E-04	2.009549E-02
215	3.14	-3.404588E-04	1.887173E-02
216	3.15	-5.191668E-04	1.770967E-02
217	3.16	-6.866042E-04	1.660622E-02
218	3.17	-8.433671E-04	1.555844E-02
219	3.18	-9.900199E-04	1.456356E-02
220	3.19	-1.127098E-03	1.361893E-02
221	3.20	-1.255109E-03	1.272204E-02
222	3.21	-1.374534E-03	1.187052E-02
223	3.22	-1.485828E-03	1.106213E-02
224	3.23	-1.589425E-03	1.029472E-02
225	3.24	-1.685735E-03	9.566272E-03
226	3.25	-1.775146E-03	8.874854E-03
227	3.26	-1.858027E-03	8.218643E-03
228	3.27	-1.934729E-03	7.595907E-03
229	3.28	-2.005583E-03	7.004998E-03
230	3.29	-2.070904E-03	6.444356E-03
231	3.30	-2.130990E-03	5.912495E-03
232	3.31	-2.186125E-03	5.408008E-03
233	3.32	-2.236578E-03	4.929554E-03
234	3.33	-2.282603E-03	4.475863E-03
235	3.34	-2.324442E-03	4.045727E-03
236	3.35	-2.362326E-03	3.637996E-03
237	3.36	-2.396471E-03	3.251581E-03
238	3.37	-2.427085E-03	2.885444E-03
239	3.38	-2.454364E-03	2.538600E-03
240	3.39	-2.478493E-03	2.210112E-03
241	3.40	-2.499649E-03	1.899088E-03
242	3.41	-2.518000E-03	1.604681E-03
243	3.42	-2.533705E-03	1.326086E-03
244	3.43	-2.546914E-03	1.062537E-03
245	3.44	-2.557772E-03	8.133051E-04
246	3.45	-2.566413E-03	5.776966E-04
247	3.46	-2.572967E-03	3.550522E-04
248	3.47	-2.577556E-03	1.447444E-04
249	3.48	-2.580296E-03	-5.382395E-05
250	3.49	-2.581297E-03	-2.412210E-04
251	3.50	-2.580664E-03	-4.179877E-04
252	3.51	-2.578496E-03	-5.846386E-04
253	3.52	-2.574887E-03	-7.416637E-04
254	3.53	-2.569927E-03	-8.895294E-04
255	3.54	-2.563699E-03	-1.028680E-03
256	3.55	-2.556285E-03	-1.159538E-03
257	3.56	-2.547760E-03	-1.282506E-03
258	3.57	-2.538196E-03	-1.397967E-03
259	3.58	-2.527663E-03	-1.506287E-03
260	3.59	-2.516225E-03	-1.607813E-03
261	3.60	-2.503944E-03	-1.702876E-03
262	3.61	-2.490879E-03	-1.791792E-03
263	3.62	-2.477083E-03	-1.874861E-03
264	3.63	-2.462611E-03	-1.952370E-03
265	3.64	-2.447512E-03	-2.024591E-03
266	3.65	-2.431832E-03	-2.091784E-03
267	3.66	-2.415618E-03	-2.154197E-03
268	3.67	-2.398909E-03	-2.212065E-03
269	3.68	-2.381748E-03	-2.265614E-03
270	3.69	-2.364172E-03	-2.315057E-03
271	3.70	-2.346217E-03	-2.360599E-03
272	3.71	-2.327916E-03	-2.402434E-03
273	3.72	-2.309302E-03	-2.440747E-03
274	3.73	-2.290405E-03	-2.475716E-03
275	3.74	-2.271255E-03	-2.507509E-03
276	3.75	-2.251877E-03	-2.536287E-03
277	3.76	-2.232299E-03	-2.562201E-03
278	3.77	-2.212544E-03	-2.585399E-03
279	3.78	-2.192635E-03	-2.606019E-03
280	3.79	-2.172595E-03	-2.624194E-03
281	3.80	-2.152442E-03	-2.640050E-03
282	3.81	-2.132198E-03	-2.653708E-03
283	3.82	-2.111879E-03	-2.665281E-03
284	3.83	-2.091504E-03	-2.674881E-03
285	3.84	-2.071087E-03	-2.682611E-03
286	3.85	-2.050646E-03	-2.688570E-03
287	3.86	-2.030193E-03	-2.692854E-03
288	3.87	-2.009743E-03	-2.695553E-03
289	3.88	-1.989307E-03	-2.696752E-03
290	3.89	-1.968899E-03	-2.696534E-03
291	3.90	-1.948528E-03	-2.694977E-03
292	3.91	-1.928207E-03	-2.692156E-03
293	3.92	-1.907944E-03	-2.688142E-03
294	3.93	-1.887749E-03	-2.683003E-03
295	3.94	-1.867630E-03	-2.676802E-03
296	3.95	-1.847595E-03	-2.669603E-03
297	3.96	-1.827653E-03	-2.661462E-03
298	3.97	-1.807809E-03	-2.652437E-03
299	3.98	-1.788071E-03	-2.642580E-03
300	3.99	-1.768445E-03	-2.631943E-03
301	4.00	-1.748936E-03	-2.620573E-03
302	4.01	-1.729549E-03	-2.608516E-03
303	4.02	-1.710290E-03	-2.595817E-03
304	4.03	-1.691162E-03	-2.582516E-03
305	4.04	-1.672171E-03	-2.568655E-03
306	4.05	-1.653319E-03	-2.554270E-03
307	4.06	-1.634611E-03	-2.539398E-03
308	4.07	-1.616049E-03	-2.524073E-03
309	4.08	-1.597637E-03	-2.508327E-03
310	4.09	-1.579376E-03	-2.492193E-03
311	4.10	-1.561270E-03	-2.475699E-03
312	4.11	-1.543320E-03	-2.458873E-03
313	4.12	-1.525529E-03	-2.441743E-03
314	4.13	-1.507898E-03	-2.424333E-03
315	4.14	-1.490429E-03	-2.406668E-03
316	4.15	-1.473122E-03	-2.388771E-03
317	4.16	-1.455980E-03	-2.370664E-03
318	4.17	-1.439003E-03	-2.352368E-03
319	4.18	-1.422191E-03	-2.333902E-03
320	4.19	-1.405546E-03	-2.315285E-03
321	4.20	-1.389068E-03	-2.296535E-03
322	4.21	-1.372757E-03	-2.277669E-03
323	4.22	-1.356614E-03	-2.258703E-03
324	4.23	-1.340638E-03	-2.239652E-03
325	4.24	-1.324830E-03	-2.220530E-03
326	4.25	-1.309189E-03	-2.201352E-03
327	4.26	-1.293716E-03	-2.182129E-03
328	4.27	-1.278410E-03	-2.162876E-03
329	4.28	-1.263270E-03	-2.143602E-03
330	4.29	-1.248296E-03	-2.124319E-03
331	4.30	-1.233488E-03	-2.105038E-03
332	4.31	-1.218845E-03	-2.085769E-03
333	4.32	-1.204366E-03	-2.066520E-03
334	4.33	-1.190050E-03	-2.047300E-03
335	4.34	-1.175898E-03	-2.028118E-03
336	4.35	-1.161906E-03	-2.008982E-03
337	4.36	-1.148076E-03	-1.989899E-03
338	4.37	-1.134405E-03	-1.970876E-03
339	4.38	-1.120894E-03	-1.951919E-03
340	4.39	-1.107540E-03	-1.933035E-03
341	4.40	-1.094342E-03	-1.914229E-03
342	4.41	-1.081301E-03	-1.895507E-03
343	4.42	-1.068413E-03	-1.876874E-03
344	4.43	-1.055679E-03	-1.858335E-03
345	4.44	-1.043096E-03	-1.839894E-03
346	4.45	-1.030664E-03	-1.821555E-03
347	4.46	-1.018382E-03	-1.803322E-03
348	4.47	-1.006248E-03	-1.785199E-03
349	4.48	-9.942599E-04	-1.767190E-03
350	4.49	-9.824177E-04	-1.749296E-03
351	4.50	-9.707195E-04	-1.731522E-03
352	4.51	-9.591641E-04	-1.713870E-03
353	4.52	-9.477501E-04	-1.696342E-03
354	4.53	-9.364760E-04	-1.678941E-03
355	4.54	-9.253405E-04	-1.661668E-03
356	4.55	-9.143422E-04	-1.644526E-03
357	4.56	-9.034797E-04	-1.627517E-03
358	4.57	-8.927516E-04	-1.610641E-03
359	4.58	-8.821564E-04	-1.593901E-03
360	4.59	-8.716929E-04	-1.577297E-03
361	4.60	-8.613595E-04	-1.560831E-03
362	4.61	-8.511548E-04	-1.544503E-03
363	4.62	-8.410775E-04	-1.528316E-03
364	4.63	-8.311262E-04	-1.512268E-03
365	4.64	-8.212993E-04	-1.496362E-03
366	4.65	-8.115957E-04	-1.480597E-03
367	4.66	-8.020137E-04	-1.464973E-03
368	4.67	-7.925521E-04	-1.449492E-03
369	4.68	-7.832094E-04	-1.434154E-03
370	4.69	-7.739843E-04	-1.418958E-03
371	4.70	-7.648755E-04	-1.403905E-03
372	4.71	-7.558814E-04	-1.388994E-03
373	4.72	-7.470009E-04	-1.374226E-03
374	4.73	-7.382324E-04	-1.359600E-03
375	4.74	-7.295747E-04	-1.345116E-03
376	4.75	-7.210265E-04	-1.330775E-03
377	4.76	-7.125864E-04	-1.316574E-03
378	4.77	-7.042531E-04	-1.302515E-03
379	4.78	-6.960253E-04	-1.288597E-03
380	4.79	-6.879017E-04	-1.274818E-03
381	4.80	-6.798810E-04	-1.261180E-03
382	4.81	-6.719619E-04	-1.247680E-03
383	4.82	-6.641432E-04	-1.234319E-03
384	4.83	-6.564236E-04	-1.221095E-03
385	4.84	-6.488020E-04	-1.208008E-03
386	4.85	-6.412769E-04	-1.195058E-03
387	4.86	-6.338473E-04	-1.182243E-03
388	4.87	-6.265119E-04	-1.169562E-03
389	4.88	-6.192695E-04	-1.157016E-03
390	4.89	-6.121189E-04	-1.144602E-03
391	4.90	-6.050590E-04	-1.132320E-03
392	4.91	-5.980886E-04	-1.120170E-03
393	4.92	-5.912066E-04	-1.108150E-03
394	4.93	-5.844118E-04	-1.096259E-03
395	4.94	-5.777030E-04	-1.084496E-03
396	4.95	-5.710793E-04	-1.072861E-03
397	4.96	-5.645394E-04	-1.061352E-03
398	4.97	-5.580823E-04	-1.049968E-03
399	4.98	-5.517069E-04	-1.038709E-03
400	4.99	-5.454121E-04	-1.027573E-03
401	5.00	-5.391969E-04	-1.016559E-03
402	5.01	-5.330603E-04	-1.005666E-03
403	5.02	-5.270012E-04	-9.948941E-04
404	5.03	-5.210186E-04	-9.842409E-04
405	5.04	-5.151115E-04	-9.737056E-04
406	5.05	-5.092789E-04	-9.632874E-04
407	5.06	-5.035199E-04	-9.529850E-04
408	5.07	-4.978333E-04	-9.427974E-04
409	5.08	-4.922184E-04	-9.327236E-04
410	5.09	-4.866742E-04	-9.227624E-04
411	5.10	-4.811996E-04	-9.129128E-04
412	5.11	-4.757939E-04	-9.031737E-04
413	5.12	-4.704560E-04	-8.935439E-04
414	5.13	-4.651852E-04	-8.840225E-04
415	5.14	-4.599804E-04	-8.746084E-04
416	5.15	-4.548408E-04	-8.653004E-04
417	5.16	-4.497656E-04	-8.560974E-04
418	5.17	-4.447539E-04	-8.469985E-04
419	5.18	-4.398049E-04	-8.380025E-04
420	5.19	-4.349176E-04	-8.291084E-04
421	5.20	-4.300914E-04	-8.203151E-04
422	5.21	-4.253253E-04	-8.116215E-04
423	5.22	-4.206187E-04	-8.030267E-04
424	5.23	-4.159706E-04	-7.945294E-04
425	5.24	-4.113803E-04	-7.861288E-04
426	5.25	-4.068471E-04	-7.778238E-04
427	5.26	-4.023702E-04	-7.696132E-04
428	5.27	-3.979488E-04	-7.614962E-04
429	5.28	-3.935821E-04	-7.534717E-04
430	5.29	-3.892696E-04	-7.455386E-04
431	5.30	-3.850103E-04	-7.376960E-04
432	5.31	-3.808038E-04	-7.299428E-04
433	5.32	-3.766491E-04	-7.222781E-04
434	5.33	-3.725457E-04	-7.147009E-04
435	5.34	-3.684928E-04	-7.072102E-04
436	5.35	-3.644898E-04	-6.998051E-04
437	5.36	-3.605360E-04	-6.924845E-04
438	5.37	-3.566307E-04	-6.852475E-04
439	5.38	-3.527734E-04	-6.780932E-04
440	5.39	-3.489634E-04	-6.710206E-04
441	5.40	-3.451999E-04	-6.640288E-04
442	5.41	-3.414825E-04	-6.571169E-04
443	5.42	-3.378106E-04	-6.502839E-04
444	5.43	-3.341834E-04	-6.435289E-04
445	5.44	-3.306004E-04	-6.368511E-04
446	5.45	-3.270611E-04	-6.302496E-04
447	5.46	-3.235648E-04	-6.237234E-04
448	5.47	-3.201110E-04	-6.172717E-04
449	5.48	-3.166990E-04	-6.108937E-04
450	5.49	-3.133285E-04	-6.045884E-04
451	5.50	-3.099987E-04	-5.983551E-04
452	5.51	-3.067092E-04	-5.921928E-04
453	5.52	-3.034594E-04	-5.861007E-04
454	5.53	-3.002488E-04	-5.800781E-04
455	5.54	-2.970770E-04	-5.741241E-04
456	5.55	-2.939432E-04	-5.682379E-04
457	5.56	-2.908472E-04	-5.624187E-04
458	5.57	-2.877883E-04	-5.566657E-04
459	5.58	-2.847661E-04	-5.509781E-04
460	5.59	-2.817801E-04	-5.453552E-04
461	5.60	-2.788299E-04	-5.397962E-04
462	5.61	-2.759148E-04	-5.343002E-04
463	5.62	-2.730346E-04	-5.288667E-04
464	5.63	-2.701887E-04	-5.234948E-04
465	5.64	-2.673766E-04	-5.181838E-04
466	5.65	-2.645980E-04	-5.129330E-04
467	5.66	-2.618524E-04	-5.077416E-04
468	5.67	-2.591394E-04	-5.026090E-04
469	5.68	-2.564585E-04	-4.975344E-04
470	5.69	-2.538093E-04	-4.925172E-04
471	5.70	-2.511914E-04	-4.875567E-04
472	5.71	-2.486044E-04	-4.826521E-04
473	5.72	-2.460478E-04	-4.778029E-04
474	5.73	-2.435214E-04	-4.730083E-04
475	5.74	-2.410247E-04	-4.682677E-04
476	5.75	-2.385573E-04	-4.635805E-04
477	5.76	-2.361188E-04	-4.589460E-04
478	5.77	-2.337088E-04	-4.543636E-04
479	5.78	-2.313270E-04	-4.498326E-04
480	5.79	-2.289731E-04	-4.453525E-04
481	5.80	-2.266466E-04	-4.409226E-04
482	5.81	-2.243472E-04	-4.365424E-04
483	5.82	-2.220746E-04	-4.322112E-04
484	5.83	-2.198283E-04	-4.279284E-04
485	5.84	-2.176082E-04	-4.236934E-04
486	5.85	-2.154137E-04	-4.195058E-04
487	5.86	-2.132447E-04	-4.153649E-04
488	5.87	-2.111007E-04	-4.112701E-04
489	5.88	-2.089814E-04	-4.072210E-04
490	5.89	-2.068866E-04	-4.032169E-04
491	5.90	-2.048159E-04	-3.992573E-04
492	5.91	-2.027690E-04	-3.953417E-04
493	5.92	-2.007456E-04	-3.914695E-04
494	5.93	-1.987454E-04	-3.876403E-04
495	5.94	-1.967681E-04	-3.838534E-04
496	5.95	-1.948134E-04	-3.801085E-04
497	5.96	-1.928811E-04	-3.764050E-04
498	5.97	-1.909707E-04	-3.727424E-04
499	5.98	-1.890822E-04	-3.691202E-04
500	5.99	-1.872151E-04	-3.655379E-04
501	6.00	-1.853692E-04	-3.619950E-04
502	6.01	-1.835442E-04	-3.584912E-04
503	6.02	-1.817400E-04	-3.550258E-04
504	6.03	-1.799561E-04	-3.515985E-04
505	6.04	-1.781924E-04	-3.482088E-04
506	6.05	-1.764486E-04	-3.448562E-04
507	6.06	-1.747244E-04	-3.415404E-04
508	6.07	-1.730196E-04	-3.382607E-04
509	6.08	-1.713340E-04	-3.350169E-04
510	6.09	-1.696673E-04	-3.318085E-04
511	6.10	-1.680192E-04	-3.286351E-04
512	6.11	-1.663896E-04	-3.254962E-04
513	6.12	-1.647783E-04	-3.223915E-04
514	6.13	-1.631849E-04	-3.193205E-04
515	6.14	-1.616092E-04	-3.162829E-04
516	6.15	-1.600511E-04	-3.132781E-04
517	6.16	-1.585103E-04	-3.103060E-04
518	6.17	-1.569866E-04	-3.073659E-04
519	6.18	-1.554798E-04	-3.044577E-04
520	6.19	-1.539897E-04	-3.015808E-04
521	6.20	-1.525161E-04	-2.987350E-04
522	6.21	-1.510587E-04	-2.959198E-04
523	6.22	-1.496173E-04	-2.931349E-04
524	6.23	-1.481919E-04	-2.903800E-04
525	6.24	-1.467821E-04	-2.876546E-04
526	6.25	-1.453878E-04	-2.849585E-04
527	6.26	-1.440088E-04	-2.822912E-04
528	6.27	-1.426448E-04	-2.796525E-04
529	6.28	-1.412958E-04	-2.770419E-04
530	6.29	-1.399615E-04	-2.744593E-04
531	6.30	-1.386418E-04	-2.719042E-04
532	6.31	-1.373364E-04	-2.693762E-04
533	6.32	-1.360452E-04	-2.668752E-04
534	6.33	-1.347681E-04	-2.644008E-04
535	6.34	-1.335047E-04	-2.619526E-04
536	6.35	-1.322551E-04	-2.595304E-04
537	6.36	-1.310190E-04	-2.571339E-04
538	6.37	-1.297962E-04	-2.547627E-04
539	6.38	-1.285866E-04	-2.524165E-04
540	6.39	-1.273900E-04	-2.500951E-04
541	6.40	-1.262064E-04	-2.477982E-04
542	6.41	-1.250354E-04	-2.455255E-04
543	6.42	-1.238769E-04	-2.432766E-04
544	6.43	-1.227309E-04	-2.410514E-04
545	6.44	-1.215972E-04	-2.388495E-04
546	6.45	-1.204755E-04	-2.366707E-04
547	6.46	-1.193658E-04	-2.345147E-04
548	6.47	-1.182679E-04	-2.323813E-04
549	6.48	-1.171817E-04	-2.302701E-04
550	6.49	-1.161071E-04	-2.281809E-04
551	6.50	-1.150438E-04	-2.261135E-04
552	6.51	-1.139918E-04	-2.240676E-04
553	6.52	-1.129510E-04	-2.220430E-04
554	6.53	-1.119211E-04	-2.200394E-04
555	6.54	-1.109021E-04	-2.180565E-04
556	6.55	-1.098938E-04	-2.160942E-04
557	6.56	-1.088961E-04	-2.141522E-04
558	6.57	-1.079090E-04	-2.122303E-04
559	6.58	-1.069321E-04	-2.103281E-04
560	6.59	-1.059655E-04	-2.084456E-04
561	6.60	-1.050091E-04	-2.065825E-04
562	6.61	-1.040626E-04	-2.047385E-04
563	6.62	-1.031260E-04	-2.029134E-04
564	6.63	-1.021991E-04	-2.011071E-04
565	6.64	-1.012819E-04	-1.993192E-04
566	6.65	-1.003742E-04	-1.975497E-04
567	6.66	-9.947599E-05	-1.957982E-04
568	6.67	-9.858704E-05	-1.940646E-04
569	6.68	-9.770729E-05	-1.923486E-04
570	6.69	-9.683664E-05	-1.906502E-04
571	6.70	-9.597497E-05	-1.889690E-04
572	6.71	-9.512219E-05	-1.873049E-04
573	6.72	-9.427818E-05	-1.856576E-04
574	6.73	-9.344285E-05	-1.840271E-04
575	6.74	-9.261609E-05	-1.824130E-04
576	6.75	-9.179780E-05	-1.808153E-04
577	6.76	-9.098790E-05	-1.792336E-04
578	6.77	-9.018627E-05	-1.776680E-04
579	6.78	-8.939283E-05	-1.761180E-04
580	6.79	-8.860748E-05	-1.745837E-04
581	6.80	-8.783012E-05	-1.730648E-04
582	6.81	-8.706067E-05	-1.715611E-04
583	6.82	-8.629903E-05	-1.700725E-04
584	6.83	-8.554512E-05	-1.685988E-04
585	6.84	-8.479884E-05	-1.671398E-04
586	6.85	-8.406010E-05	-1.656953E-04
587	6.86	-8.332883E-05	-1.642653E-04
588	6.87	-8.260493E-05	-1.628495E-04
589	6.88	-8.188833E-05	-1.614478E-04
590	6.89	-8.117893E-05	-1.600600E-04
591	6.90	-8.047666E-05	-1.586860E-04
592	6.91	-7.978144E-05	-1.573256E-04
593	6.92	-7.909317E-05	-1.559787E-04
594	6.93	-7.841180E-05	-1.546450E-04
595	6.94	-7.773723E-05	-1.533246E-04
596	6.95	-7.706940E-05	-1.520171E-04
597	6.96	-7.640822E-05	-1.507225E-04
598	6.97	-7.575361E-05	-1.494407E-04
599	6.98	-7.510552E-05	-1.481714E-04
600	6.99	-7.446385E-05	-1.469146E-04
601	7.00	-7.382855E-05	-1.456701E-04
602	7.01	-7.319953E-05	-1.444378E-04
603	7.02	-7.257673E-05	-1.432176E-04
604	7.03	-7.196008E-05	-1.420092E-04
605	7.04	-7.134951E-05	-1.408126E-04
606	7.05	-7.074495E-05	-1.396277E-04
607	7.06	-7.014634E-05	-1.384543E-04
608	7.07	-6.955360E-05	-1.372923E-04
609	7.08	-6.896668E-05	-1.361416E-04
610	7.09	-6.838550E-05	-1.350020E-04
611	7.10	-6.781001E-05	-1.338735E-04
612	7.11	-6.724014E-05	-1.327558E-04
613	7.12	-6.667583E-05	-1.316490E-04
614	7.13	-6.611701E-05	-1.305528E-04
615	7.14	-6.556363E-05	-1.294671E-04
616	7.15	-6.501563E-05	-1.283920E-04
617	7.16	-6.447295E-05	-1.273271E-04
618	7.17	-6.393552E-05	-1.262725E-04
619	7.18	-6.340330E-05	-1.252279E-04
620	7.19	-6.287622E-05	-1.241934E-04
621	7.20	-6.235422E-05	-1.231687E-04
622	7.21	-6.183726E-05	-1.221539E-04
623	7.22	-6.132527E-05	-1.211487E-04
624	7.23	-6.081821E-05	-1.201530E-04
625	7.24	-6.031602E-05	-1.191669E-04
626	7.25	-5.981864E-05	-1.181901E-04
627	7.26	-5.932602E-05	-1.172226E-04
628	7.27	-5.883812E-05	-1.162642E-04
629	7.28	-5.835487E-05	-1.153149E-04
630	7.29	-5.787624E-05	-1.143746E-04
631	7.30	-5.740216E-05	-1.134432E-04
632	7.31	-5.693260E-05	-1.125205E-04
633	7.32	-5.646749E-05	-1.116066E-04
634	7.33	-5.600681E-05	-1.107012E-04
635	7.34	-5.555048E-05	-1.098044E-04
636	7.35	-5.509848E-05	-1.089159E-04
637	7.36	-5.465074E-05	-1.080358E-04
638	7.37	-5.420724E-05	-1.071639E-04
639	7.38	-5.376791E-05	-1.063002E-04
640	7.39	-5.333273E-05	-1.054445E-04
641	7.40	-5.290163E-05	-1.045968E-04
642	7.41	-5.247459E-05	-1.037570E-04
643	7.42	-5.205154E-05	-1.029250E-04
644	7.43	-5.163247E-05	-1.021008E-04
645	7.44	-5.121731E-05	-1.012842E-04
646	7.45	-5.080603E-05	-1.004751E-04
647	7.46	-5.039859E-05	-9.967360E-05
648	7.47	-4.999494E-05	-9.887946E-05
649	7.48	-4.959506E-05	-9.809266E-05
650	7.49	-4.919888E-05	-9.731311E-05
651	7.50	-4.880639E-05	-9.654074E-05
652	7.51	-4.841754E-05	-9.577548E-05
653	7.52	-4.803229E-05	-9.501724E-05
654	7.53	-4.765059E-05	-9.426597E-05
655	7.54	-4.727243E-05	-9.352158E-05
656	7.55	-4.689775E-05	-9.278401E-05
657	7.56	-4.652653E-05	-9.205319E-05
658	7.57	-4.615872E-05	-9.132903E-05
659	7.58	-4.579429E-05	-9.061148E-05
660	7.59	-4.543320E-05	-8.990047E-05
661	7.60	-4.507543E-05	-8.919593E-05
662	7.61	-4.472093E-05	-8.849779E-05
663	7.62	-4.436967E-05	-8.780599E-05
664	7.63	-4.402162E-05	-8.712047E-05
665	7.64	-4.367674E-05	-8.644114E-05
666	7.65	-4.333500E-05	-8.576797E-05
667	7.66	-4.299638E-05	-8.510087E-05
668	7.67	-4.266083E-05	-8.443979E-05
669	7.68	-4.232832E-05	-8.378467E-05
670	7.69	-4.199883E-05	-8.313545E-05
671	7.70	-4.167231E-05	-8.249206E-05
672	7.71	-4.134875E-05	-8.185445E-05
673	7.72	-4.102812E-05	-8.122255E-05
674	7.73	-4.071037E-05	-8.059632E-05
675	7.74	-4.039548E-05	-7.997569E-05
676	7.75	-4.008343E-05	-7.936060E-05
677	7.76	-3.977418E-05	-7.875101E-05
678	7.77	-3.946770E-05	-7.814684E-05
679	7.78	-3.916397E-05	-7.754806E-05
680	7.79	-3.886296E-05	-7.695460E-05
681	7.80	-3.856464E-05	-7.636641E-05
682	7.81	-3.826898E-05	-7.578344E-05
683	7.82	-3.797596E-05	-7.520564E-05
684	7.83	-3.768555E-05	-7.463295E-05
685	7.84	-3.739772E-05	-7.406532E-05
686	7.85	-3.711245E-05	-7.350270E-05
687	7.86	-3.682971E-05	-7.294504E-05
688	7.87	-3.654947E-05	-7.239230E-05
689	7.88	-3.627172E-05	-7.184441E-05
690	7.89	-3.599642E-05	-7.130134E-05
691	7.90	-3.572355E-05	-7.076304E-05
692	7.91	-3.545308E-05	-7.022946E-05
693	7.92	-3.518500E-05	-6.970054E-05
694	7.93	-3.491928E-05	-6.917626E-05
695	7.94	-3.465589E-05	-6.865655E-05
696	7.95	-3.439481E-05	-6.814137E-05
697	7.96	-3.413602E-05	-6.763069E-05
698	7.97	-3.387950E-05	-6.712445E-05
699	7.98	-3.362521E-05	-6.662261E-05
700	7.99	-3.337315E-05	-6.612512E-05
701	8.00	-3.312329E-05	-6.563195E-05
702	8.01	-3.287560E-05	-6.514306E-05
703	8.02	-3.263007E-05	-6.465839E-05
704	8.03	-3.238667E-05	-6.417791E-05
705	8.04	-3.214538E-05	-6.370158E-05
706	8.05	-3.190619E-05	-6.322935E-05
707	8.06	-3.166906E-05	-6.276119E-05
708	8.07	-3.143399E-05	-6.229706E-05
709	8.08	-3.120095E-05	-6.183692E-05
710	8.09	-3.096991E-05	-6.138072E-05
711	8.10	-3.074087E-05	-6.092843E-05
712	8.11	-3.051380E-05	-6.048002E-05
713	8.12	-3.028868E-05	-6.003544E-05
714	8.13	-3.006549E-05	-5.959465E-05
715	8.14	-2.984422E-05	-5.915763E-05
716	8.15	-2.962484E-05	-5.872433E-05
717	8.16	-2.940734E-05	-5.829472E-05
718	8.17	-2.919170E-05	-5.786875E-05
719	8.18	-2.897790E-05	-5.744641E-05
720	8.19	-2.876591E-05	-5.702765E-05
721	8.20	-2.855574E-05	-5.661243E-05
722	8.21	-2.834735E-05	-5.620073E-05
723	8.22	-2.814073E-05	-5.579251E-05
724	8.23	-2.793586E-05	-5.538773E-05
725	8.24	-2.773273E-05	-5.498637E-05
726	8.25	-2.753132E-05	-5.458838E-05
727	8.26	-2.733161E-05	-5.419375E-05
728	8.27	-2.713359E-05	-5.380243E-05
729	8.28	-2.693723E-05	-5.341439E-05
730	8.29	-2.674254E-05	-5.302961E-05
731	8.30	-2.654947E-05	-5.264805E-05
732	8.31	-2.635803E-05	-5.226968E-05
733	8.32	-2.616820E-05	-5.189447E-05
734	8.33	-2.597996E-05	-5.152239E-05
735	8.34	-2.579330E-05	-5.115341E-05
736	8.35	-2.560819E-05	-5.078751E-05
737	8.36	-2.542463E-05	-5.042464E-05
738	8.37	-2.524261E-05	-5.006479E-05
739	8.38	-2.506210E-05	-4.970793E-05
740	8.39	-2.488309E-05	-4.935402E-05
741	8.40	-2.470557E-05	-4.900305E-05
742	8.41	-2.452953E-05	-4.865497E-05
743	8.42	-2.435494E-05	-4.830977E-05
744	8.43	-2.418181E-05	-4.796742E-05
745	8.44	-2.401010E-05	-4.762789E-05
746	8.45	-2.383982E-05	-4.729115E-05
747	8.46	-2.367094E-05	-4.695718E-05
748	8.47	-2.350345E-05	-4.662595E-05
749	8.48	-2.333734E-05	-4.629744E-05
750	8.49	-2.317260E-05	-4.597162E-05
751	8.50	-2.300922E-05	-4.564847E-05
752	8.51	-2.284717E-05	-4.532796E-05
753	8.52	-2.268645E-05	-4.501006E-05
754	8.53	-2.252705E-05	-4.469476E-05
755	8.54	-2.236896E-05	-4.438203E-05
756	8.55	-2.221215E-05	-4.407184E-05
757	8.56	-2.205663E-05	-4.376417E-05
758	8.57	-2.190237E-05	-4.345900E-05
759	8.58	-2.174937E-05	-4.315631E-05
760	8.59	-2.159761E-05	-4.285607E-05
761	8.60	-2.144709E-05	-4.255825E-05
762	8.61	-2.129779E-05	-4.226285E-05
763	8.62	-2.114969E-05	-4.196983E-05
764	8.63	-2.100280E-05	-4.167917E-05
765	8.64	-2.085710E-05	-4.139085E-05
766	8.65	-2.071257E-05	-4.110485E-05
767	8.66	-2.056920E-05	-4.082115E-05
768	8.67	-2.042700E-05	-4.053973E-05
769	8.68	-2.028594E-05	-4.026057E-05
770	8.69	-2.014601E-05	-3.998364E-05
771	8.70	-2.000720E-05	-3.970893E-05
772	8.71	-1.986951E-05	-3.943641E-05
773	8.72	-1.973293E-05	-3.916607E-05
774	8.73	-1.959743E-05	-3.889789E-05
775	8.74	-1.946302E-05	-3.863184E-05
776	8.75	-1.932969E-05	-3.836791E-05
777	8.76	-1.919741E-05	-3.810607E-05
778	8.77	-1.906620E-05	-3.784632E-05
779	8.78	-1.893602E-05	-3.758862E-05
780	8.79	-1.880688E-05	-3.733297E-05
781	8.80	-1.867877E-05	-3.707934E-05
782	8.81	-1.855167E-05	-3.682771E-05
783	8.82	-1.842558E-05	-3.657807E-05
784	8.83	-1.830049E-05	-3.633040E-05
785	8.84	-1.817638E-05	-3.608468E-05
786	8.85	-1.805326E-05	-3.584090E-05
787	8.86	-1.793111E-05	-3.559903E-05
788	8.87	-1.780992E-05	-3.535906E-05
789	8.88	-1.768968E-05	-3.512097E-05
790	8.89	-1.757039E-05	-3.488475E-05
791	8.90	-1.745204E-05	-3.465037E-05
792	8.91	-1.733461E-05	-3.441783E-05
793	8.92	-1.721811E-05	-3.418711E-05
794	8.93	-1.710252E-05	-3.395818E-05
795	8.94	-1.698783E-05	-3.373104E-05
796	8.95	-1.687404E-05	-3.350566E-05
797	8.96	-1.676113E-05	-3.328204E-05
798	8.97	-1.664910E-05	-3.306016E-05
799	8.98	-1.653795E-05	-3.284000E-05
800	8.99	-1.642766E-05	-3.262154E-05
801	9.00	-1.631823E-05	-3.240477E-05
802	9.01	-1.620965E-05	-3.218968E-05
803	9.02	-1.610190E-05	-3.197626E-05
804	9.03	-1.599500E-05	-3.176447E-05
805	9.04	-1.588891E-05	-3.155433E-05
806	9.05	-1.578365E-05	-3.134580E-05
807	9.06	-1.567920E-05	-3.113887E-05
808	9.07	-1.557556E-05	-3.093353E-05
809	9.08	-1.547271E-05	-3.072977E-05
810	9.09	-1.537066E-05	-3.052757E-05
811	9.10	-1.526939E-05	-3.032692E-05
812	9.11	-1.516889E-05	-3.012781E-05
813	9.12	-1.506917E-05	-2.993021E-05
814	9.13	-1.497021E-05	-2.973413E-05
815	9.14	-1.487201E-05	-2.953954E-05
816	9.15	-1.477455E-05	-2.934643E-05
817	9.16	-1.467784E-05	-2.915479E-05
818	9.17	-1.458187E-05	-2.896461E-05
819	9.18	-1.448663E-05	-2.877587E-05
820	9.19	-1.439212E-05	-2.858857E-05
821	9.20	-1.429832E-05	-2.840268E-05
822	9.21	-1.420523E-05	-2.821820E-05
823	9.22	-1.411285E-05	-2.803512E-05
824	9.23	-1.402118E-05	-2.785342E-05
825	9.24	-1.393019E-05	-2.767308E-05
826	9.25	-1.383989E-05	-2.749411E-05
827	9.26	-1.375027E-05	-2.731649E-05
828	9.27	-1.366133E-05	-2.714020E-05
829	9.28	-1.357306E-05	-2.696524E-05
830	9.29	-1.348546E-05	-2.679158E-05
831	9.30	-1.339851E-05	-2.661923E-05
832	9.31	-1.331222E-05	-2.644818E-05
833	9.32	-1.322657E-05	-2.627840E-05
834	9.33	-1.314157E-05	-2.610989E-05
835	9.34	-1.305720E-05	-2.594264E-05
836	9.35	-1.297346E-05	-2.577663E-05
837	9.36	-1.289035E-05	-2.561186E-05
838	9.37	-1.280786E-05	-2.544832E-05
839	9.38	-1.272598E-05	-2.528599E-05
840	9.39	-1.264472E-05	-2.512487E-05
841	9.40	-1.256405E-05	-2.496495E-05
842	9.41	-1.248399E-05	-2.480621E-05
843	9.42	-1.240452E-05	-2.464864E-05
844	9.43	-1.232565E-05	-2.449225E-05
845	9.44	-1.224735E-05	-2.433700E-05
846	9.45	-1.216964E-05	-2.418290E-05
847	9.46	-1.209250E-05	-2.402994E-05
848	9.47	-1.201593E-05	-2.387811E-05
849	9.48	-1.193992E-05	-2.372739E-05
850	9.49	-1.186447E-05	-2.357778E-05
851	9.50	-1.178958E-05	-2.342926E-05
852	9.51	-1.171524E-05	-2.328184E-05
853	9.52	-1.164145E-05	-2.313550E-05
854	9.53	-1.156820E-05	-2.299023E-05
855	9.54	-1.149548E-05	-2.284602E-05
856	9.55	-1.142330E-05	-2.270286E-05
857	9.56	-1.135165E-05	-2.256075E-05
858	9.57	-1.128052E-05	-2.241967E-05
859	9.58	-1.120991E-05	-2.227962E-05
860	9.59	-1.113981E-05	-2.214059E-05
861	9.60	-1.107022E-05	-2.200257E-05
862	9.61	-1.100115E-05	-2.186555E-05
863	9.62	-1.093257E-05	-2.172953E-05
864	9.63	-1.086449E-05	-2.159449E-05
865	9.64	-1.079690E-05	-2.146043E-05
866	9.65	-1.072981E-05	-2.132734E-05
867	9.66	-1.066320E-05	-2.119521E-05
868	9.67	-1.059707E-05	-2.106403E-05
869	9.68	-1.053142E-05	-2.093380E-05
870	9.69	-1.046625E-05	-2.080450E-05
871	9.70	-1.040154E-05	-2.067614E-05
872	9.71	-1.033730E-05	-2.054870E-05
873	9.72	-1.027353E-05	-2.042217E-05
874	9.73	-1.021021E-05	-2.029655E-05
875	9.74	-1.014734E-05	-2.017183E-05
876	9.75	-1.008493E-05	-2.004800E-05
877	9.76	-1.002296E-05	-1.992506E-05
878	9.77	-9.961441E-06	-1.980299E-05
879	9.78	-9.900359E-06	-1.968180E-05
880	9.79	-9.839713E-06	-1.956147E-05
881	9.80	-9.779501E-06	-1.944200E-05
882	9.81	-9.719717E-06	-1.932337E-05
883	9.82	-9.660359E-06	-1.920559E-05
884	9.83	-9.601424E-06	-1.908865E-05
885	9.84	-9.542908E-06	-1.897254E-05
886	9.85	-9.484807E-06	-1.885724E-05
887	9.86	-9.427119E-06	-1.874277E-05
888	9.87	-9.369839E-06	-1.862910E-05
889	9.88	-9.312965E-06	-1.851624E-05
890	9.89	-9.256493E-06	-1.840417E-05
891	9.90	-9.200420E-06	-1.829289E-05
892	9.91	-9.144743E-06	-1.818240E-05
893	9.92	-9.089459E-06	-1.807268E-05
894	9.93	-9.034564E-06	-1.796374E-05
895	9.94	-8.980055E-06	-1.785556E-05
896	9.95	-8.925930E-06	-1.774814E-05
897	9.96	-8.872185E-06	-1.764147E-05
898	9.97	-8.818817E-06	-1.753555E-05
899	9.98	-8.765823E-06	-1.743037E-05
900	9.99	-8.713200E-06	-1.732592E-05
901	10.00	-8.660945E-06	-1.722220E-05
902	10.01	-8.609055E-06	-1.711921E-05
903	10.02	-8.557528E-06	-1.701693E-05
904	10.03	-8.506360E-06	-1.691537E-05
905	10.04	-8.455549E-06	-1.681451E-05
906	10.05	-8.405091E-06	-1.671435E-05
907	10.06	-8.354984E-06	-1.661489E-05
908	10.07	-8.305225E-06	-1.651612E-05
909	10.08	-8.255812E-06	-1.641803E-05
910	10.09	-8.206741E-06	-1.632062E-05
911	10.10	-8.158010E-06	-1.622388E-05
912	10.11	-8.109617E-06	-1.612781E-05
913	10.12	-8.061558E-06	-1.603240E-05
914	10.13	-8.013830E-06	-1.593765E-05
915	10.14	-7.966433E-06	-1.584355E-05
916	10.15	-7.919361E-06	-1.575010E-05
917	10.16	-7.872614E-06	-1.565730E-05
918	10.17	-7.826189E-06	-1.556512E-05
919	10.18	-7.780082E-06	-1.547359E-05
920	10.19	-7.734292E-06	-1.538267E-05
921	10.20	-7.688817E-06	-1.529238E-05
922	10.21	-7.643652E-06	-1.520271E-05
923	10.22	-7.598797E-06	-1.511365E-05
924	10.23	-7.554249E-06	-1.502520E-05
925	10.24	-7.510005E-06	-1.493735E-05
926	10.25	-7.466063E-06	-1.485010E-05
927	10.26	-7.422421E-06	-1.476344E-05
928	10.27	-7.379076E-06	-1.467738E-05
929	10.28	-7.336026E-06	-1.459189E-05
930	10.29	-7.293269E-06	-1.450699E-05
931	10.30	-7.250802E-06	-1.442266E-05
932	10.31	-7.208623E-06	-1.433891E-05
933	10.32	-7.166730E-06	-1.425572E-05
934	10.33	-7.125121E-06	-1.417309E-05
935	10.34	-7.083794E-06	-1.409102E-05
936	10.35	-7.042746E-06	-1.400950E-05
937	10.36	-7.001975E-06	-1.392854E-05
938	10.37	-6.961479E-06	-1.384812E-05
939	10.38	-6.921256E-06	-1.376824E-05
940	10.39	-6.881304E-06	-1.368889E-05
941	10.40	-6.841621E-06	-1.361008E-05
942	10.41	-6.802205E-06	-1.353180E-05
943	10.42	-6.763053E-06	-1.345404E-05
944	10.43	-6.724164E-06	-1.337681E-05
945	10.44	-6.685535E-06	-1.330009E-05
946	10.45	-6.647165E-06	-1.322388E-05
947	10.46	-6.609052E-06	-1.314818E-05
948	10.47	-6.571193E-06	-1.307298E-05
949	10.48	-6.533588E-06	-1.299829E-05
950	10.49	-6.496233E-06	-1.292410E-05
951	10.50	-6.459126E-06	-1.285039E-05
952	10.51	-6.422267E-06	-1.277718E-05
953	10.52	-6.385654E-06	-1.270445E-05
954	10.53	-6.349283E-06	-1.263221E-05
955	10.54	-6.313154E-06	-1.256044E-05
956	10.55	-6.277264E-06	-1.248915E-05
957	10.56	-6.241612E-06	-1.241833E-05
958	10.57	-6.206197E-06	-1.234798E-05
959	10.58	-6.171015E-06	-1.227810E-05
960	10.59	-6.136066E-06	-1.220867E-05
961	10.60	-6.101348E-06	-1.213970E-05
962	10.61	-6.066858E-06	-1.207119E-05
963	10.62	-6.032596E-06	-1.200312E-05
964	10.63	-5.998559E-06	-1.193551E-05
965	10.64	-5.964746E-06	-1.186833E-05
966	10.65	-5.931156E-06	-1.180160E-05
967	10.66	-5.897785E-06	-1.173530E-05
968	10.67	-5.864634E-06	-1.166944E-05
969	10.68	-5.831700E-06	-1.160401E-05
970	10.69	-5.798981E-06	-1.153901E-05
971	10.70	-5.766476E-06	-1.147443E-05
972	10.71	-5.734184E-06	-1.141027E-05
973	10.72	-5.702103E-06	-1.134653E-05
974	10.73	-5.670230E-06	-1.128321E-05
975	10.74	-5.638565E-06	-1.122029E-05
976	10.75	-5.607107E-06	-1.115779E-05
977	10.76	-5.575853E-06	-1.109569E-05
978	10.77	-5.544802E-06	-1.103399E-05
979	10.78	-5.513952E-06	-1.097270E-05
980	10.79	-5.483303E-06	-1.091180E-05
981	10.80	-5.452852E-06	-1.085129E-05
982	10.81	-5.422599E-06	-1.079118E-05
983	10.82	-5.392541E-06	-1.073145E-05
984	10.83	-5.362677E-06	-1.067211E-05
985	10.84	-5.333006E-06	-1.061315E-05
986	10.85	-5.303526E-06	-1.055457E-05
987	10.86	-5.274236E-06	-1.049637E-05
988	10.87	-5.245135E-06	-1.043854E-05
989	10.88	-5.216221E-06	-1.038108E-05
990	10.89	-5.187493E-06	-1.032399E-05
991	10.90	-5.158949E-06	-1.026727E-05
992	10.91	-5.130588E-06	-1.021091E-05
993	10.92	-5.102409E-06	-1.015491E-05
994	10.93	-5.074410E-06	-1.009927E-05
995	10.94	-5.046591E-06	-1.004398E-05
996	10.95	-5.018949E-06	-9.989050E-06
997	10.96	-4.991484E-06	-9.934466E-06
998	10.97	-4.964194E-06	-9.880231E-06
999	10.98	-4.937077E-06	-9.826340E-06
1000	10.99	-4.910134E-06	-9.772791E-06
1001	11.00	-4.883362E-06	-9.719583E-06
1002	11.01	-4.856760E-06	-9.666713E-06
1003	11.02	-4.830326E-06	-9.614177E-06
1004	11.03	-4.804061E-06	-9.561974E-06
1005	11.04	-4.777962E-06	-9.510102E-06
1006	11.05	-4.752028E-06	-9.458557E-06
1007	11.06	-4.726259E-06	-9.407338E-06
1008	11.07	-4.700652E-06	-9.356443E-06
1009	11.08	-4.675207E-06	-9.305868E-06
1010	11.09	-4.649923E-06	-9.255611E-06
1011	11.10	-4.624798E-06	-9.205671E-06
1012	11.11	-4.599831E-06	-9.156046E-06
1013	11.12	-4.575021E-06	-9.106731E-06
1014	11.13	-4.550368E-06	-9.057727E-06
1015	11.14	-4.525869E-06	-9.009029E-06
1016	11.15	-4.501524E-06	-8.960637E-06
1017	11.16	-4.477331E-06	-8.912548E-06
1018	11.17	-4.453290E-06	-8.864759E-06
1019	11.18	-4.429400E-06	-8.817269E-06
1020	11.19	-4.405659E-06	-8.770076E-06
1021	11.20	-4.382066E-06	-8.723177E-06
1022	11.21	-4.358621E-06	-8.676570E-06
1023	11.22	-4.335322E-06	-8.630253E-06
1024	11.23	-4.312168E-06	-8.584225E-06
1025	11.24	-4.289158E-06	-8.538483E-06
1026	11.25	-4.266291E-06	-8.493024E-06
1027	11.26	-4.243567E-06	-8.447848E-06
1028	11.27	-4.220983E-06	-8.402952E-06
1029	11.28	-4.198540E-06	-8.358334E-06
1030	11.29	-4.176235E-06	-8.313992E-06
1031	11.30	-4.154069E-06	-8.269924E-06
1032	11.31	-4.132040E-06	-8.226128E-06
1033	11.32	-4.110147E-06	-8.182603E-06
1034	11.33	-4.088389E-06	-8.139346E-06
1035	11.34	-4.066766E-06	-8.096356E-06
1036	11.35	-4.045276E-06	-8.053630E-06
1037	11.36	-4.023918E-06	-8.011167E-06
1038	11.37	-4.002692E-06	-7.968965E-06
1039	11.38	-3.981596E-06	-7.927022E-06
1040	11.39	-3.960630E-06	-7.885336E-06
1041	11.40	-3.939793E-06	-7.843906E-06
1042	11.41	-3.919083E-06	-7.802729E-06
1043	11.42	-3.898500E-06	-7.761805E-06
1044	11.43	-3.878044E-06	-7.721130E-06
1045	11.44	-3.857712E-06	-7.680704E-06
1046	11.45	-3.837505E-06	-7.640525E-06
1047	11.46	-3.817421E-06	-7.600591E-06
1048	11.47	-3.797459E-06	-7.560900E-06
1049	11.48	-3.777620E-06	-7.521450E-06
1050	11.49	-3.757901E-06	-7.482240E-06
1051	11.50	-3.738302E-06	-7.443269E-06
1052	11.51	-3.718822E-06	-7.404534E-06
1053	11.52	-3.699461E-06	-7.366034E-06
1054	11.53	-3.680217E-06	-7.327768E-06
1055	11.54	-3.661089E-06	-7.289733E-06
1056	11.55	-3.642078E-06	-7.251928E-06
1057	11.56	-3.623182E-06	-7.214352E-06
1058	11.57	-3.604400E-06	-7.177002E-06
1059	11.58	-3.585731E-06	-7.139878E-06
1060	11.59	-3.567176E-06	-7.102978E-06
1061	11.60	-3.548732E-06	-7.066300E-06
1062	11.61	-3.530399E-06	-7.029843E-06
1063	11.62	-3.512177E-06	-6.993605E-06
1064	11.63	-3.494064E-06	-6.957585E-06
1065	11.64	-3.476061E-06	-6.921781E-06
1066	11.65	-3.458165E-06	-6.886192E-06
1067	11.66	-3.440377E-06	-6.850816E-06
1068	11.67	-3.422695E-06	-6.815651E-06
1069	11.68	-3.405120E-06	-6.780698E-06
1070	11.69	-3.387649E-06	-6.745953E-06
1071	11.70	-3.370284E-06	-6.711415E-06
1072	11.71	-3.353021E-06	-6.677084E-06
1073	11.72	-3.335862E-06	-6.642958E-06
1074	11.73	-3.318806E-06	-6.609034E-06
1075	11.74	-3.301851E-06	-6.575313E-06
1076	11.75	-3.284997E-06	-6.541792E-06
1077	11.76	-3.268243E-06	-6.508471E-06
1078	11.77	-3.251589E-06	-6.475347E-06
1079	11.78	-3.235034E-06	-6.442419E-06
1080	11.79	-3.218577E-06	-6.409687E-06
1081	11.80	-3.202218E-06	-6.377149E-06
1082	11.81	-3.185955E-06	-6.344803E-06
1083	11.82	-3.169789E-06	-6.312649E-06
1084	11.83	-3.153719E-06	-6.280684E-06
1085	11.84	-3.137743E-06	-6.248908E-06
1086	11.85	-3.121862E-06	-6.217319E-06
1087	11.86	-3.106075E-06	-6.185917E-06
1088	11.87	-3.090380E-06	-6.154699E-06
1089	11.88	-3.074778E-06	-6.123665E-06
1090	11.89	-3.059268E-06	-6.092814E-06
1091	11.90	-3.043849E-06	-6.062143E-06
1092	11.91	-3.028521E-06	-6.031653E-06
1093	11.92	-3.013283E-06	-6.001341E-06
1094	11.93	-2.998134E-06	-5.971207E-06
1095	11.94	-2.983074E-06	-5.941249E-06
1096	11.95	-2.968102E-06	-5.911467E-06
1097	11.96	-2.953217E-06	-5.881858E-06
1098	11.97	-2.938420E-06	-5.852422E-06
1099	11.98	-2.923709E-06	-5.823158E-06
1100	11.99	-2.909084E-06	-5.794065E-06
1101	12.00	-2.894544E-06	-5.765141E-06
1102	12.01	-2.880089E-06	-5.736385E-06
1103	12.02	-2.865719E-06	-5.707796E-06
1104	12.03	-2.851431E-06	-5.679374E-06
1105	12.04	-2.837227E-06	-5.651117E-06
1106	12.05	-2.823105E-06	-5.623023E-06
1107	12.06	-2.809066E-06	-5.595092E-06
1108	12.07	-2.795107E-06	-5.567323E-06
1109	12.08	-2.781230E-06	-5.539715E-06
1110	12.09	-2.767432E-06	-5.512266E-06
1111	12.10	-2.753715E-06	-5.484975E-06
1112	12.11	-2.740077E-06	-5.457842E-06
1113	12.12	-2.726517E-06	-5.430866E-06
1114	12.13	-2.713036E-06	-5.404045E-06
1115	12.14	-2.699633E-06	-5.377379E-06
1116	12.15	-2.686307E-06	-5.350865E-06
1117	12.16	-2.673057E-06	-5.324504E-06
1118	12.17	-2.659884E-06	-5.298295E-06
1119	12.18	-2.646786E-06	-5.272236E-06
1120	12.19	-2.633763E-06	-5.246326E-06
1121	12.20	-2.620816E-06	-5.220565E-06
1122	12.21	-2.607942E-06	-5.194951E-06
1123	12.22	-2.595142E-06	-5.169484E-06
1124	12.23	-2.582415E-06	-5.144162E-06
1125	12.24	-2.569762E-06	-5.118985E-06
1126	12.25	-2.557180E-06	-5.093951E-06
1127	12.26	-2.544670E-06	-5.069061E-06
1128	12.27	-2.532232E-06	-5.044312E-06
1129	12.28	-2.519864E-06	-5.019703E-06
1130	12.29	-2.507567E-06	-4.995235E-06
1131	12.30	-2.495340E-06	-4.970906E-06
1132	12.31	-2.483182E-06	-4.946715E-06
1133	12.32	-2.471094E-06	-4.922661E-06
1134	12.33	-2.459074E-06	-4.898743E-06
1135	12.34	-2.447122E-06	-4.874961E-06
1136	12.35	-2.435238E-06	-4.851314E-06
1137	12.36	-2.423421E-06	-4.827800E-06
1138	12.37	-2.411671E-06	-4.804419E-06
1139	12.38	-2.399987E-06	-4.781170E-06
1140	12.39	-2.388370E-06	-4.758052E-06
1141	12.40	-2.376818E-06	-4.735065E-06
1142	12.41	-2.365331E-06	-4.712206E-06
1143	12.42	-2.353909E-06	-4.689477E-06
1144	12.43	-2.342551E-06	-4.666875E-06
1145	12.44	-2.331257E-06	-4.644401E-06
1146	12.45	-2.320027E-06	-4.622052E-06
1147	12.46	-2.308859E-06	-4.599829E-06
1148	12.47	-2.297755E-06	-4.577731E-06
1149	12.48	-2.286712E-06	-4.555756E-06
1150	12.49	-2.275732E-06	-4.533904E-06
1151	12.50	-2.264812E-06	-4.512174E-06
1152	12.51	-2.253954E-06	-4.490566E-06
1153	12.52	-2.243157E-06	-4.469078E-06
1154	12.53	-2.232420E-06	-4.447711E-06
1155	12.54	-2.221743E-06	-4.426462E-06
1156	12.55	-2.211125E-06	-4.405332E-06
1157	12.56	-2.200567E-06	-4.384319E-06
1158	12.57	-2.190067E-06	-4.363423E-06
1159	12.58	-2.179626E-06	-4.342643E-06
1160	12.59	-2.169243E-06	-4.321979E-06
1161	12.60	-2.158917E-06	-4.301429E-06
1162	12.61	-2.148649E-06	-4.280993E-06
1163	12.62	-2.138438E-06	-4.260670E-06
1164	12.63	-2.128283E-06	-4.240460E-06
1165	12.64	-2.118185E-06	-4.220361E-06
1166	12.65	-2.108142E-06	-4.200374E-06
1167	12.66	-2.098155E-06	-4.180496E-06
1168	12.67	-2.088223E-06	-4.160729E-06
1169	12.68	-2.078346E-06	-4.141070E-06
1170	12.69	-2.068523E-06	-4.121520E-06
1171	12.70	-2.058755E-06	-4.102078E-06
1172	12.71	-2.049040E-06	-4.082742E-06
1173	12.72	-2.039379E-06	-4.063512E-06
1174	12.73	-2.029770E-06	-4.044388E-06
1175	12.74	-2.020215E-06	-4.025369E-06
1176	12.75	-2.010712E-06	-4.006455E-06
1177	12.76	-2.001261E-06	-3.987643E-06
1178	12.77	-1.991862E-06	-3.968935E-06
1179	12.78	-1.982514E-06	-3.950329E-06
1180	12.79	-1.973218E-06	-3.931825E-06
1181	12.80	-1.963972E-06	-3.913422E-06
1182	12.81	-1.954777E-06	-3.895119E-06
1183	12.82	-1.945632E-06	-3.876916E-06
1184	12.83	-1.936537E-06	-3.858813E-06
1185	12.84	-1.927492E-06	-3.840807E-06
1186	12.85	-1.918495E-06	-3.822900E-06
1187	12.86	-1.909548E-06	-3.805090E-06
1188	12.87	-1.900650E-06	-3.787377E-06
1189	12.88	-1.891799E-06	-3.769760E-06
1190	12.89	-1.882997E-06	-3.752238E-06
1191	12.90	-1.874243E-06	-3.734812E-06
1192	12.91	-1.865536E-06	-3.717479E-06
1193	12.92	-1.856876E-06	-3.700241E-06
1194	12.93	-1.848263E-06	-3.683096E-06
1195	12.94	-1.839696E-06	-3.666043E-06
1196	12.95	-1.831176E-06	-3.649082E-06
1197	12.96	-1.822702E-06	-3.632213E-06
1198	12.97	-1.814274E-06	-3.615435E-06
1199	12.98	-1.805891E-06	-3.598747E-06
1200	12.99	-1.797553E-06	-3.582149E-06
