# DATE: 2024-07-07  UNITS: metal  CONTRIBUTOR: By STUDENT			
# FHEP: Temp 77 [K], mr 0.5 [g/mol], Sigma 2.57 [A], Epsilon 0.0019078775842068 [eV]			
			
ENTRY			
N 1200 R 1.0 12.99			
			
1	1.00	4.984133E+03	6.391228E+04
2	1.01	4.346748E+03	5.512615E+04
3	1.02	3.796135E+03	4.761898E+04
4	1.03	3.319780E+03	4.119451E+04
5	1.04	2.907074E+03	3.568807E+04
6	1.05	2.549006E+03	3.096135E+04
7	1.06	2.237911E+03	2.689788E+04
8	1.07	1.967258E+03	2.339951E+04
9	1.08	1.731474E+03	2.038332E+04
10	1.09	1.525799E+03	1.777921E+04
11	1.10	1.346155E+03	1.552776E+04
12	1.11	1.189050E+03	1.357858E+04
13	1.12	1.051485E+03	1.188884E+04
14	1.13	9.308835E+02	1.042208E+04
15	1.14	8.250262E+02	9.147245E+03
16	1.15	7.320014E+02	8.037817E+03
17	1.16	6.501590E+02	7.071136E+03
18	1.17	5.780728E+02	6.227805E+03
19	1.18	5.145089E+02	5.491202E+03
20	1.19	4.583983E+02	4.847058E+03
21	1.20	4.088136E+02	4.283115E+03
22	1.21	3.649492E+02	3.788821E+03
23	1.22	3.261047E+02	3.355089E+03
24	1.23	2.916704E+02	2.974076E+03
25	1.24	2.611147E+02	2.639011E+03
26	1.25	2.339738E+02	2.344036E+03
27	1.26	2.098426E+02	2.084081E+03
28	1.27	1.883667E+02	1.854751E+03
29	1.28	1.692358E+02	1.652231E+03
30	1.29	1.521780E+02	1.473207E+03
31	1.30	1.369547E+02	1.314795E+03
32	1.31	1.233564E+02	1.174487E+03
33	1.32	1.111989E+02	1.050092E+03
34	1.33	1.003200E+02	9.397031E+02
35	1.34	9.057682E+01	8.416506E+02
36	1.35	8.184344E+01	7.544760E+02
37	1.36	7.400867E+01	6.769024E+02
38	1.37	6.697426E+01	6.078106E+02
39	1.38	6.065335E+01	5.462192E+02
40	1.39	5.496904E+01	4.912661E+02
41	1.40	4.985320E+01	4.421941E+02
42	1.41	4.524542E+01	3.983368E+02
43	1.42	4.109208E+01	3.591074E+02
44	1.43	3.734555E+01	3.239888E+02
45	1.44	3.396349E+01	2.925248E+02
46	1.45	3.090820E+01	2.643126E+02
47	1.46	2.814614E+01	2.389963E+02
48	1.47	2.564739E+01	2.162609E+02
49	1.48	2.338528E+01	1.958277E+02
50	1.49	2.133598E+01	1.774498E+02
51	1.50	1.947822E+01	1.609080E+02
52	1.51	1.779296E+01	1.460080E+02
53	1.52	1.626318E+01	1.325770E+02
54	1.53	1.487364E+01	1.204616E+02
55	1.54	1.361066E+01	1.095252E+02
56	1.55	1.246201E+01	9.964616E+01
57	1.56	1.141667E+01	9.071609E+01
58	1.57	1.046477E+01	8.263837E+01
59	1.58	9.597430E+00	7.532672E+01
60	1.59	8.806672E+00	6.870412E+01
61	1.60	8.085308E+00	6.270169E+01
62	1.61	7.426865E+00	5.725786E+01
63	1.62	6.825510E+00	5.231748E+01
64	1.63	6.275985E+00	4.783118E+01
65	1.64	5.773541E+00	4.375467E+01
66	1.65	5.313893E+00	4.004826E+01
67	1.66	4.893168E+00	3.667630E+01
68	1.67	4.507864E+00	3.360677E+01
69	1.68	4.154813E+00	3.081090E+01
70	1.69	3.831147E+00	2.826279E+01
71	1.70	3.534268E+00	2.593915E+01
72	1.71	3.261822E+00	2.381899E+01
73	1.72	3.011673E+00	2.188341E+01
74	1.73	2.781884E+00	2.011535E+01
75	1.74	2.570694E+00	1.849943E+01
76	1.75	2.376507E+00	1.702175E+01
77	1.76	2.197868E+00	1.566976E+01
78	1.77	2.033456E+00	1.443211E+01
79	1.78	1.882070E+00	1.329854E+01
80	1.79	1.742613E+00	1.225976E+01
81	1.80	1.614089E+00	1.130735E+01
82	1.81	1.495589E+00	1.043369E+01
83	1.82	1.386283E+00	9.631875E+00
84	1.83	1.285415E+00	8.895627E+00
85	1.84	1.192295E+00	8.219255E+00
86	1.85	1.106292E+00	7.597591E+00
87	1.86	1.026829E+00	7.025938E+00
88	1.87	9.533788E-01	6.500025E+00
89	1.88	8.854605E-01	6.015966E+00
90	1.89	8.226324E-01	5.570227E+00
91	1.90	7.644907E-01	5.159588E+00
92	1.91	7.106654E-01	4.781114E+00
93	1.92	6.608175E-01	4.432132E+00
94	1.93	6.146360E-01	4.110203E+00
95	1.94	5.718357E-01	3.813100E+00
96	1.95	5.321550E-01	3.538793E+00
97	1.96	4.953535E-01	3.285425E+00
98	1.97	4.612105E-01	3.051299E+00
99	1.98	4.295233E-01	2.834866E+00
100	1.99	4.001052E-01	2.634707E+00
101	2.00	3.727850E-01	2.449524E+00
102	2.01	3.474046E-01	2.278127E+00
103	2.02	3.238190E-01	2.119429E+00
104	2.03	3.018943E-01	1.972431E+00
105	2.04	2.815074E-01	1.836219E+00
106	2.05	2.625446E-01	1.709954E+00
107	2.06	2.449012E-01	1.592865E+00
108	2.07	2.284807E-01	1.484246E+00
109	2.08	2.131939E-01	1.383446E+00
110	2.09	1.989586E-01	1.289871E+00
111	2.10	1.856988E-01	1.202970E+00
112	2.11	1.733444E-01	1.122239E+00
113	2.12	1.618305E-01	1.047215E+00
114	2.13	1.510971E-01	9.774708E-01
115	2.14	1.410889E-01	9.126120E-01
116	2.15	1.317545E-01	8.522768E-01
117	2.16	1.230464E-01	7.961312E-01
118	2.17	1.149208E-01	7.438673E-01
119	2.18	1.073369E-01	6.952014E-01
120	2.19	1.002570E-01	6.498714E-01
121	2.20	9.364624E-02	6.076354E-01
122	2.21	8.747214E-02	5.682704E-01
123	2.22	8.170470E-02	5.315700E-01
124	2.23	7.631604E-02	4.973437E-01
125	2.24	7.128033E-02	4.654153E-01
126	2.25	6.657354E-02	4.356221E-01
127	2.26	6.217340E-02	4.078131E-01
128	2.27	5.805920E-02	3.818491E-01
129	2.28	5.421170E-02	3.576010E-01
130	2.29	5.061304E-02	3.349491E-01
131	2.30	4.724659E-02	3.137828E-01
132	2.31	4.409689E-02	2.939994E-01
133	2.32	4.114956E-02	2.755038E-01
134	2.33	3.839123E-02	2.582078E-01
135	2.34	3.580945E-02	2.420295E-01
136	2.35	3.339261E-02	2.268930E-01
137	2.36	3.112992E-02	2.127277E-01
138	2.37	2.901132E-02	1.994682E-01
139	2.38	2.702744E-02	1.870538E-01
140	2.39	2.516953E-02	1.754278E-01
141	2.40	2.342946E-02	1.645379E-01
142	2.41	2.179963E-02	1.543351E-01
143	2.42	2.027294E-02	1.447740E-01
144	2.43	1.884280E-02	1.358125E-01
145	2.44	1.750302E-02	1.274112E-01
146	2.45	1.624785E-02	1.195334E-01
147	2.46	1.507192E-02	1.121452E-01
148	2.47	1.397018E-02	1.052147E-01
149	2.48	1.293796E-02	9.871242E-02
150	2.49	1.197087E-02	9.261078E-02
151	2.50	1.106480E-02	8.688407E-02
152	2.51	1.021593E-02	8.150833E-02
153	2.52	9.420676E-03	7.646120E-02
154	2.53	8.675683E-03	7.172184E-02
155	2.54	7.977817E-03	6.727078E-02
156	2.55	7.324146E-03	6.308985E-02
157	2.56	6.711925E-03	5.916207E-02
158	2.57	6.138584E-03	5.547161E-02
159	2.58	5.601717E-03	5.200365E-02
160	2.59	5.099072E-03	4.874435E-02
161	2.60	4.628538E-03	4.568077E-02
162	2.61	4.188138E-03	4.280083E-02
163	2.62	3.776020E-03	4.009321E-02
164	2.63	3.390449E-03	3.754733E-02
165	2.64	3.029796E-03	3.515329E-02
166	2.65	2.692537E-03	3.290181E-02
167	2.66	2.377241E-03	3.078422E-02
168	2.67	2.082567E-03	2.879240E-02
169	2.68	1.807256E-03	2.691874E-02
170	2.69	1.550127E-03	2.515610E-02
171	2.70	1.310074E-03	2.349781E-02
172	2.71	1.086055E-03	2.193762E-02
173	2.72	8.770967E-04	2.046963E-02
174	2.73	6.822817E-04	1.908837E-02
175	2.74	5.007503E-04	1.778865E-02
176	2.75	3.316949E-04	1.656565E-02
177	2.76	1.743571E-04	1.541481E-02
178	2.77	2.802452E-05	1.433188E-02
179	2.78	-1.079721E-04	1.331285E-02
180	2.79	-2.342616E-04	1.235396E-02
181	2.80	-3.514347E-04	1.145168E-02
182	2.81	-4.600467E-04	1.060270E-02
183	2.82	-5.606194E-04	9.803912E-03
184	2.83	-6.536433E-04	9.052380E-03
185	2.84	-7.395797E-04	8.345360E-03
186	2.85	-8.188620E-04	7.680265E-03
187	2.86	-8.918979E-04	7.054667E-03
188	2.87	-9.590708E-04	6.466279E-03
189	2.88	-1.020741E-03	5.912954E-03
190	2.89	-1.077248E-03	5.392670E-03
191	2.90	-1.128910E-03	4.903525E-03
192	2.91	-1.176028E-03	4.443729E-03
193	2.92	-1.218883E-03	4.011599E-03
194	2.93	-1.257742E-03	3.605549E-03
195	2.94	-1.292854E-03	3.224086E-03
196	2.95	-1.324453E-03	2.865805E-03
197	2.96	-1.352762E-03	2.529382E-03
198	2.97	-1.377988E-03	2.213570E-03
199	2.98	-1.400328E-03	1.917195E-03
200	2.99	-1.419965E-03	1.639151E-03
201	3.00	-1.437073E-03	1.378395E-03
202	3.01	-1.451815E-03	1.133944E-03
203	3.02	-1.464345E-03	9.048705E-04
204	3.03	-1.474807E-03	6.903028E-04
205	3.04	-1.483337E-03	4.894168E-04
206	3.05	-1.490064E-03	3.014362E-04
207	3.06	-1.495108E-03	1.256285E-04
208	3.07	-1.498583E-03	-3.869673E-05
209	3.08	-1.500594E-03	-1.921912E-04
210	3.09	-1.501243E-03	-3.354697E-04
211	3.10	-1.500624E-03	-4.691122E-04
212	3.11	-1.498825E-03	-5.936661E-04
213	3.12	-1.495932E-03	-7.096478E-04
214	3.13	-1.492021E-03	-8.175451E-04
215	3.14	-1.487168E-03	-9.178181E-04
216	3.15	-1.481441E-03	-1.010901E-03
217	3.16	-1.474907E-03	-1.097205E-03
218	3.17	-1.467627E-03	-1.177117E-03
219	3.18	-1.459659E-03	-1.251002E-03
220	3.19	-1.451057E-03	-1.319207E-03
221	3.20	-1.441872E-03	-1.382057E-03
222	3.21	-1.432153E-03	-1.439860E-03
223	3.22	-1.421945E-03	-1.492908E-03
224	3.23	-1.411290E-03	-1.541476E-03
225	3.24	-1.400227E-03	-1.585824E-03
226	3.25	-1.388796E-03	-1.626196E-03
227	3.26	-1.377030E-03	-1.662825E-03
228	3.27	-1.364963E-03	-1.695930E-03
229	3.28	-1.352625E-03	-1.725719E-03
230	3.29	-1.340046E-03	-1.752386E-03
231	3.30	-1.327253E-03	-1.776117E-03
232	3.31	-1.314271E-03	-1.797086E-03
233	3.32	-1.301125E-03	-1.815459E-03
234	3.33	-1.287836E-03	-1.831392E-03
235	3.34	-1.274426E-03	-1.845032E-03
236	3.35	-1.260914E-03	-1.856519E-03
237	3.36	-1.247319E-03	-1.865984E-03
238	3.37	-1.233658E-03	-1.873553E-03
239	3.38	-1.219946E-03	-1.879342E-03
240	3.39	-1.206200E-03	-1.883463E-03
241	3.40	-1.192432E-03	-1.886021E-03
242	3.41	-1.178656E-03	-1.887116E-03
243	3.42	-1.164884E-03	-1.886842E-03
244	3.43	-1.151127E-03	-1.885287E-03
245	3.44	-1.137396E-03	-1.882534E-03
246	3.45	-1.123700E-03	-1.878665E-03
247	3.46	-1.110049E-03	-1.873752E-03
248	3.47	-1.096450E-03	-1.867867E-03
249	3.48	-1.082913E-03	-1.861077E-03
250	3.49	-1.069443E-03	-1.853446E-03
251	3.50	-1.056048E-03	-1.845031E-03
252	3.51	-1.042733E-03	-1.835891E-03
253	3.52	-1.029504E-03	-1.826077E-03
254	3.53	-1.016367E-03	-1.815641E-03
255	3.54	-1.003326E-03	-1.804630E-03
256	3.55	-9.903854E-04	-1.793088E-03
257	3.56	-9.775492E-04	-1.781058E-03
258	3.57	-9.648209E-04	-1.768579E-03
259	3.58	-9.522039E-04	-1.755690E-03
260	3.59	-9.397010E-04	-1.742425E-03
261	3.60	-9.273148E-04	-1.728819E-03
262	3.61	-9.150478E-04	-1.714902E-03
263	3.62	-9.029020E-04	-1.700705E-03
264	3.63	-8.908792E-04	-1.686255E-03
265	3.64	-8.789811E-04	-1.671579E-03
266	3.65	-8.672090E-04	-1.656702E-03
267	3.66	-8.555641E-04	-1.641647E-03
268	3.67	-8.440475E-04	-1.626436E-03
269	3.68	-8.326599E-04	-1.611090E-03
270	3.69	-8.214020E-04	-1.595629E-03
271	3.70	-8.102743E-04	-1.580070E-03
272	3.71	-7.992772E-04	-1.564432E-03
273	3.72	-7.884108E-04	-1.548730E-03
274	3.73	-7.776753E-04	-1.532979E-03
275	3.74	-7.670705E-04	-1.517194E-03
276	3.75	-7.565965E-04	-1.501388E-03
277	3.76	-7.462529E-04	-1.485574E-03
278	3.77	-7.360394E-04	-1.469763E-03
279	3.78	-7.259556E-04	-1.453967E-03
280	3.79	-7.160009E-04	-1.438195E-03
281	3.80	-7.061748E-04	-1.422458E-03
282	3.81	-6.964767E-04	-1.406764E-03
283	3.82	-6.869057E-04	-1.391121E-03
284	3.83	-6.774611E-04	-1.375538E-03
285	3.84	-6.681422E-04	-1.360022E-03
286	3.85	-6.589479E-04	-1.344579E-03
287	3.86	-6.498774E-04	-1.329216E-03
288	3.87	-6.409297E-04	-1.313938E-03
289	3.88	-6.321037E-04	-1.298751E-03
290	3.89	-6.233985E-04	-1.283660E-03
291	3.90	-6.148129E-04	-1.268669E-03
292	3.91	-6.063458E-04	-1.253784E-03
293	3.92	-5.979961E-04	-1.239006E-03
294	3.93	-5.897627E-04	-1.224341E-03
295	3.94	-5.816443E-04	-1.209791E-03
296	3.95	-5.736398E-04	-1.195360E-03
297	3.96	-5.657479E-04	-1.181049E-03
298	3.97	-5.579674E-04	-1.166862E-03
299	3.98	-5.502971E-04	-1.152801E-03
300	3.99	-5.427356E-04	-1.138867E-03
301	4.00	-5.352819E-04	-1.125062E-03
302	4.01	-5.279345E-04	-1.111388E-03
303	4.02	-5.206923E-04	-1.097847E-03
304	4.03	-5.135539E-04	-1.084439E-03
305	4.04	-5.065181E-04	-1.071165E-03
306	4.05	-4.995836E-04	-1.058026E-03
307	4.06	-4.927491E-04	-1.045023E-03
308	4.07	-4.860134E-04	-1.032157E-03
309	4.08	-4.793752E-04	-1.019427E-03
310	4.09	-4.728331E-04	-1.006835E-03
311	4.10	-4.663860E-04	-9.943794E-04
312	4.11	-4.600326E-04	-9.820614E-04
313	4.12	-4.537717E-04	-9.698807E-04
314	4.13	-4.476019E-04	-9.578370E-04
315	4.14	-4.415220E-04	-9.459303E-04
316	4.15	-4.355309E-04	-9.341601E-04
317	4.16	-4.296273E-04	-9.225260E-04
318	4.17	-4.238099E-04	-9.110277E-04
319	4.18	-4.180776E-04	-8.996645E-04
320	4.19	-4.124292E-04	-8.884358E-04
321	4.20	-4.068634E-04	-8.773410E-04
322	4.21	-4.013792E-04	-8.663793E-04
323	4.22	-3.959753E-04	-8.555501E-04
324	4.23	-3.906507E-04	-8.448524E-04
325	4.24	-3.854040E-04	-8.342854E-04
326	4.25	-3.802343E-04	-8.238482E-04
327	4.26	-3.751404E-04	-8.135399E-04
328	4.27	-3.701212E-04	-8.033595E-04
329	4.28	-3.651756E-04	-7.933060E-04
330	4.29	-3.603025E-04	-7.833783E-04
331	4.30	-3.555008E-04	-7.735754E-04
332	4.31	-3.507696E-04	-7.638963E-04
333	4.32	-3.461077E-04	-7.543397E-04
334	4.33	-3.415141E-04	-7.449047E-04
335	4.34	-3.369878E-04	-7.355899E-04
336	4.35	-3.325278E-04	-7.263944E-04
337	4.36	-3.281330E-04	-7.173169E-04
338	4.37	-3.238026E-04	-7.083562E-04
339	4.38	-3.195355E-04	-6.995111E-04
340	4.39	-3.153308E-04	-6.907805E-04
341	4.40	-3.111875E-04	-6.821632E-04
342	4.41	-3.071048E-04	-6.736578E-04
343	4.42	-3.030816E-04	-6.652633E-04
344	4.43	-2.991171E-04	-6.569784E-04
345	4.44	-2.952104E-04	-6.488018E-04
346	4.45	-2.913606E-04	-6.407323E-04
347	4.46	-2.875669E-04	-6.327688E-04
348	4.47	-2.838283E-04	-6.249100E-04
349	4.48	-2.801441E-04	-6.171546E-04
350	4.49	-2.765133E-04	-6.095015E-04
351	4.50	-2.729353E-04	-6.019494E-04
352	4.51	-2.694091E-04	-5.944971E-04
353	4.52	-2.659340E-04	-5.871434E-04
354	4.53	-2.625092E-04	-5.798872E-04
355	4.54	-2.591340E-04	-5.727271E-04
356	4.55	-2.558074E-04	-5.656620E-04
357	4.56	-2.525289E-04	-5.586908E-04
358	4.57	-2.492977E-04	-5.518122E-04
359	4.58	-2.461130E-04	-5.450251E-04
360	4.59	-2.429741E-04	-5.383283E-04
361	4.60	-2.398803E-04	-5.317207E-04
362	4.61	-2.368310E-04	-5.252011E-04
363	4.62	-2.338254E-04	-5.187684E-04
364	4.63	-2.308628E-04	-5.124214E-04
365	4.64	-2.279427E-04	-5.061590E-04
366	4.65	-2.250643E-04	-4.999802E-04
367	4.66	-2.222270E-04	-4.938838E-04
368	4.67	-2.194301E-04	-4.878687E-04
369	4.68	-2.166731E-04	-4.819339E-04
370	4.69	-2.139553E-04	-4.760783E-04
371	4.70	-2.112762E-04	-4.703008E-04
372	4.71	-2.086351E-04	-4.646004E-04
373	4.72	-2.060314E-04	-4.589761E-04
374	4.73	-2.034645E-04	-4.534267E-04
375	4.74	-2.009340E-04	-4.479514E-04
376	4.75	-1.984392E-04	-4.425491E-04
377	4.76	-1.959796E-04	-4.372188E-04
378	4.77	-1.935546E-04	-4.319596E-04
379	4.78	-1.911638E-04	-4.267704E-04
380	4.79	-1.888065E-04	-4.216503E-04
381	4.80	-1.864823E-04	-4.165984E-04
382	4.81	-1.841907E-04	-4.116137E-04
383	4.82	-1.819311E-04	-4.066953E-04
384	4.83	-1.797031E-04	-4.018422E-04
385	4.84	-1.775063E-04	-3.970537E-04
386	4.85	-1.753400E-04	-3.923288E-04
387	4.86	-1.732038E-04	-3.876665E-04
388	4.87	-1.710974E-04	-3.830661E-04
389	4.88	-1.690202E-04	-3.785267E-04
390	4.89	-1.669717E-04	-3.740474E-04
391	4.90	-1.649516E-04	-3.696274E-04
392	4.91	-1.629595E-04	-3.652659E-04
393	4.92	-1.609948E-04	-3.609620E-04
394	4.93	-1.590572E-04	-3.567150E-04
395	4.94	-1.571462E-04	-3.525241E-04
396	4.95	-1.552615E-04	-3.483884E-04
397	4.96	-1.534027E-04	-3.443072E-04
398	4.97	-1.515693E-04	-3.402798E-04
399	4.98	-1.497610E-04	-3.363053E-04
400	4.99	-1.479774E-04	-3.323831E-04
401	5.00	-1.462181E-04	-3.285123E-04
402	5.01	-1.444828E-04	-3.246924E-04
403	5.02	-1.427711E-04	-3.209225E-04
404	5.03	-1.410826E-04	-3.172020E-04
405	5.04	-1.394170E-04	-3.135302E-04
406	5.05	-1.377739E-04	-3.099064E-04
407	5.06	-1.361531E-04	-3.063299E-04
408	5.07	-1.345541E-04	-3.028000E-04
409	5.08	-1.329767E-04	-2.993162E-04
410	5.09	-1.314205E-04	-2.958777E-04
411	5.10	-1.298852E-04	-2.924839E-04
412	5.11	-1.283705E-04	-2.891342E-04
413	5.12	-1.268761E-04	-2.858279E-04
414	5.13	-1.254017E-04	-2.825645E-04
415	5.14	-1.239469E-04	-2.793434E-04
416	5.15	-1.225116E-04	-2.761639E-04
417	5.16	-1.210953E-04	-2.730255E-04
418	5.17	-1.196979E-04	-2.699276E-04
419	5.18	-1.183190E-04	-2.668696E-04
420	5.19	-1.169584E-04	-2.638510E-04
421	5.20	-1.156158E-04	-2.608712E-04
422	5.21	-1.142909E-04	-2.579297E-04
423	5.22	-1.129835E-04	-2.550259E-04
424	5.23	-1.116933E-04	-2.521593E-04
425	5.24	-1.104201E-04	-2.493295E-04
426	5.25	-1.091635E-04	-2.465357E-04
427	5.26	-1.079235E-04	-2.437777E-04
428	5.27	-1.066996E-04	-2.410548E-04
429	5.28	-1.054918E-04	-2.383666E-04
430	5.29	-1.042997E-04	-2.357126E-04
431	5.30	-1.031231E-04	-2.330923E-04
432	5.31	-1.019618E-04	-2.305052E-04
433	5.32	-1.008156E-04	-2.279510E-04
434	5.33	-9.968426E-05	-2.254290E-04
435	5.34	-9.856755E-05	-2.229389E-04
436	5.35	-9.746526E-05	-2.204803E-04
437	5.36	-9.637719E-05	-2.180526E-04
438	5.37	-9.530313E-05	-2.156555E-04
439	5.38	-9.424288E-05	-2.132886E-04
440	5.39	-9.319624E-05	-2.109514E-04
441	5.40	-9.216302E-05	-2.086434E-04
442	5.41	-9.114301E-05	-2.063644E-04
443	5.42	-9.013604E-05	-2.041139E-04
444	5.43	-8.914190E-05	-2.018915E-04
445	5.44	-8.816043E-05	-1.996968E-04
446	5.45	-8.719144E-05	-1.975294E-04
447	5.46	-8.623475E-05	-1.953890E-04
448	5.47	-8.529018E-05	-1.932752E-04
449	5.48	-8.435757E-05	-1.911876E-04
450	5.49	-8.343673E-05	-1.891259E-04
451	5.50	-8.252751E-05	-1.870897E-04
452	5.51	-8.162974E-05	-1.850786E-04
453	5.52	-8.074326E-05	-1.830924E-04
454	5.53	-7.986791E-05	-1.811306E-04
455	5.54	-7.900352E-05	-1.791929E-04
456	5.55	-7.814995E-05	-1.772791E-04
457	5.56	-7.730704E-05	-1.753887E-04
458	5.57	-7.647465E-05	-1.735215E-04
459	5.58	-7.565262E-05	-1.716771E-04
460	5.59	-7.484082E-05	-1.698553E-04
461	5.60	-7.403908E-05	-1.680557E-04
462	5.61	-7.324729E-05	-1.662780E-04
463	5.62	-7.246529E-05	-1.645220E-04
464	5.63	-7.169295E-05	-1.627872E-04
465	5.64	-7.093013E-05	-1.610736E-04
466	5.65	-7.017671E-05	-1.593806E-04
467	5.66	-6.943256E-05	-1.577082E-04
468	5.67	-6.869753E-05	-1.560560E-04
469	5.68	-6.797151E-05	-1.544236E-04
470	5.69	-6.725438E-05	-1.528110E-04
471	5.70	-6.654601E-05	-1.512177E-04
472	5.71	-6.584627E-05	-1.496436E-04
473	5.72	-6.515506E-05	-1.480884E-04
474	5.73	-6.447225E-05	-1.465517E-04
475	5.74	-6.379773E-05	-1.450335E-04
476	5.75	-6.313138E-05	-1.435334E-04
477	5.76	-6.247309E-05	-1.420511E-04
478	5.77	-6.182276E-05	-1.405866E-04
479	5.78	-6.118027E-05	-1.391394E-04
480	5.79	-6.054551E-05	-1.377094E-04
481	5.80	-5.991839E-05	-1.362964E-04
482	5.81	-5.929879E-05	-1.349000E-04
483	5.82	-5.868662E-05	-1.335202E-04
484	5.83	-5.808178E-05	-1.321567E-04
485	5.84	-5.748416E-05	-1.308092E-04
486	5.85	-5.689366E-05	-1.294777E-04
487	5.86	-5.631020E-05	-1.281617E-04
488	5.87	-5.573368E-05	-1.268612E-04
489	5.88	-5.516400E-05	-1.255759E-04
490	5.89	-5.460107E-05	-1.243057E-04
491	5.90	-5.404481E-05	-1.230503E-04
492	5.91	-5.349511E-05	-1.218096E-04
493	5.92	-5.295190E-05	-1.205833E-04
494	5.93	-5.241509E-05	-1.193712E-04
495	5.94	-5.188459E-05	-1.181733E-04
496	5.95	-5.136032E-05	-1.169892E-04
497	5.96	-5.084219E-05	-1.158189E-04
498	5.97	-5.033013E-05	-1.146621E-04
499	5.98	-4.982405E-05	-1.135186E-04
500	5.99	-4.932387E-05	-1.123883E-04
501	6.00	-4.882952E-05	-1.112711E-04
502	6.01	-4.834092E-05	-1.101666E-04
503	6.02	-4.785799E-05	-1.090749E-04
504	6.03	-4.738067E-05	-1.079957E-04
505	6.04	-4.690886E-05	-1.069288E-04
506	6.05	-4.644251E-05	-1.058741E-04
507	6.06	-4.598154E-05	-1.048315E-04
508	6.07	-4.552589E-05	-1.038007E-04
509	6.08	-4.507547E-05	-1.027817E-04
510	6.09	-4.463023E-05	-1.017742E-04
511	6.10	-4.419009E-05	-1.007782E-04
512	6.11	-4.375499E-05	-9.979342E-05
513	6.12	-4.332487E-05	-9.881982E-05
514	6.13	-4.289965E-05	-9.785720E-05
515	6.14	-4.247928E-05	-9.690545E-05
516	6.15	-4.206370E-05	-9.596441E-05
517	6.16	-4.165283E-05	-9.503396E-05
518	6.17	-4.124663E-05	-9.411395E-05
519	6.18	-4.084503E-05	-9.320426E-05
520	6.19	-4.044797E-05	-9.230476E-05
521	6.20	-4.005539E-05	-9.141531E-05
522	6.21	-3.966724E-05	-9.053578E-05
523	6.22	-3.928345E-05	-8.966607E-05
524	6.23	-3.890398E-05	-8.880603E-05
525	6.24	-3.852877E-05	-8.795555E-05
526	6.25	-3.815776E-05	-8.711451E-05
527	6.26	-3.779091E-05	-8.628279E-05
528	6.27	-3.742815E-05	-8.546028E-05
529	6.28	-3.706944E-05	-8.464685E-05
530	6.29	-3.671472E-05	-8.384240E-05
531	6.30	-3.636394E-05	-8.304681E-05
532	6.31	-3.601706E-05	-8.225997E-05
533	6.32	-3.567403E-05	-8.148177E-05
534	6.33	-3.533479E-05	-8.071212E-05
535	6.34	-3.499930E-05	-7.995089E-05
536	6.35	-3.466752E-05	-7.919798E-05
537	6.36	-3.433938E-05	-7.845330E-05
538	6.37	-3.401486E-05	-7.771674E-05
539	6.38	-3.369391E-05	-7.698821E-05
540	6.39	-3.337647E-05	-7.626759E-05
541	6.40	-3.306251E-05	-7.555480E-05
542	6.41	-3.275198E-05	-7.484973E-05
543	6.42	-3.244485E-05	-7.415230E-05
544	6.43	-3.214106E-05	-7.346241E-05
545	6.44	-3.184058E-05	-7.277996E-05
546	6.45	-3.154336E-05	-7.210487E-05
547	6.46	-3.124937E-05	-7.143705E-05
548	6.47	-3.095857E-05	-7.077641E-05
549	6.48	-3.067091E-05	-7.012285E-05
550	6.49	-3.038636E-05	-6.947630E-05
551	6.50	-3.010488E-05	-6.883667E-05
552	6.51	-2.982643E-05	-6.820388E-05
553	6.52	-2.955098E-05	-6.757783E-05
554	6.53	-2.927848E-05	-6.695846E-05
555	6.54	-2.900891E-05	-6.634568E-05
556	6.55	-2.874222E-05	-6.573941E-05
557	6.56	-2.847839E-05	-6.513957E-05
558	6.57	-2.821737E-05	-6.454608E-05
559	6.58	-2.795914E-05	-6.395888E-05
560	6.59	-2.770365E-05	-6.337787E-05
561	6.60	-2.745088E-05	-6.280300E-05
562	6.61	-2.720079E-05	-6.223418E-05
563	6.62	-2.695335E-05	-6.167135E-05
564	6.63	-2.670853E-05	-6.111442E-05
565	6.64	-2.646630E-05	-6.056334E-05
566	6.65	-2.622662E-05	-6.001803E-05
567	6.66	-2.598946E-05	-5.947842E-05
568	6.67	-2.575481E-05	-5.894445E-05
569	6.68	-2.552261E-05	-5.841605E-05
570	6.69	-2.529286E-05	-5.789315E-05
571	6.70	-2.506550E-05	-5.737568E-05
572	6.71	-2.484053E-05	-5.686359E-05
573	6.72	-2.461790E-05	-5.635681E-05
574	6.73	-2.439760E-05	-5.585528E-05
575	6.74	-2.417959E-05	-5.535894E-05
576	6.75	-2.396385E-05	-5.486772E-05
577	6.76	-2.375035E-05	-5.438156E-05
578	6.77	-2.353906E-05	-5.390041E-05
579	6.78	-2.332996E-05	-5.342421E-05
580	6.79	-2.312302E-05	-5.295290E-05
581	6.80	-2.291821E-05	-5.248642E-05
582	6.81	-2.271552E-05	-5.202471E-05
583	6.82	-2.251491E-05	-5.156773E-05
584	6.83	-2.231636E-05	-5.111541E-05
585	6.84	-2.211986E-05	-5.066770E-05
586	6.85	-2.192536E-05	-5.022455E-05
587	6.86	-2.173286E-05	-4.978591E-05
588	6.87	-2.154232E-05	-4.935172E-05
589	6.88	-2.135373E-05	-4.892193E-05
590	6.89	-2.116706E-05	-4.849650E-05
591	6.90	-2.098229E-05	-4.807536E-05
592	6.91	-2.079939E-05	-4.765848E-05
593	6.92	-2.061836E-05	-4.724580E-05
594	6.93	-2.043915E-05	-4.683727E-05
595	6.94	-2.026176E-05	-4.643286E-05
596	6.95	-2.008616E-05	-4.603250E-05
597	6.96	-1.991234E-05	-4.563615E-05
598	6.97	-1.974026E-05	-4.524378E-05
599	6.98	-1.956991E-05	-4.485533E-05
600	6.99	-1.940128E-05	-4.447075E-05
601	7.00	-1.923434E-05	-4.409001E-05
602	7.01	-1.906907E-05	-4.371307E-05
603	7.02	-1.890545E-05	-4.333987E-05
604	7.03	-1.874347E-05	-4.297037E-05
605	7.04	-1.858310E-05	-4.260454E-05
606	7.05	-1.842433E-05	-4.224233E-05
607	7.06	-1.826714E-05	-4.188371E-05
608	7.07	-1.811151E-05	-4.152862E-05
609	7.08	-1.795743E-05	-4.117704E-05
610	7.09	-1.780487E-05	-4.082892E-05
611	7.10	-1.765382E-05	-4.048422E-05
612	7.11	-1.750427E-05	-4.014291E-05
613	7.12	-1.735618E-05	-3.980494E-05
614	7.13	-1.720956E-05	-3.947029E-05
615	7.14	-1.706438E-05	-3.913891E-05
616	7.15	-1.692062E-05	-3.881076E-05
617	7.16	-1.677828E-05	-3.848582E-05
618	7.17	-1.663733E-05	-3.816404E-05
619	7.18	-1.649776E-05	-3.784539E-05
620	7.19	-1.635955E-05	-3.752984E-05
621	7.20	-1.622269E-05	-3.721735E-05
622	7.21	-1.608716E-05	-3.690789E-05
623	7.22	-1.595296E-05	-3.660142E-05
624	7.23	-1.582005E-05	-3.629791E-05
625	7.24	-1.568844E-05	-3.599733E-05
626	7.25	-1.555810E-05	-3.569965E-05
627	7.26	-1.542902E-05	-3.540483E-05
628	7.27	-1.530119E-05	-3.511284E-05
629	7.28	-1.517459E-05	-3.482366E-05
630	7.29	-1.504921E-05	-3.453725E-05
631	7.30	-1.492504E-05	-3.425358E-05
632	7.31	-1.480206E-05	-3.397262E-05
633	7.32	-1.468027E-05	-3.369434E-05
634	7.33	-1.455964E-05	-3.341872E-05
635	7.34	-1.444016E-05	-3.314572E-05
636	7.35	-1.432183E-05	-3.287532E-05
637	7.36	-1.420462E-05	-3.260748E-05
638	7.37	-1.408853E-05	-3.234219E-05
639	7.38	-1.397355E-05	-3.207940E-05
640	7.39	-1.385966E-05	-3.181910E-05
641	7.40	-1.374685E-05	-3.156126E-05
642	7.41	-1.363512E-05	-3.130586E-05
643	7.42	-1.352444E-05	-3.105286E-05
644	7.43	-1.341480E-05	-3.080223E-05
645	7.44	-1.330620E-05	-3.055397E-05
646	7.45	-1.319863E-05	-3.030803E-05
647	7.46	-1.309207E-05	-3.006440E-05
648	7.47	-1.298651E-05	-2.982304E-05
649	7.48	-1.288194E-05	-2.958395E-05
650	7.49	-1.277835E-05	-2.934708E-05
651	7.50	-1.267574E-05	-2.911242E-05
652	7.51	-1.257408E-05	-2.887995E-05
653	7.52	-1.247337E-05	-2.864964E-05
654	7.53	-1.237360E-05	-2.842146E-05
655	7.54	-1.227477E-05	-2.819540E-05
656	7.55	-1.217685E-05	-2.797144E-05
657	7.56	-1.207984E-05	-2.774955E-05
658	7.57	-1.198373E-05	-2.752970E-05
659	7.58	-1.188852E-05	-2.731189E-05
660	7.59	-1.179418E-05	-2.709608E-05
661	7.60	-1.170072E-05	-2.688225E-05
662	7.61	-1.160812E-05	-2.667040E-05
663	7.62	-1.151637E-05	-2.646048E-05
664	7.63	-1.142547E-05	-2.625249E-05
665	7.64	-1.133540E-05	-2.604640E-05
666	7.65	-1.124616E-05	-2.584220E-05
667	7.66	-1.115774E-05	-2.563986E-05
668	7.67	-1.107013E-05	-2.543937E-05
669	7.68	-1.098332E-05	-2.524070E-05
670	7.69	-1.089731E-05	-2.504384E-05
671	7.70	-1.081208E-05	-2.484876E-05
672	7.71	-1.072762E-05	-2.465546E-05
673	7.72	-1.064394E-05	-2.446391E-05
674	7.73	-1.056101E-05	-2.427409E-05
675	7.74	-1.047884E-05	-2.408598E-05
676	7.75	-1.039742E-05	-2.389958E-05
677	7.76	-1.031673E-05	-2.371485E-05
678	7.77	-1.023677E-05	-2.353179E-05
679	7.78	-1.015753E-05	-2.335037E-05
680	7.79	-1.007900E-05	-2.317058E-05
681	7.80	-1.000119E-05	-2.299240E-05
682	7.81	-9.924073E-06	-2.281582E-05
683	7.82	-9.847650E-06	-2.264082E-05
684	7.83	-9.771913E-06	-2.246738E-05
685	7.84	-9.696855E-06	-2.229549E-05
686	7.85	-9.622468E-06	-2.212513E-05
687	7.86	-9.548746E-06	-2.195629E-05
688	7.87	-9.475683E-06	-2.178895E-05
689	7.88	-9.403271E-06	-2.162309E-05
690	7.89	-9.331503E-06	-2.145871E-05
691	7.90	-9.260375E-06	-2.129578E-05
692	7.91	-9.189877E-06	-2.113429E-05
693	7.92	-9.120006E-06	-2.097423E-05
694	7.93	-9.050753E-06	-2.081558E-05
695	7.94	-8.982113E-06	-2.065832E-05
696	7.95	-8.914080E-06	-2.050246E-05
697	7.96	-8.846647E-06	-2.034796E-05
698	7.97	-8.779809E-06	-2.019481E-05
699	7.98	-8.713560E-06	-2.004301E-05
700	7.99	-8.647892E-06	-1.989254E-05
701	8.00	-8.582802E-06	-1.974339E-05
702	8.01	-8.518283E-06	-1.959554E-05
703	8.02	-8.454328E-06	-1.944898E-05
704	8.03	-8.390934E-06	-1.930369E-05
705	8.04	-8.328093E-06	-1.915967E-05
706	8.05	-8.265801E-06	-1.901690E-05
707	8.06	-8.204052E-06	-1.887537E-05
708	8.07	-8.142840E-06	-1.873507E-05
709	8.08	-8.082161E-06	-1.859598E-05
710	8.09	-8.022009E-06	-1.845810E-05
711	8.10	-7.962378E-06	-1.832140E-05
712	8.11	-7.903264E-06	-1.818589E-05
713	8.12	-7.844662E-06	-1.805154E-05
714	8.13	-7.786566E-06	-1.791835E-05
715	8.14	-7.728971E-06	-1.778631E-05
716	8.15	-7.671873E-06	-1.765540E-05
717	8.16	-7.615267E-06	-1.752561E-05
718	8.17	-7.559147E-06	-1.739693E-05
719	8.18	-7.503510E-06	-1.726936E-05
720	8.19	-7.448349E-06	-1.714287E-05
721	8.20	-7.393662E-06	-1.701746E-05
722	8.21	-7.339442E-06	-1.689312E-05
723	8.22	-7.285686E-06	-1.676985E-05
724	8.23	-7.232388E-06	-1.664761E-05
725	8.24	-7.179545E-06	-1.652642E-05
726	8.25	-7.127152E-06	-1.640626E-05
727	8.26	-7.075205E-06	-1.628711E-05
728	8.27	-7.023699E-06	-1.616897E-05
729	8.28	-6.972630E-06	-1.605183E-05
730	8.29	-6.921994E-06	-1.593568E-05
731	8.30	-6.871786E-06	-1.582051E-05
732	8.31	-6.822003E-06	-1.570630E-05
733	8.32	-6.772641E-06	-1.559306E-05
734	8.33	-6.723694E-06	-1.548077E-05
735	8.34	-6.675160E-06	-1.536942E-05
736	8.35	-6.627035E-06	-1.525901E-05
737	8.36	-6.579313E-06	-1.514952E-05
738	8.37	-6.531993E-06	-1.504094E-05
739	8.38	-6.485069E-06	-1.493327E-05
740	8.39	-6.438538E-06	-1.482650E-05
741	8.40	-6.392396E-06	-1.472062E-05
742	8.41	-6.346639E-06	-1.461562E-05
743	8.42	-6.301264E-06	-1.451150E-05
744	8.43	-6.256268E-06	-1.440824E-05
745	8.44	-6.211646E-06	-1.430583E-05
746	8.45	-6.167395E-06	-1.420427E-05
747	8.46	-6.123511E-06	-1.410355E-05
748	8.47	-6.079992E-06	-1.400367E-05
749	8.48	-6.036833E-06	-1.390461E-05
750	8.49	-5.994031E-06	-1.380636E-05
751	8.50	-5.951582E-06	-1.370893E-05
752	8.51	-5.909485E-06	-1.361229E-05
753	8.52	-5.867734E-06	-1.351645E-05
754	8.53	-5.826327E-06	-1.342140E-05
755	8.54	-5.785261E-06	-1.332712E-05
756	8.55	-5.744532E-06	-1.323362E-05
757	8.56	-5.704138E-06	-1.314088E-05
758	8.57	-5.664074E-06	-1.304890E-05
759	8.58	-5.624339E-06	-1.295767E-05
760	8.59	-5.584928E-06	-1.286718E-05
761	8.60	-5.545840E-06	-1.277743E-05
762	8.61	-5.507070E-06	-1.268841E-05
763	8.62	-5.468616E-06	-1.260011E-05
764	8.63	-5.430476E-06	-1.251253E-05
765	8.64	-5.392645E-06	-1.242566E-05
766	8.65	-5.355122E-06	-1.233948E-05
767	8.66	-5.317903E-06	-1.225401E-05
768	8.67	-5.280985E-06	-1.216923E-05
769	8.68	-5.244367E-06	-1.208513E-05
770	8.69	-5.208044E-06	-1.200170E-05
771	8.70	-5.172014E-06	-1.191895E-05
772	8.71	-5.136276E-06	-1.183687E-05
773	8.72	-5.100825E-06	-1.175544E-05
774	8.73	-5.065659E-06	-1.167466E-05
775	8.74	-5.030776E-06	-1.159454E-05
776	8.75	-4.996173E-06	-1.151505E-05
777	8.76	-4.961847E-06	-1.143620E-05
778	8.77	-4.927797E-06	-1.135797E-05
779	8.78	-4.894018E-06	-1.128038E-05
780	8.79	-4.860510E-06	-1.120339E-05
781	8.80	-4.827269E-06	-1.112703E-05
782	8.81	-4.794293E-06	-1.105126E-05
783	8.82	-4.761580E-06	-1.097610E-05
784	8.83	-4.729127E-06	-1.090154E-05
785	8.84	-4.696932E-06	-1.082756E-05
786	8.85	-4.664992E-06	-1.075417E-05
787	8.86	-4.633306E-06	-1.068136E-05
788	8.87	-4.601870E-06	-1.060913E-05
789	8.88	-4.570684E-06	-1.053746E-05
790	8.89	-4.539743E-06	-1.046636E-05
791	8.90	-4.509047E-06	-1.039582E-05
792	8.91	-4.478593E-06	-1.032583E-05
793	8.92	-4.448378E-06	-1.025639E-05
794	8.93	-4.418401E-06	-1.018750E-05
795	8.94	-4.388660E-06	-1.011914E-05
796	8.95	-4.359152E-06	-1.005132E-05
797	8.96	-4.329875E-06	-9.984032E-06
798	8.97	-4.300828E-06	-9.917266E-06
799	8.98	-4.272008E-06	-9.851021E-06
800	8.99	-4.243413E-06	-9.785292E-06
801	9.00	-4.215041E-06	-9.720073E-06
802	9.01	-4.186890E-06	-9.655362E-06
803	9.02	-4.158958E-06	-9.591152E-06
804	9.03	-4.131244E-06	-9.527441E-06
805	9.04	-4.103745E-06	-9.464222E-06
806	9.05	-4.076460E-06	-9.401493E-06
807	9.06	-4.049385E-06	-9.339248E-06
808	9.07	-4.022521E-06	-9.277483E-06
809	9.08	-3.995864E-06	-9.216195E-06
810	9.09	-3.969414E-06	-9.155379E-06
811	9.10	-3.943167E-06	-9.095030E-06
812	9.11	-3.917123E-06	-9.035145E-06
813	9.12	-3.891279E-06	-8.975720E-06
814	9.13	-3.865634E-06	-8.916750E-06
815	9.14	-3.840186E-06	-8.858232E-06
816	9.15	-3.814934E-06	-8.800162E-06
817	9.16	-3.789875E-06	-8.742535E-06
818	9.17	-3.765008E-06	-8.685349E-06
819	9.18	-3.740331E-06	-8.628598E-06
820	9.19	-3.715843E-06	-8.572280E-06
821	9.20	-3.691542E-06	-8.516390E-06
822	9.21	-3.667426E-06	-8.460924E-06
823	9.22	-3.643493E-06	-8.405880E-06
824	9.23	-3.619743E-06	-8.351254E-06
825	9.24	-3.596174E-06	-8.297041E-06
826	9.25	-3.572783E-06	-8.243238E-06
827	9.26	-3.549569E-06	-8.189842E-06
828	9.27	-3.526532E-06	-8.136850E-06
829	9.28	-3.503669E-06	-8.084257E-06
830	9.29	-3.480978E-06	-8.032060E-06
831	9.30	-3.458459E-06	-7.980256E-06
832	9.31	-3.436110E-06	-7.928842E-06
833	9.32	-3.413929E-06	-7.877813E-06
834	9.33	-3.391915E-06	-7.827168E-06
835	9.34	-3.370067E-06	-7.776902E-06
836	9.35	-3.348383E-06	-7.727013E-06
837	9.36	-3.326861E-06	-7.677496E-06
838	9.37	-3.305501E-06	-7.628350E-06
839	9.38	-3.284300E-06	-7.579570E-06
840	9.39	-3.263258E-06	-7.531154E-06
841	9.40	-3.242374E-06	-7.483098E-06
842	9.41	-3.221645E-06	-7.435400E-06
843	9.42	-3.201070E-06	-7.388056E-06
844	9.43	-3.180649E-06	-7.341064E-06
845	9.44	-3.160380E-06	-7.294420E-06
846	9.45	-3.140261E-06	-7.248121E-06
847	9.46	-3.120292E-06	-7.202166E-06
848	9.47	-3.100471E-06	-7.156550E-06
849	9.48	-3.080796E-06	-7.111270E-06
850	9.49	-3.061268E-06	-7.066325E-06
851	9.50	-3.041883E-06	-7.021711E-06
852	9.51	-3.022642E-06	-6.977425E-06
853	9.52	-3.003542E-06	-6.933465E-06
854	9.53	-2.984583E-06	-6.889827E-06
855	9.54	-2.965764E-06	-6.846510E-06
856	9.55	-2.947083E-06	-6.803510E-06
857	9.56	-2.928540E-06	-6.760826E-06
858	9.57	-2.910132E-06	-6.718453E-06
859	9.58	-2.891859E-06	-6.676390E-06
860	9.59	-2.873720E-06	-6.634634E-06
861	9.60	-2.855714E-06	-6.593182E-06
862	9.61	-2.837839E-06	-6.552033E-06
863	9.62	-2.820095E-06	-6.511182E-06
864	9.63	-2.802480E-06	-6.470629E-06
865	9.64	-2.784993E-06	-6.430370E-06
866	9.65	-2.767634E-06	-6.390403E-06
867	9.66	-2.750401E-06	-6.350726E-06
868	9.67	-2.733293E-06	-6.311336E-06
869	9.68	-2.716308E-06	-6.272231E-06
870	9.69	-2.699448E-06	-6.233408E-06
871	9.70	-2.682709E-06	-6.194865E-06
872	9.71	-2.666091E-06	-6.156601E-06
873	9.72	-2.649593E-06	-6.118611E-06
874	9.73	-2.633214E-06	-6.080895E-06
875	9.74	-2.616953E-06	-6.043451E-06
876	9.75	-2.600809E-06	-6.006274E-06
877	9.76	-2.584782E-06	-5.969365E-06
878	9.77	-2.568869E-06	-5.932720E-06
879	9.78	-2.553071E-06	-5.896337E-06
880	9.79	-2.537386E-06	-5.860214E-06
881	9.80	-2.521814E-06	-5.824350E-06
882	9.81	-2.506353E-06	-5.788741E-06
883	9.82	-2.491002E-06	-5.753386E-06
884	9.83	-2.475761E-06	-5.718283E-06
885	9.84	-2.460629E-06	-5.683429E-06
886	9.85	-2.445604E-06	-5.648823E-06
887	9.86	-2.430687E-06	-5.614463E-06
888	9.87	-2.415876E-06	-5.580347E-06
889	9.88	-2.401170E-06	-5.546472E-06
890	9.89	-2.386568E-06	-5.512837E-06
891	9.90	-2.372070E-06	-5.479440E-06
892	9.91	-2.357674E-06	-5.446278E-06
893	9.92	-2.343381E-06	-5.413351E-06
894	9.93	-2.329188E-06	-5.380655E-06
895	9.94	-2.315096E-06	-5.348190E-06
896	9.95	-2.301103E-06	-5.315953E-06
897	9.96	-2.287209E-06	-5.283943E-06
898	9.97	-2.273412E-06	-5.252158E-06
899	9.98	-2.259713E-06	-5.220595E-06
900	9.99	-2.246110E-06	-5.189254E-06
901	10.00	-2.232602E-06	-5.158132E-06
902	10.01	-2.219189E-06	-5.127227E-06
903	10.02	-2.205870E-06	-5.096539E-06
904	10.03	-2.192644E-06	-5.066064E-06
905	10.04	-2.179511E-06	-5.035802E-06
906	10.05	-2.166469E-06	-5.005751E-06
907	10.06	-2.153519E-06	-4.975909E-06
908	10.07	-2.140658E-06	-4.946274E-06
909	10.08	-2.127888E-06	-4.916845E-06
910	10.09	-2.115206E-06	-4.887621E-06
911	10.10	-2.102612E-06	-4.858598E-06
912	10.11	-2.090106E-06	-4.829777E-06
913	10.12	-2.077686E-06	-4.801155E-06
914	10.13	-2.065352E-06	-4.772731E-06
915	10.14	-2.053104E-06	-4.744503E-06
916	10.15	-2.040941E-06	-4.716469E-06
917	10.16	-2.028861E-06	-4.688629E-06
918	10.17	-2.016865E-06	-4.660980E-06
919	10.18	-2.004952E-06	-4.633522E-06
920	10.19	-1.993120E-06	-4.606252E-06
921	10.20	-1.981371E-06	-4.579169E-06
922	10.21	-1.969701E-06	-4.552271E-06
923	10.22	-1.958112E-06	-4.525558E-06
924	10.23	-1.946603E-06	-4.499028E-06
925	10.24	-1.935172E-06	-4.472679E-06
926	10.25	-1.923820E-06	-4.446510E-06
927	10.26	-1.912545E-06	-4.420520E-06
928	10.27	-1.901348E-06	-4.394706E-06
929	10.28	-1.890226E-06	-4.369069E-06
930	10.29	-1.879181E-06	-4.343605E-06
931	10.30	-1.868211E-06	-4.318315E-06
932	10.31	-1.857316E-06	-4.293197E-06
933	10.32	-1.846494E-06	-4.268248E-06
934	10.33	-1.835747E-06	-4.243469E-06
935	10.34	-1.825072E-06	-4.218858E-06
936	10.35	-1.814469E-06	-4.194413E-06
937	10.36	-1.803939E-06	-4.170133E-06
938	10.37	-1.793479E-06	-4.146017E-06
939	10.38	-1.783091E-06	-4.122064E-06
940	10.39	-1.772772E-06	-4.098272E-06
941	10.40	-1.762523E-06	-4.074640E-06
942	10.41	-1.752344E-06	-4.051167E-06
943	10.42	-1.742232E-06	-4.027851E-06
944	10.43	-1.732189E-06	-4.004692E-06
945	10.44	-1.722214E-06	-3.981689E-06
946	10.45	-1.712305E-06	-3.958839E-06
947	10.46	-1.702463E-06	-3.936142E-06
948	10.47	-1.692687E-06	-3.913597E-06
949	10.48	-1.682976E-06	-3.891203E-06
950	10.49	-1.673330E-06	-3.868958E-06
951	10.50	-1.663749E-06	-3.846861E-06
952	10.51	-1.654231E-06	-3.824911E-06
953	10.52	-1.644777E-06	-3.803108E-06
954	10.53	-1.635387E-06	-3.781449E-06
955	10.54	-1.626058E-06	-3.759934E-06
956	10.55	-1.616792E-06	-3.738562E-06
957	10.56	-1.607587E-06	-3.717331E-06
958	10.57	-1.598444E-06	-3.696241E-06
959	10.58	-1.589361E-06	-3.675291E-06
960	10.59	-1.580338E-06	-3.654479E-06
961	10.60	-1.571375E-06	-3.633804E-06
962	10.61	-1.562471E-06	-3.613266E-06
963	10.62	-1.553626E-06	-3.592863E-06
964	10.63	-1.544840E-06	-3.572595E-06
965	10.64	-1.536111E-06	-3.552460E-06
966	10.65	-1.527440E-06	-3.532457E-06
967	10.66	-1.518826E-06	-3.512585E-06
968	10.67	-1.510269E-06	-3.492844E-06
969	10.68	-1.501768E-06	-3.473232E-06
970	10.69	-1.493322E-06	-3.453749E-06
971	10.70	-1.484932E-06	-3.434393E-06
972	10.71	-1.476597E-06	-3.415163E-06
973	10.72	-1.468317E-06	-3.396059E-06
974	10.73	-1.460091E-06	-3.377079E-06
975	10.74	-1.451918E-06	-3.358224E-06
976	10.75	-1.443799E-06	-3.339491E-06
977	10.76	-1.435733E-06	-3.320880E-06
978	10.77	-1.427719E-06	-3.302389E-06
979	10.78	-1.419757E-06	-3.284019E-06
980	10.79	-1.411848E-06	-3.265768E-06
981	10.80	-1.403989E-06	-3.247635E-06
982	10.81	-1.396182E-06	-3.229620E-06
983	10.82	-1.388425E-06	-3.211721E-06
984	10.83	-1.380719E-06	-3.193938E-06
985	10.84	-1.373062E-06	-3.176270E-06
986	10.85	-1.365455E-06	-3.158715E-06
987	10.86	-1.357897E-06	-3.141274E-06
988	10.87	-1.350388E-06	-3.123945E-06
989	10.88	-1.342927E-06	-3.106727E-06
990	10.89	-1.335514E-06	-3.089620E-06
991	10.90	-1.328149E-06	-3.072623E-06
992	10.91	-1.320832E-06	-3.055735E-06
993	10.92	-1.313561E-06	-3.038955E-06
994	10.93	-1.306337E-06	-3.022283E-06
995	10.94	-1.299160E-06	-3.005717E-06
996	10.95	-1.292028E-06	-2.989257E-06
997	10.96	-1.284942E-06	-2.972903E-06
998	10.97	-1.277902E-06	-2.956652E-06
999	10.98	-1.270906E-06	-2.940505E-06
1000	10.99	-1.263955E-06	-2.924461E-06
1001	11.00	-1.257048E-06	-2.908519E-06
1002	11.01	-1.250186E-06	-2.892679E-06
1003	11.02	-1.243367E-06	-2.876939E-06
1004	11.03	-1.236591E-06	-2.861298E-06
1005	11.04	-1.229859E-06	-2.845757E-06
1006	11.05	-1.223169E-06	-2.830315E-06
1007	11.06	-1.216522E-06	-2.814970E-06
1008	11.07	-1.209916E-06	-2.799722E-06
1009	11.08	-1.203353E-06	-2.784570E-06
1010	11.09	-1.196831E-06	-2.769514E-06
1011	11.10	-1.190350E-06	-2.754553E-06
1012	11.11	-1.183911E-06	-2.739686E-06
1013	11.12	-1.177512E-06	-2.724913E-06
1014	11.13	-1.171153E-06	-2.710233E-06
1015	11.14	-1.164834E-06	-2.695645E-06
1016	11.15	-1.158555E-06	-2.681148E-06
1017	11.16	-1.152316E-06	-2.666742E-06
1018	11.17	-1.146115E-06	-2.652427E-06
1019	11.18	-1.139954E-06	-2.638201E-06
1020	11.19	-1.133831E-06	-2.624064E-06
1021	11.20	-1.127747E-06	-2.610015E-06
1022	11.21	-1.121700E-06	-2.596055E-06
1023	11.22	-1.115692E-06	-2.582181E-06
1024	11.23	-1.109721E-06	-2.568393E-06
1025	11.24	-1.103787E-06	-2.554692E-06
1026	11.25	-1.097890E-06	-2.541076E-06
1027	11.26	-1.092030E-06	-2.527544E-06
1028	11.27	-1.086207E-06	-2.514096E-06
1029	11.28	-1.080419E-06	-2.500732E-06
1030	11.29	-1.074668E-06	-2.487451E-06
1031	11.30	-1.068952E-06	-2.474252E-06
1032	11.31	-1.063272E-06	-2.461134E-06
1033	11.32	-1.057627E-06	-2.448098E-06
1034	11.33	-1.052017E-06	-2.435142E-06
1035	11.34	-1.046442E-06	-2.422266E-06
1036	11.35	-1.040901E-06	-2.409469E-06
1037	11.36	-1.035394E-06	-2.396752E-06
1038	11.37	-1.029921E-06	-2.384112E-06
1039	11.38	-1.024482E-06	-2.371551E-06
1040	11.39	-1.019077E-06	-2.359066E-06
1041	11.40	-1.013705E-06	-2.346658E-06
1042	11.41	-1.008365E-06	-2.334326E-06
1043	11.42	-1.003059E-06	-2.322070E-06
1044	11.43	-9.977852E-07	-2.309889E-06
1045	11.44	-9.925437E-07	-2.297782E-06
1046	11.45	-9.873343E-07	-2.285749E-06
1047	11.46	-9.821568E-07	-2.273790E-06
1048	11.47	-9.770110E-07	-2.261904E-06
1049	11.48	-9.718966E-07	-2.250090E-06
1050	11.49	-9.668134E-07	-2.238348E-06
1051	11.50	-9.617612E-07	-2.226678E-06
1052	11.51	-9.567398E-07	-2.215078E-06
1053	11.52	-9.517489E-07	-2.203549E-06
1054	11.53	-9.467885E-07	-2.192090E-06
1055	11.54	-9.418582E-07	-2.180700E-06
1056	11.55	-9.369578E-07	-2.169380E-06
1057	11.56	-9.320871E-07	-2.158128E-06
1058	11.57	-9.272460E-07	-2.146944E-06
1059	11.58	-9.224342E-07	-2.135827E-06
1060	11.59	-9.176516E-07	-2.124778E-06
1061	11.60	-9.128978E-07	-2.113795E-06
1062	11.61	-9.081728E-07	-2.102879E-06
1063	11.62	-9.034762E-07	-2.092028E-06
1064	11.63	-8.988080E-07	-2.081243E-06
1065	11.64	-8.941680E-07	-2.070522E-06
1066	11.65	-8.895558E-07	-2.059866E-06
1067	11.66	-8.849714E-07	-2.049274E-06
1068	11.67	-8.804146E-07	-2.038745E-06
1069	11.68	-8.758851E-07	-2.028279E-06
1070	11.69	-8.713828E-07	-2.017876E-06
1071	11.70	-8.669075E-07	-2.007535E-06
1072	11.71	-8.624590E-07	-1.997256E-06
1073	11.72	-8.580371E-07	-1.987039E-06
1074	11.73	-8.536417E-07	-1.976882E-06
1075	11.74	-8.492725E-07	-1.966786E-06
1076	11.75	-8.449294E-07	-1.956750E-06
1077	11.76	-8.406122E-07	-1.946773E-06
1078	11.77	-8.363207E-07	-1.936856E-06
1079	11.78	-8.320547E-07	-1.926998E-06
1080	11.79	-8.278142E-07	-1.917199E-06
1081	11.80	-8.235988E-07	-1.907457E-06
1082	11.81	-8.194085E-07	-1.897773E-06
1083	11.82	-8.152430E-07	-1.888147E-06
1084	11.83	-8.111023E-07	-1.878577E-06
1085	11.84	-8.069860E-07	-1.869064E-06
1086	11.85	-8.028941E-07	-1.859607E-06
1087	11.86	-7.988265E-07	-1.850206E-06
1088	11.87	-7.947828E-07	-1.840861E-06
1089	11.88	-7.907630E-07	-1.831570E-06
1090	11.89	-7.867669E-07	-1.822334E-06
1091	11.90	-7.827944E-07	-1.813153E-06
1092	11.91	-7.788453E-07	-1.804025E-06
1093	11.92	-7.749194E-07	-1.794951E-06
1094	11.93	-7.710166E-07	-1.785930E-06
1095	11.94	-7.671367E-07	-1.776962E-06
1096	11.95	-7.632795E-07	-1.768047E-06
1097	11.96	-7.594450E-07	-1.759184E-06
1098	11.97	-7.556330E-07	-1.750372E-06
1099	11.98	-7.518433E-07	-1.741612E-06
1100	11.99	-7.480757E-07	-1.732903E-06
1101	12.00	-7.443301E-07	-1.724245E-06
1102	12.01	-7.406065E-07	-1.715637E-06
1103	12.02	-7.369045E-07	-1.707080E-06
1104	12.03	-7.332241E-07	-1.698572E-06
1105	12.04	-7.295652E-07	-1.690114E-06
1106	12.05	-7.259275E-07	-1.681704E-06
1107	12.06	-7.223110E-07	-1.673344E-06
1108	12.07	-7.187156E-07	-1.665032E-06
1109	12.08	-7.151409E-07	-1.656768E-06
1110	12.09	-7.115871E-07	-1.648552E-06
1111	12.10	-7.080538E-07	-1.640383E-06
1112	12.11	-7.045410E-07	-1.632262E-06
1113	12.12	-7.010485E-07	-1.624188E-06
1114	12.13	-6.975761E-07	-1.616160E-06
1115	12.14	-6.941239E-07	-1.608178E-06
1116	12.15	-6.906916E-07	-1.600243E-06
1117	12.16	-6.872790E-07	-1.592353E-06
1118	12.17	-6.838861E-07	-1.584508E-06
1119	12.18	-6.805128E-07	-1.576708E-06
1120	12.19	-6.771589E-07	-1.568954E-06
1121	12.20	-6.738242E-07	-1.561243E-06
1122	12.21	-6.705087E-07	-1.553577E-06
1123	12.22	-6.672122E-07	-1.545955E-06
1124	12.23	-6.639346E-07	-1.538376E-06
1125	12.24	-6.606758E-07	-1.530841E-06
1126	12.25	-6.574357E-07	-1.523349E-06
1127	12.26	-6.542141E-07	-1.515899E-06
1128	12.27	-6.510108E-07	-1.508492E-06
1129	12.28	-6.478259E-07	-1.501127E-06
1130	12.29	-6.446592E-07	-1.493804E-06
1131	12.30	-6.415105E-07	-1.486523E-06
1132	12.31	-6.383797E-07	-1.479283E-06
1133	12.32	-6.352668E-07	-1.472085E-06
1134	12.33	-6.321715E-07	-1.464927E-06
1135	12.34	-6.290939E-07	-1.457809E-06
1136	12.35	-6.260337E-07	-1.450732E-06
1137	12.36	-6.229909E-07	-1.443695E-06
1138	12.37	-6.199653E-07	-1.436698E-06
1139	12.38	-6.169569E-07	-1.429741E-06
1140	12.39	-6.139654E-07	-1.422822E-06
1141	12.40	-6.109909E-07	-1.415943E-06
1142	12.41	-6.080333E-07	-1.409103E-06
1143	12.42	-6.050923E-07	-1.402301E-06
1144	12.43	-6.021679E-07	-1.395537E-06
1145	12.44	-5.992599E-07	-1.388811E-06
1146	12.45	-5.963684E-07	-1.382124E-06
1147	12.46	-5.934931E-07	-1.375473E-06
1148	12.47	-5.906340E-07	-1.368860E-06
1149	12.48	-5.877910E-07	-1.362284E-06
1150	12.49	-5.849639E-07	-1.355745E-06
1151	12.50	-5.821526E-07	-1.349243E-06
1152	12.51	-5.793572E-07	-1.342777E-06
1153	12.52	-5.765773E-07	-1.336347E-06
1154	12.53	-5.738131E-07	-1.329953E-06
1155	12.54	-5.710643E-07	-1.323594E-06
1156	12.55	-5.683308E-07	-1.317272E-06
1157	12.56	-5.656126E-07	-1.310984E-06
1158	12.57	-5.629096E-07	-1.304731E-06
1159	12.58	-5.602216E-07	-1.298513E-06
1160	12.59	-5.575486E-07	-1.292330E-06
1161	12.60	-5.548905E-07	-1.286181E-06
1162	12.61	-5.522471E-07	-1.280066E-06
1163	12.62	-5.496185E-07	-1.273985E-06
1164	12.63	-5.470044E-07	-1.267937E-06
1165	12.64	-5.444048E-07	-1.261924E-06
1166	12.65	-5.418197E-07	-1.255943E-06
1167	12.66	-5.392488E-07	-1.249995E-06
1168	12.67	-5.366922E-07	-1.244081E-06
1169	12.68	-5.341497E-07	-1.238199E-06
1170	12.69	-5.316213E-07	-1.232349E-06
1171	12.70	-5.291068E-07	-1.226532E-06
1172	12.71	-5.266062E-07	-1.220746E-06
1173	12.72	-5.241194E-07	-1.214993E-06
1174	12.73	-5.216462E-07	-1.209271E-06
1175	12.74	-5.191867E-07	-1.203580E-06
1176	12.75	-5.167407E-07	-1.197921E-06
1177	12.76	-5.143081E-07	-1.192292E-06
1178	12.77	-5.118889E-07	-1.186695E-06
1179	12.78	-5.094830E-07	-1.181128E-06
1180	12.79	-5.070902E-07	-1.175592E-06
1181	12.80	-5.047106E-07	-1.170086E-06
1182	12.81	-5.023440E-07	-1.164610E-06
1183	12.82	-4.999903E-07	-1.159163E-06
1184	12.83	-4.976495E-07	-1.153747E-06
1185	12.84	-4.953214E-07	-1.148360E-06
1186	12.85	-4.930061E-07	-1.143002E-06
1187	12.86	-4.907034E-07	-1.137674E-06
1188	12.87	-4.884132E-07	-1.132375E-06
1189	12.88	-4.861355E-07	-1.127104E-06
1190	12.89	-4.838702E-07	-1.121862E-06
1191	12.90	-4.816172E-07	-1.116648E-06
1192	12.91	-4.793764E-07	-1.111463E-06
1193	12.92	-4.771478E-07	-1.106305E-06
1194	12.93	-4.749312E-07	-1.101176E-06
1195	12.94	-4.727267E-07	-1.096074E-06
1196	12.95	-4.705341E-07	-1.091000E-06
1197	12.96	-4.683534E-07	-1.085953E-06
1198	12.97	-4.661844E-07	-1.080934E-06
1199	12.98	-4.640272E-07	-1.075941E-06
1200	12.99	-4.618816E-07	-1.070976E-06
