# DATE: 2024-07-07  UNITS: metal  CONTRIBUTOR: By STUDENT			
# FHEP: Temp 303 [K], mr 0.923076923076923 [g/mol], Sigma 3 [A], Epsilon 0.00294742729934855 [eV]			
			
ENTRY			
N 1200 R 1.0 12.99			
			
1	1.00	1.218484E+04	1.080466E+05
2	1.01	1.070920E+04	9.371783E+04
3	1.02	9.425128E+03	8.141613E+04
4	1.03	8.306123E+03	7.083744E+04
5	1.04	7.329572E+03	6.172584E+04
6	1.05	6.476144E+03	5.386550E+04
7	1.06	5.729292E+03	4.707410E+04
8	1.07	5.074827E+03	4.119737E+04
9	1.08	4.500563E+03	3.610453E+04
10	1.09	3.996018E+03	3.168457E+04
11	1.10	3.552166E+03	2.784307E+04
12	1.11	3.161219E+03	2.449961E+04
13	1.12	2.816449E+03	2.158558E+04
14	1.13	2.512038E+03	1.904236E+04
15	1.14	2.242945E+03	1.681981E+04
16	1.15	2.004796E+03	1.487492E+04
17	1.16	1.793795E+03	1.317081E+04
18	1.17	1.606638E+03	1.167577E+04
19	1.18	1.440448E+03	1.036252E+04
20	1.19	1.292719E+03	9.207521E+03
21	1.20	1.161261E+03	8.190484E+03
22	1.21	1.044160E+03	7.293864E+03
23	1.22	9.397418E+02	6.502478E+03
24	1.23	8.465399E+02	5.803173E+03
25	1.24	7.632672E+02	5.184534E+03
26	1.25	6.887940E+02	4.636647E+03
27	1.26	6.221271E+02	4.150890E+03
28	1.27	5.623923E+02	3.719751E+03
29	1.28	5.088196E+02	3.336684E+03
30	1.29	4.607298E+02	2.995973E+03
31	1.30	4.175234E+02	2.692623E+03
32	1.31	3.786705E+02	2.422263E+03
33	1.32	3.437023E+02	2.181067E+03
34	1.33	3.122038E+02	1.965677E+03
35	1.34	2.838070E+02	1.773145E+03
36	1.35	2.581855E+02	1.600883E+03
37	1.36	2.350494E+02	1.446612E+03
38	1.37	2.141410E+02	1.308325E+03
39	1.38	1.952310E+02	1.184254E+03
40	1.39	1.781153E+02	1.072837E+03
41	1.40	1.626118E+02	9.726959E+02
42	1.41	1.485582E+02	8.826109E+02
43	1.42	1.358096E+02	8.015029E+02
44	1.43	1.242364E+02	7.284156E+02
45	1.44	1.137227E+02	6.625012E+02
46	1.45	1.041648E+02	6.030069E+02
47	1.46	9.546986E+01	5.492640E+02
48	1.47	8.755454E+01	5.006780E+02
49	1.48	8.034411E+01	4.567194E+02
50	1.49	7.377145E+01	4.169169E+02
51	1.50	6.777625E+01	3.808500E+02
52	1.51	6.230425E+01	3.481435E+02
53	1.52	5.730663E+01	3.184624E+02
54	1.53	5.273943E+01	2.915071E+02
55	1.54	4.856301E+01	2.670096E+02
56	1.55	4.474162E+01	2.447301E+02
57	1.56	4.124300E+01	2.244535E+02
58	1.57	3.803798E+01	2.059871E+02
59	1.58	3.510024E+01	1.891577E+02
60	1.59	3.240593E+01	1.738099E+02
61	1.60	2.993350E+01	1.598041E+02
62	1.61	2.766341E+01	1.470145E+02
63	1.62	2.557796E+01	1.353280E+02
64	1.63	2.366109E+01	1.246426E+02
65	1.64	2.189824E+01	1.148665E+02
66	1.65	2.027618E+01	1.059168E+02
67	1.66	1.878288E+01	9.771855E+01
68	1.67	1.740744E+01	9.020417E+01
69	1.68	1.613989E+01	8.331252E+01
70	1.69	1.497121E+01	7.698830E+01
71	1.70	1.389314E+01	7.118141E+01
72	1.71	1.289819E+01	6.584649E+01
73	1.72	1.197950E+01	6.094243E+01
74	1.73	1.113083E+01	5.643192E+01
75	1.74	1.034648E+01	5.228110E+01
76	1.75	9.621245E+00	4.845922E+01
77	1.76	8.950359E+00	4.493832E+01
78	1.77	8.329477E+00	4.169300E+01
79	1.78	7.754616E+00	3.870013E+01
80	1.79	7.222136E+00	3.593865E+01
81	1.80	6.728701E+00	3.338938E+01
82	1.81	6.271253E+00	3.103483E+01
83	1.82	5.846991E+00	2.885906E+01
84	1.83	5.453347E+00	2.684750E+01
85	1.84	5.087961E+00	2.498688E+01
86	1.85	4.748670E+00	2.326504E+01
87	1.86	4.433485E+00	2.167089E+01
88	1.87	4.140579E+00	2.019427E+01
89	1.88	3.868273E+00	1.882589E+01
90	1.89	3.615022E+00	1.755724E+01
91	1.90	3.379405E+00	1.638054E+01
92	1.91	3.160111E+00	1.528863E+01
93	1.92	2.955937E+00	1.427497E+01
94	1.93	2.765771E+00	1.333355E+01
95	1.94	2.588590E+00	1.245884E+01
96	1.95	2.423448E+00	1.164578E+01
97	1.96	2.269475E+00	1.088971E+01
98	1.97	2.125867E+00	1.018634E+01
99	1.98	1.991881E+00	9.531754E+00
100	1.99	1.866830E+00	8.922311E+00
101	2.00	1.750081E+00	8.354678E+00
102	2.01	1.641048E+00	7.825781E+00
103	2.02	1.539187E+00	7.332789E+00
104	2.03	1.443999E+00	6.873090E+00
105	2.04	1.355017E+00	6.444276E+00
106	2.05	1.271812E+00	6.044124E+00
107	2.06	1.193986E+00	5.670582E+00
108	2.07	1.121170E+00	5.321756E+00
109	2.08	1.053020E+00	4.995894E+00
110	2.09	9.892203E-01	4.691377E+00
111	2.10	9.294755E-01	4.406710E+00
112	2.11	8.735125E-01	4.140507E+00
113	2.12	8.210774E-01	3.891486E+00
114	2.13	7.719346E-01	3.658461E+00
115	2.14	7.258650E-01	3.440332E+00
116	2.15	6.826653E-01	3.236081E+00
117	2.16	6.421460E-01	3.044764E+00
118	2.17	6.041313E-01	2.865504E+00
119	2.18	5.684574E-01	2.697489E+00
120	2.19	5.349719E-01	2.539966E+00
121	2.20	5.035329E-01	2.392233E+00
122	2.21	4.740084E-01	2.253642E+00
123	2.22	4.462753E-01	2.123587E+00
124	2.23	4.202188E-01	2.001506E+00
125	2.24	3.957321E-01	1.886879E+00
126	2.25	3.727154E-01	1.779218E+00
127	2.26	3.510759E-01	1.678072E+00
128	2.27	3.307266E-01	1.583021E+00
129	2.28	3.115868E-01	1.493672E+00
130	2.29	2.935807E-01	1.409661E+00
131	2.30	2.766378E-01	1.330647E+00
132	2.31	2.606921E-01	1.256314E+00
133	2.32	2.456820E-01	1.186366E+00
134	2.33	2.315500E-01	1.120528E+00
135	2.34	2.182421E-01	1.058542E+00
136	2.35	2.057081E-01	1.000169E+00
137	2.36	1.939007E-01	9.451834E-01
138	2.37	1.827760E-01	8.933771E-01
139	2.38	1.722927E-01	8.445544E-01
140	2.39	1.624121E-01	7.985324E-01
141	2.40	1.530982E-01	7.551404E-01
142	2.41	1.443169E-01	7.142186E-01
143	2.42	1.360366E-01	6.756178E-01
144	2.43	1.282275E-01	6.391980E-01
145	2.44	1.208617E-01	6.048286E-01
146	2.45	1.139131E-01	5.723870E-01
147	2.46	1.073572E-01	5.417585E-01
148	2.47	1.011708E-01	5.128358E-01
149	2.48	9.533257E-02	4.855181E-01
150	2.49	8.982208E-02	4.597112E-01
151	2.50	8.462035E-02	4.353265E-01
152	2.51	7.970952E-02	4.122811E-01
153	2.52	7.507281E-02	3.904973E-01
154	2.53	7.069445E-02	3.699019E-01
155	2.54	6.655963E-02	3.504266E-01
156	2.55	6.265444E-02	3.320069E-01
157	2.56	5.896578E-02	3.145826E-01
158	2.57	5.548136E-02	2.980967E-01
159	2.58	5.218959E-02	2.824961E-01
160	2.59	4.907959E-02	2.677307E-01
161	2.60	4.614112E-02	2.537533E-01
162	2.61	4.336454E-02	2.405197E-01
163	2.62	4.074078E-02	2.279883E-01
164	2.63	3.826128E-02	2.161199E-01
165	2.64	3.591802E-02	2.048777E-01
166	2.65	3.370340E-02	1.942270E-01
167	2.66	3.161030E-02	1.841351E-01
168	2.67	2.963199E-02	1.745713E-01
169	2.68	2.776214E-02	1.655067E-01
170	2.69	2.599476E-02	1.569140E-01
171	2.70	2.432423E-02	1.487674E-01
172	2.71	2.274523E-02	1.410429E-01
173	2.72	2.125277E-02	1.337175E-01
174	2.73	1.984211E-02	1.267697E-01
175	2.74	1.850880E-02	1.201793E-01
176	2.75	1.724863E-02	1.139271E-01
177	2.76	1.605764E-02	1.079950E-01
178	2.77	1.493208E-02	1.023660E-01
179	2.78	1.386841E-02	9.702409E-02
180	2.79	1.286329E-02	9.195396E-02
181	2.80	1.191357E-02	8.714133E-02
182	2.81	1.101628E-02	8.257265E-02
183	2.82	1.016859E-02	7.823512E-02
184	2.83	9.367852E-03	7.411667E-02
185	2.84	8.611548E-03	7.020587E-02
186	2.85	7.897306E-03	6.649192E-02
187	2.86	7.222881E-03	6.296463E-02
188	2.87	6.586151E-03	5.961435E-02
189	2.88	5.985110E-03	5.643194E-02
190	2.89	5.417861E-03	5.340879E-02
191	2.90	4.882608E-03	5.053672E-02
192	2.91	4.377655E-03	4.780801E-02
193	2.92	3.901395E-03	4.521534E-02
194	2.93	3.452310E-03	4.275180E-02
195	2.94	3.028961E-03	4.041084E-02
196	2.95	2.629987E-03	3.818624E-02
197	2.96	2.254101E-03	3.607213E-02
198	2.97	1.900083E-03	3.406295E-02
199	2.98	1.566779E-03	3.215342E-02
200	2.99	1.253096E-03	3.033855E-02
201	3.00	9.579983E-04	2.861361E-02
202	3.01	6.805059E-04	2.697409E-02
203	3.02	4.196903E-04	2.541576E-02
204	3.03	1.746719E-04	2.393457E-02
205	3.04	-5.538270E-05	2.252671E-02
206	3.05	-2.712630E-04	2.118853E-02
207	3.06	-4.737171E-04	1.991661E-02
208	3.07	-6.634541E-04	1.870768E-02
209	3.08	-8.411458E-04	1.755863E-02
210	3.09	-1.007429E-03	1.646653E-02
211	3.10	-1.162908E-03	1.542859E-02
212	3.11	-1.308154E-03	1.444216E-02
213	3.12	-1.443711E-03	1.350473E-02
214	3.13	-1.570093E-03	1.261389E-02
215	3.14	-1.687787E-03	1.176740E-02
216	3.15	-1.797256E-03	1.096309E-02
217	3.16	-1.898939E-03	1.019892E-02
218	3.17	-1.993252E-03	9.472944E-03
219	3.18	-2.080590E-03	8.783313E-03
220	3.19	-2.161326E-03	8.128275E-03
221	3.20	-2.235816E-03	7.506160E-03
222	3.21	-2.304397E-03	6.915382E-03
223	3.22	-2.367388E-03	6.354434E-03
224	3.23	-2.425093E-03	5.821883E-03
225	3.24	-2.477799E-03	5.316366E-03
226	3.25	-2.525778E-03	4.836587E-03
227	3.26	-2.569290E-03	4.381313E-03
228	3.27	-2.608581E-03	3.949371E-03
229	3.28	-2.643883E-03	3.539646E-03
230	3.29	-2.675418E-03	3.151077E-03
231	3.30	-2.703396E-03	2.782654E-03
232	3.31	-2.728015E-03	2.433415E-03
233	3.32	-2.749466E-03	2.102447E-03
234	3.33	-2.767926E-03	1.788878E-03
235	3.34	-2.783567E-03	1.491880E-03
236	3.35	-2.796550E-03	1.210664E-03
237	3.36	-2.807029E-03	9.444795E-04
238	3.37	-2.815148E-03	6.926103E-04
239	3.38	-2.821045E-03	4.543757E-04
240	3.39	-2.824853E-03	2.291270E-04
241	3.40	-2.826694E-03	1.624645E-05
242	3.41	-2.826687E-03	-1.848544E-04
243	3.42	-2.824944E-03	-3.747362E-04
244	3.43	-2.821571E-03	-5.539330E-04
245	3.44	-2.816668E-03	-7.229536E-04
246	3.45	-2.810331E-03	-8.822828E-04
247	3.46	-2.802651E-03	-1.032383E-03
248	3.47	-2.793713E-03	-1.173694E-03
249	3.48	-2.783600E-03	-1.306635E-03
250	3.49	-2.772388E-03	-1.431607E-03
251	3.50	-2.760150E-03	-1.548991E-03
252	3.51	-2.746957E-03	-1.659150E-03
253	3.52	-2.732874E-03	-1.762430E-03
254	3.53	-2.717963E-03	-1.859162E-03
255	3.54	-2.702285E-03	-1.949661E-03
256	3.55	-2.685894E-03	-2.034227E-03
257	3.56	-2.668844E-03	-2.113146E-03
258	3.57	-2.651186E-03	-2.186692E-03
259	3.58	-2.632966E-03	-2.255124E-03
260	3.59	-2.614232E-03	-2.318690E-03
261	3.60	-2.595024E-03	-2.377629E-03
262	3.61	-2.575384E-03	-2.432164E-03
263	3.62	-2.555350E-03	-2.482512E-03
264	3.63	-2.534958E-03	-2.528879E-03
265	3.64	-2.514243E-03	-2.571460E-03
266	3.65	-2.493237E-03	-2.610441E-03
267	3.66	-2.471971E-03	-2.646002E-03
268	3.67	-2.450474E-03	-2.678313E-03
269	3.68	-2.428773E-03	-2.707535E-03
270	3.69	-2.406894E-03	-2.733823E-03
271	3.70	-2.384862E-03	-2.757326E-03
272	3.71	-2.362700E-03	-2.778183E-03
273	3.72	-2.340429E-03	-2.796530E-03
274	3.73	-2.318070E-03	-2.812494E-03
275	3.74	-2.295643E-03	-2.826198E-03
276	3.75	-2.273166E-03	-2.837759E-03
277	3.76	-2.250655E-03	-2.847287E-03
278	3.77	-2.228128E-03	-2.854889E-03
279	3.78	-2.205599E-03	-2.860666E-03
280	3.79	-2.183083E-03	-2.864716E-03
281	3.80	-2.160594E-03	-2.867129E-03
282	3.81	-2.138143E-03	-2.867995E-03
283	3.82	-2.115743E-03	-2.867396E-03
284	3.83	-2.093404E-03	-2.865414E-03
285	3.84	-2.071138E-03	-2.862123E-03
286	3.85	-2.048955E-03	-2.857598E-03
287	3.86	-2.026862E-03	-2.851907E-03
288	3.87	-2.004869E-03	-2.845117E-03
289	3.88	-1.982983E-03	-2.837290E-03
290	3.89	-1.961213E-03	-2.828488E-03
291	3.90	-1.939564E-03	-2.818767E-03
292	3.91	-1.918044E-03	-2.808183E-03
293	3.92	-1.896657E-03	-2.796787E-03
294	3.93	-1.875411E-03	-2.784629E-03
295	3.94	-1.854310E-03	-2.771757E-03
296	3.95	-1.833357E-03	-2.758216E-03
297	3.96	-1.812559E-03	-2.744048E-03
298	3.97	-1.791919E-03	-2.729296E-03
299	3.98	-1.771440E-03	-2.713998E-03
300	3.99	-1.751125E-03	-2.698191E-03
301	4.00	-1.730978E-03	-2.681911E-03
302	4.01	-1.711002E-03	-2.665192E-03
303	4.02	-1.691198E-03	-2.648066E-03
304	4.03	-1.671569E-03	-2.630564E-03
305	4.04	-1.652118E-03	-2.612714E-03
306	4.05	-1.632844E-03	-2.594546E-03
307	4.06	-1.613751E-03	-2.576084E-03
308	4.07	-1.594840E-03	-2.557354E-03
309	4.08	-1.576111E-03	-2.538381E-03
310	4.09	-1.557565E-03	-2.519187E-03
311	4.10	-1.539204E-03	-2.499793E-03
312	4.11	-1.521027E-03	-2.480221E-03
313	4.12	-1.503036E-03	-2.460489E-03
314	4.13	-1.485230E-03	-2.440617E-03
315	4.14	-1.467609E-03	-2.420622E-03
316	4.15	-1.450174E-03	-2.400521E-03
317	4.16	-1.432925E-03	-2.380329E-03
318	4.17	-1.415861E-03	-2.360063E-03
319	4.18	-1.398982E-03	-2.339735E-03
320	4.19	-1.382287E-03	-2.319361E-03
321	4.20	-1.365777E-03	-2.298952E-03
322	4.21	-1.349450E-03	-2.278521E-03
323	4.22	-1.333305E-03	-2.258079E-03
324	4.23	-1.317343E-03	-2.237638E-03
325	4.24	-1.301561E-03	-2.217208E-03
326	4.25	-1.285960E-03	-2.196798E-03
327	4.26	-1.270538E-03	-2.176418E-03
328	4.27	-1.255295E-03	-2.156077E-03
329	4.28	-1.240228E-03	-2.135782E-03
330	4.29	-1.225337E-03	-2.115542E-03
331	4.30	-1.210622E-03	-2.095364E-03
332	4.31	-1.196079E-03	-2.075255E-03
333	4.32	-1.181709E-03	-2.055222E-03
334	4.33	-1.167511E-03	-2.035270E-03
335	4.34	-1.153481E-03	-2.015405E-03
336	4.35	-1.139621E-03	-1.995633E-03
337	4.36	-1.125927E-03	-1.975958E-03
338	4.37	-1.112398E-03	-1.956386E-03
339	4.38	-1.099034E-03	-1.936921E-03
340	4.39	-1.085833E-03	-1.917568E-03
341	4.40	-1.072792E-03	-1.898329E-03
342	4.41	-1.059911E-03	-1.879208E-03
343	4.42	-1.047189E-03	-1.860210E-03
344	4.43	-1.034623E-03	-1.841336E-03
345	4.44	-1.022212E-03	-1.822590E-03
346	4.45	-1.009954E-03	-1.803975E-03
347	4.46	-9.978489E-04	-1.785493E-03
348	4.47	-9.858939E-04	-1.767146E-03
349	4.48	-9.740878E-04	-1.748936E-03
350	4.49	-9.624291E-04	-1.730865E-03
351	4.50	-9.509160E-04	-1.712936E-03
352	4.51	-9.395472E-04	-1.695148E-03
353	4.52	-9.283209E-04	-1.677504E-03
354	4.53	-9.172357E-04	-1.660005E-03
355	4.54	-9.062900E-04	-1.642653E-03
356	4.55	-8.954822E-04	-1.625447E-03
357	4.56	-8.848107E-04	-1.608389E-03
358	4.57	-8.742741E-04	-1.591480E-03
359	4.58	-8.638707E-04	-1.574720E-03
360	4.59	-8.535990E-04	-1.558109E-03
361	4.60	-8.434574E-04	-1.541649E-03
362	4.61	-8.334445E-04	-1.525339E-03
363	4.62	-8.235587E-04	-1.509179E-03
364	4.63	-8.137986E-04	-1.493170E-03
365	4.64	-8.041625E-04	-1.477312E-03
366	4.65	-7.946490E-04	-1.461604E-03
367	4.66	-7.852567E-04	-1.446046E-03
368	4.67	-7.759840E-04	-1.430639E-03
369	4.68	-7.668294E-04	-1.415382E-03
370	4.69	-7.577916E-04	-1.400274E-03
371	4.70	-7.488691E-04	-1.385316E-03
372	4.71	-7.400605E-04	-1.370506E-03
373	4.72	-7.313642E-04	-1.355845E-03
374	4.73	-7.227790E-04	-1.341332E-03
375	4.74	-7.143035E-04	-1.326965E-03
376	4.75	-7.059361E-04	-1.312745E-03
377	4.76	-6.976757E-04	-1.298671E-03
378	4.77	-6.895208E-04	-1.284742E-03
379	4.78	-6.814700E-04	-1.270957E-03
380	4.79	-6.735222E-04	-1.257315E-03
381	4.80	-6.656758E-04	-1.243817E-03
382	4.81	-6.579296E-04	-1.230460E-03
383	4.82	-6.502824E-04	-1.217244E-03
384	4.83	-6.427329E-04	-1.204168E-03
385	4.84	-6.352797E-04	-1.191231E-03
386	4.85	-6.279217E-04	-1.178432E-03
387	4.86	-6.206575E-04	-1.165770E-03
388	4.87	-6.134861E-04	-1.153245E-03
389	4.88	-6.064061E-04	-1.140854E-03
390	4.89	-5.994164E-04	-1.128598E-03
391	4.90	-5.925157E-04	-1.116474E-03
392	4.91	-5.857030E-04	-1.104483E-03
393	4.92	-5.789770E-04	-1.092622E-03
394	4.93	-5.723367E-04	-1.080892E-03
395	4.94	-5.657808E-04	-1.069290E-03
396	4.95	-5.593083E-04	-1.057815E-03
397	4.96	-5.529180E-04	-1.046467E-03
398	4.97	-5.466090E-04	-1.035245E-03
399	4.98	-5.403800E-04	-1.024147E-03
400	4.99	-5.342300E-04	-1.013172E-03
401	5.00	-5.281581E-04	-1.002319E-03
402	5.01	-5.221630E-04	-9.915864E-04
403	5.02	-5.162440E-04	-9.809740E-04
404	5.03	-5.103998E-04	-9.704802E-04
405	5.04	-5.046295E-04	-9.601038E-04
406	5.05	-4.989321E-04	-9.498437E-04
407	5.06	-4.933067E-04	-9.396989E-04
408	5.07	-4.877523E-04	-9.296681E-04
409	5.08	-4.822679E-04	-9.197502E-04
410	5.09	-4.768526E-04	-9.099441E-04
411	5.10	-4.715054E-04	-9.002487E-04
412	5.11	-4.662256E-04	-8.906627E-04
413	5.12	-4.610121E-04	-8.811852E-04
414	5.13	-4.558640E-04	-8.718150E-04
415	5.14	-4.507806E-04	-8.625509E-04
416	5.15	-4.457608E-04	-8.533918E-04
417	5.16	-4.408040E-04	-8.443367E-04
418	5.17	-4.359091E-04	-8.353845E-04
419	5.18	-4.310755E-04	-8.265339E-04
420	5.19	-4.263022E-04	-8.177841E-04
421	5.20	-4.215885E-04	-8.091337E-04
422	5.21	-4.169336E-04	-8.005819E-04
423	5.22	-4.123366E-04	-7.921275E-04
424	5.23	-4.077968E-04	-7.837694E-04
425	5.24	-4.033135E-04	-7.755067E-04
426	5.25	-3.988858E-04	-7.673381E-04
427	5.26	-3.945130E-04	-7.592628E-04
428	5.27	-3.901944E-04	-7.512796E-04
429	5.28	-3.859293E-04	-7.433876E-04
430	5.29	-3.817169E-04	-7.355857E-04
431	5.30	-3.775566E-04	-7.278728E-04
432	5.31	-3.734476E-04	-7.202481E-04
433	5.32	-3.693892E-04	-7.127104E-04
434	5.33	-3.653808E-04	-7.052589E-04
435	5.34	-3.614218E-04	-6.978925E-04
436	5.35	-3.575113E-04	-6.906102E-04
437	5.36	-3.536489E-04	-6.834112E-04
438	5.37	-3.498337E-04	-6.762944E-04
439	5.38	-3.460654E-04	-6.692588E-04
440	5.39	-3.423431E-04	-6.623037E-04
441	5.40	-3.386662E-04	-6.554279E-04
442	5.41	-3.350343E-04	-6.486307E-04
443	5.42	-3.314466E-04	-6.419111E-04
444	5.43	-3.279026E-04	-6.352681E-04
445	5.44	-3.244017E-04	-6.287010E-04
446	5.45	-3.209433E-04	-6.222087E-04
447	5.46	-3.175268E-04	-6.157906E-04
448	5.47	-3.141518E-04	-6.094456E-04
449	5.48	-3.108176E-04	-6.031729E-04
450	5.49	-3.075237E-04	-5.969716E-04
451	5.50	-3.042696E-04	-5.908410E-04
452	5.51	-3.010548E-04	-5.847802E-04
453	5.52	-2.978786E-04	-5.787884E-04
454	5.53	-2.947407E-04	-5.728647E-04
455	5.54	-2.916404E-04	-5.670083E-04
456	5.55	-2.885774E-04	-5.612185E-04
457	5.56	-2.855510E-04	-5.554945E-04
458	5.57	-2.825609E-04	-5.498354E-04
459	5.58	-2.796066E-04	-5.442406E-04
460	5.59	-2.766875E-04	-5.387092E-04
461	5.60	-2.738032E-04	-5.332404E-04
462	5.61	-2.709533E-04	-5.278337E-04
463	5.62	-2.681373E-04	-5.224881E-04
464	5.63	-2.653548E-04	-5.172030E-04
465	5.64	-2.626052E-04	-5.119777E-04
466	5.65	-2.598882E-04	-5.068113E-04
467	5.66	-2.572034E-04	-5.017034E-04
468	5.67	-2.545504E-04	-4.966530E-04
469	5.68	-2.519286E-04	-4.916596E-04
470	5.69	-2.493377E-04	-4.867225E-04
471	5.70	-2.467774E-04	-4.818410E-04
472	5.71	-2.442472E-04	-4.770144E-04
473	5.72	-2.417466E-04	-4.722420E-04
474	5.73	-2.392754E-04	-4.675233E-04
475	5.74	-2.368332E-04	-4.628575E-04
476	5.75	-2.344195E-04	-4.582441E-04
477	5.76	-2.320340E-04	-4.536824E-04
478	5.77	-2.296763E-04	-4.491718E-04
479	5.78	-2.273461E-04	-4.447116E-04
480	5.79	-2.250430E-04	-4.403013E-04
481	5.80	-2.227667E-04	-4.359403E-04
482	5.81	-2.205168E-04	-4.316280E-04
483	5.82	-2.182930E-04	-4.273638E-04
484	5.83	-2.160949E-04	-4.231470E-04
485	5.84	-2.139222E-04	-4.189773E-04
486	5.85	-2.117746E-04	-4.148539E-04
487	5.86	-2.096517E-04	-4.107763E-04
488	5.87	-2.075533E-04	-4.067440E-04
489	5.88	-2.054790E-04	-4.027565E-04
490	5.89	-2.034285E-04	-3.988131E-04
491	5.90	-2.014016E-04	-3.949134E-04
492	5.91	-1.993978E-04	-3.910569E-04
493	5.92	-1.974170E-04	-3.872429E-04
494	5.93	-1.954588E-04	-3.834711E-04
495	5.94	-1.935229E-04	-3.797409E-04
496	5.95	-1.916090E-04	-3.760518E-04
497	5.96	-1.897169E-04	-3.724034E-04
498	5.97	-1.878464E-04	-3.687950E-04
499	5.98	-1.859970E-04	-3.652263E-04
500	5.99	-1.841686E-04	-3.616968E-04
501	6.00	-1.823608E-04	-3.582060E-04
502	6.01	-1.805735E-04	-3.547534E-04
503	6.02	-1.788064E-04	-3.513386E-04
504	6.03	-1.770591E-04	-3.479612E-04
505	6.04	-1.753315E-04	-3.446206E-04
506	6.05	-1.736233E-04	-3.413165E-04
507	6.06	-1.719343E-04	-3.380484E-04
508	6.07	-1.702642E-04	-3.348159E-04
509	6.08	-1.686128E-04	-3.316185E-04
510	6.09	-1.669799E-04	-3.284559E-04
511	6.10	-1.653651E-04	-3.253276E-04
512	6.11	-1.637684E-04	-3.222333E-04
513	6.12	-1.621894E-04	-3.191724E-04
514	6.13	-1.606280E-04	-3.161447E-04
515	6.14	-1.590839E-04	-3.131497E-04
516	6.15	-1.575569E-04	-3.101870E-04
517	6.16	-1.560468E-04	-3.072563E-04
518	6.17	-1.545534E-04	-3.043571E-04
519	6.18	-1.530765E-04	-3.014891E-04
520	6.19	-1.516159E-04	-2.986520E-04
521	6.20	-1.501713E-04	-2.958453E-04
522	6.21	-1.487426E-04	-2.930688E-04
523	6.22	-1.473296E-04	-2.903219E-04
524	6.23	-1.459321E-04	-2.876045E-04
525	6.24	-1.445499E-04	-2.849161E-04
526	6.25	-1.431828E-04	-2.822564E-04
527	6.26	-1.418306E-04	-2.796251E-04
528	6.27	-1.404931E-04	-2.770218E-04
529	6.28	-1.391703E-04	-2.744463E-04
530	6.29	-1.378617E-04	-2.718981E-04
531	6.30	-1.365674E-04	-2.693769E-04
532	6.31	-1.352872E-04	-2.668825E-04
533	6.32	-1.340208E-04	-2.644145E-04
534	6.33	-1.327680E-04	-2.619726E-04
535	6.34	-1.315289E-04	-2.595566E-04
536	6.35	-1.303030E-04	-2.571660E-04
537	6.36	-1.290904E-04	-2.548006E-04
538	6.37	-1.278908E-04	-2.524602E-04
539	6.38	-1.267041E-04	-2.501444E-04
540	6.39	-1.255301E-04	-2.478529E-04
541	6.40	-1.243687E-04	-2.455854E-04
542	6.41	-1.232197E-04	-2.433418E-04
543	6.42	-1.220829E-04	-2.411216E-04
544	6.43	-1.209583E-04	-2.389246E-04
545	6.44	-1.198457E-04	-2.367506E-04
546	6.45	-1.187449E-04	-2.345993E-04
547	6.46	-1.176558E-04	-2.324703E-04
548	6.47	-1.165782E-04	-2.303636E-04
549	6.48	-1.155120E-04	-2.282787E-04
550	6.49	-1.144572E-04	-2.262155E-04
551	6.50	-1.134134E-04	-2.241737E-04
552	6.51	-1.123807E-04	-2.221531E-04
553	6.52	-1.113589E-04	-2.201533E-04
554	6.53	-1.103478E-04	-2.181743E-04
555	6.54	-1.093473E-04	-2.162156E-04
556	6.55	-1.083573E-04	-2.142772E-04
557	6.56	-1.073777E-04	-2.123587E-04
558	6.57	-1.064083E-04	-2.104599E-04
559	6.58	-1.054491E-04	-2.085807E-04
560	6.59	-1.044999E-04	-2.067207E-04
561	6.60	-1.035605E-04	-2.048798E-04
562	6.61	-1.026309E-04	-2.030578E-04
563	6.62	-1.017110E-04	-2.012543E-04
564	6.63	-1.008007E-04	-1.994693E-04
565	6.64	-9.989974E-05	-1.977025E-04
566	6.65	-9.900813E-05	-1.959537E-04
567	6.66	-9.812573E-05	-1.942227E-04
568	6.67	-9.725244E-05	-1.925092E-04
569	6.68	-9.638815E-05	-1.908132E-04
570	6.69	-9.553275E-05	-1.891344E-04
571	6.70	-9.468614E-05	-1.874725E-04
572	6.71	-9.384823E-05	-1.858275E-04
573	6.72	-9.301890E-05	-1.841990E-04
574	6.73	-9.219806E-05	-1.825870E-04
575	6.74	-9.138561E-05	-1.809913E-04
576	6.75	-9.058145E-05	-1.794116E-04
577	6.76	-8.978549E-05	-1.778478E-04
578	6.77	-8.899764E-05	-1.762997E-04
579	6.78	-8.821779E-05	-1.747671E-04
580	6.79	-8.744586E-05	-1.732498E-04
581	6.80	-8.668176E-05	-1.717478E-04
582	6.81	-8.592540E-05	-1.702607E-04
583	6.82	-8.517668E-05	-1.687885E-04
584	6.83	-8.443552E-05	-1.673309E-04
585	6.84	-8.370184E-05	-1.658879E-04
586	6.85	-8.297555E-05	-1.644592E-04
587	6.86	-8.225656E-05	-1.630446E-04
588	6.87	-8.154479E-05	-1.616442E-04
589	6.88	-8.084017E-05	-1.602575E-04
590	6.89	-8.014260E-05	-1.588846E-04
591	6.90	-7.945201E-05	-1.575253E-04
592	6.91	-7.876832E-05	-1.561794E-04
593	6.92	-7.809145E-05	-1.548467E-04
594	6.93	-7.742132E-05	-1.535272E-04
595	6.94	-7.675786E-05	-1.522206E-04
596	6.95	-7.610100E-05	-1.509269E-04
597	6.96	-7.545065E-05	-1.496458E-04
598	6.97	-7.480675E-05	-1.483773E-04
599	6.98	-7.416922E-05	-1.471213E-04
600	6.99	-7.353799E-05	-1.458775E-04
601	7.00	-7.291299E-05	-1.446458E-04
602	7.01	-7.229416E-05	-1.434261E-04
603	7.02	-7.168142E-05	-1.422183E-04
604	7.03	-7.107470E-05	-1.410223E-04
605	7.04	-7.047393E-05	-1.398378E-04
606	7.05	-6.987906E-05	-1.386649E-04
607	7.06	-6.929002E-05	-1.375033E-04
608	7.07	-6.870673E-05	-1.363530E-04
609	7.08	-6.812914E-05	-1.352138E-04
610	7.09	-6.755719E-05	-1.340855E-04
611	7.10	-6.699080E-05	-1.329682E-04
612	7.11	-6.642993E-05	-1.318616E-04
613	7.12	-6.587451E-05	-1.307656E-04
614	7.13	-6.532447E-05	-1.296802E-04
615	7.14	-6.477976E-05	-1.286052E-04
616	7.15	-6.424033E-05	-1.275405E-04
617	7.16	-6.370611E-05	-1.264860E-04
618	7.17	-6.317704E-05	-1.254415E-04
619	7.18	-6.265308E-05	-1.244070E-04
620	7.19	-6.213415E-05	-1.233824E-04
621	7.20	-6.162022E-05	-1.223676E-04
622	7.21	-6.111122E-05	-1.213624E-04
623	7.22	-6.060710E-05	-1.203667E-04
624	7.23	-6.010781E-05	-1.193805E-04
625	7.24	-5.961330E-05	-1.184037E-04
626	7.25	-5.912350E-05	-1.174360E-04
627	7.26	-5.863838E-05	-1.164776E-04
628	7.27	-5.815788E-05	-1.155281E-04
629	7.28	-5.768195E-05	-1.145877E-04
630	7.29	-5.721055E-05	-1.136561E-04
631	7.30	-5.674362E-05	-1.127332E-04
632	7.31	-5.628111E-05	-1.118190E-04
633	7.32	-5.582298E-05	-1.109134E-04
634	7.33	-5.536918E-05	-1.100163E-04
635	7.34	-5.491966E-05	-1.091276E-04
636	7.35	-5.447439E-05	-1.082472E-04
637	7.36	-5.403330E-05	-1.073750E-04
638	7.37	-5.359636E-05	-1.065110E-04
639	7.38	-5.316353E-05	-1.056550E-04
640	7.39	-5.273476E-05	-1.048069E-04
641	7.40	-5.231000E-05	-1.039668E-04
642	7.41	-5.188922E-05	-1.031344E-04
643	7.42	-5.147236E-05	-1.023098E-04
644	7.43	-5.105940E-05	-1.014928E-04
645	7.44	-5.065029E-05	-1.006833E-04
646	7.45	-5.024498E-05	-9.988132E-05
647	7.46	-4.984344E-05	-9.908674E-05
648	7.47	-4.944563E-05	-9.829948E-05
649	7.48	-4.905151E-05	-9.751946E-05
650	7.49	-4.866104E-05	-9.674661E-05
651	7.50	-4.827418E-05	-9.598086E-05
652	7.51	-4.789089E-05	-9.522213E-05
653	7.52	-4.751114E-05	-9.447034E-05
654	7.53	-4.713489E-05	-9.372543E-05
655	7.54	-4.676210E-05	-9.298733E-05
656	7.55	-4.639273E-05	-9.225596E-05
657	7.56	-4.602676E-05	-9.153126E-05
658	7.57	-4.566414E-05	-9.081315E-05
659	7.58	-4.530483E-05	-9.010157E-05
660	7.59	-4.494882E-05	-8.939646E-05
661	7.60	-4.459605E-05	-8.869773E-05
662	7.61	-4.424651E-05	-8.800534E-05
663	7.62	-4.390014E-05	-8.731921E-05
664	7.63	-4.355693E-05	-8.663928E-05
665	7.64	-4.321684E-05	-8.596549E-05
666	7.65	-4.287983E-05	-8.529778E-05
667	7.66	-4.254588E-05	-8.463607E-05
668	7.67	-4.221495E-05	-8.398032E-05
669	7.68	-4.188701E-05	-8.333045E-05
670	7.69	-4.156203E-05	-8.268642E-05
671	7.70	-4.123999E-05	-8.204815E-05
672	7.71	-4.092084E-05	-8.141560E-05
673	7.72	-4.060457E-05	-8.078871E-05
674	7.73	-4.029113E-05	-8.016741E-05
675	7.74	-3.998051E-05	-7.955165E-05
676	7.75	-3.967267E-05	-7.894138E-05
677	7.76	-3.936759E-05	-7.833653E-05
678	7.77	-3.906524E-05	-7.773706E-05
679	7.78	-3.876558E-05	-7.714291E-05
680	7.79	-3.846860E-05	-7.655403E-05
681	7.80	-3.817426E-05	-7.597036E-05
682	7.81	-3.788254E-05	-7.539186E-05
683	7.82	-3.759342E-05	-7.481846E-05
684	7.83	-3.730685E-05	-7.425012E-05
685	7.84	-3.702283E-05	-7.368679E-05
686	7.85	-3.674132E-05	-7.312842E-05
687	7.86	-3.646230E-05	-7.257496E-05
688	7.87	-3.618575E-05	-7.202636E-05
689	7.88	-3.591163E-05	-7.148257E-05
690	7.89	-3.563993E-05	-7.094354E-05
691	7.90	-3.537062E-05	-7.040923E-05
692	7.91	-3.510367E-05	-6.987959E-05
693	7.92	-3.483907E-05	-6.935457E-05
694	7.93	-3.457679E-05	-6.883413E-05
695	7.94	-3.431680E-05	-6.831822E-05
696	7.95	-3.405909E-05	-6.780680E-05
697	7.96	-3.380362E-05	-6.729982E-05
698	7.97	-3.355039E-05	-6.679724E-05
699	7.98	-3.329936E-05	-6.629902E-05
700	7.99	-3.305052E-05	-6.580511E-05
701	8.00	-3.280384E-05	-6.531547E-05
702	8.01	-3.255930E-05	-6.483006E-05
703	8.02	-3.231688E-05	-6.434884E-05
704	8.03	-3.207656E-05	-6.387176E-05
705	8.04	-3.183831E-05	-6.339879E-05
706	8.05	-3.160213E-05	-6.292989E-05
707	8.06	-3.136798E-05	-6.246501E-05
708	8.07	-3.113586E-05	-6.200412E-05
709	8.08	-3.090573E-05	-6.154718E-05
710	8.09	-3.067758E-05	-6.109414E-05
711	8.10	-3.045138E-05	-6.064498E-05
712	8.11	-3.022713E-05	-6.019965E-05
713	8.12	-3.000480E-05	-5.975812E-05
714	8.13	-2.978437E-05	-5.932035E-05
715	8.14	-2.956583E-05	-5.888631E-05
716	8.15	-2.934915E-05	-5.845595E-05
717	8.16	-2.913431E-05	-5.802925E-05
718	8.17	-2.892131E-05	-5.760616E-05
719	8.18	-2.871012E-05	-5.718665E-05
720	8.19	-2.850072E-05	-5.677069E-05
721	8.20	-2.829310E-05	-5.635825E-05
722	8.21	-2.808724E-05	-5.594929E-05
723	8.22	-2.788312E-05	-5.554377E-05
724	8.23	-2.768073E-05	-5.514167E-05
725	8.24	-2.748005E-05	-5.474295E-05
726	8.25	-2.728106E-05	-5.434757E-05
727	8.26	-2.708374E-05	-5.395552E-05
728	8.27	-2.688809E-05	-5.356675E-05
729	8.28	-2.669408E-05	-5.318123E-05
730	8.29	-2.650170E-05	-5.279894E-05
731	8.30	-2.631093E-05	-5.241983E-05
732	8.31	-2.612176E-05	-5.204390E-05
733	8.32	-2.593417E-05	-5.167109E-05
734	8.33	-2.574815E-05	-5.130139E-05
735	8.34	-2.556369E-05	-5.093475E-05
736	8.35	-2.538076E-05	-5.057117E-05
737	8.36	-2.519935E-05	-5.021060E-05
738	8.37	-2.501946E-05	-4.985301E-05
739	8.38	-2.484105E-05	-4.949839E-05
740	8.39	-2.466413E-05	-4.914669E-05
741	8.40	-2.448867E-05	-4.879790E-05
742	8.41	-2.431467E-05	-4.845199E-05
743	8.42	-2.414211E-05	-4.810893E-05
744	8.43	-2.397097E-05	-4.776869E-05
745	8.44	-2.380124E-05	-4.743124E-05
746	8.45	-2.363291E-05	-4.709656E-05
747	8.46	-2.346597E-05	-4.676463E-05
748	8.47	-2.330039E-05	-4.643542E-05
749	8.48	-2.313618E-05	-4.610890E-05
750	8.49	-2.297332E-05	-4.578505E-05
751	8.50	-2.281179E-05	-4.546385E-05
752	8.51	-2.265158E-05	-4.514526E-05
753	8.52	-2.249268E-05	-4.482927E-05
754	8.53	-2.233508E-05	-4.451585E-05
755	8.54	-2.217876E-05	-4.420497E-05
756	8.55	-2.202372E-05	-4.389662E-05
757	8.56	-2.186993E-05	-4.359077E-05
758	8.57	-2.171740E-05	-4.328739E-05
759	8.58	-2.156611E-05	-4.298647E-05
760	8.59	-2.141604E-05	-4.268799E-05
761	8.60	-2.126719E-05	-4.239191E-05
762	8.61	-2.111954E-05	-4.209822E-05
763	8.62	-2.097309E-05	-4.180689E-05
764	8.63	-2.082782E-05	-4.151791E-05
765	8.64	-2.068371E-05	-4.123125E-05
766	8.65	-2.054077E-05	-4.094689E-05
767	8.66	-2.039898E-05	-4.066481E-05
768	8.67	-2.025833E-05	-4.038499E-05
769	8.68	-2.011881E-05	-4.010741E-05
770	8.69	-1.998041E-05	-3.983205E-05
771	8.70	-1.984311E-05	-3.955888E-05
772	8.71	-1.970691E-05	-3.928789E-05
773	8.72	-1.957180E-05	-3.901907E-05
774	8.73	-1.943777E-05	-3.875238E-05
775	8.74	-1.930481E-05	-3.848781E-05
776	8.75	-1.917291E-05	-3.822534E-05
777	8.76	-1.904205E-05	-3.796495E-05
778	8.77	-1.891224E-05	-3.770662E-05
779	8.78	-1.878345E-05	-3.745034E-05
780	8.79	-1.865569E-05	-3.719609E-05
781	8.80	-1.852894E-05	-3.694384E-05
782	8.81	-1.840319E-05	-3.669358E-05
783	8.82	-1.827843E-05	-3.644529E-05
784	8.83	-1.815466E-05	-3.619896E-05
785	8.84	-1.803186E-05	-3.595456E-05
786	8.85	-1.791004E-05	-3.571208E-05
787	8.86	-1.778917E-05	-3.547150E-05
788	8.87	-1.766924E-05	-3.523281E-05
789	8.88	-1.755027E-05	-3.499599E-05
790	8.89	-1.743222E-05	-3.476101E-05
791	8.90	-1.731510E-05	-3.452788E-05
792	8.91	-1.719889E-05	-3.429656E-05
793	8.92	-1.708359E-05	-3.406704E-05
794	8.93	-1.696919E-05	-3.383931E-05
795	8.94	-1.685569E-05	-3.361335E-05
796	8.95	-1.674307E-05	-3.338915E-05
797	8.96	-1.663132E-05	-3.316668E-05
798	8.97	-1.652044E-05	-3.294594E-05
799	8.98	-1.641042E-05	-3.272691E-05
800	8.99	-1.630126E-05	-3.250957E-05
801	9.00	-1.619294E-05	-3.229391E-05
802	9.01	-1.608546E-05	-3.207992E-05
803	9.02	-1.597881E-05	-3.186757E-05
804	9.03	-1.587299E-05	-3.165686E-05
805	9.04	-1.576798E-05	-3.144777E-05
806	9.05	-1.566377E-05	-3.124029E-05
807	9.06	-1.556037E-05	-3.103440E-05
808	9.07	-1.545777E-05	-3.083009E-05
809	9.08	-1.535595E-05	-3.062734E-05
810	9.09	-1.525492E-05	-3.042615E-05
811	9.10	-1.515465E-05	-3.022649E-05
812	9.11	-1.505516E-05	-3.002836E-05
813	9.12	-1.495643E-05	-2.983173E-05
814	9.13	-1.485845E-05	-2.963661E-05
815	9.14	-1.476121E-05	-2.944297E-05
816	9.15	-1.466472E-05	-2.925080E-05
817	9.16	-1.456897E-05	-2.906009E-05
818	9.17	-1.447394E-05	-2.887083E-05
819	9.18	-1.437963E-05	-2.868300E-05
820	9.19	-1.428604E-05	-2.849660E-05
821	9.20	-1.419316E-05	-2.831160E-05
822	9.21	-1.410098E-05	-2.812800E-05
823	9.22	-1.400949E-05	-2.794579E-05
824	9.23	-1.391870E-05	-2.776495E-05
825	9.24	-1.382860E-05	-2.758547E-05
826	9.25	-1.373917E-05	-2.740734E-05
827	9.26	-1.365042E-05	-2.723055E-05
828	9.27	-1.356233E-05	-2.705509E-05
829	9.28	-1.347491E-05	-2.688094E-05
830	9.29	-1.338814E-05	-2.670810E-05
831	9.30	-1.330203E-05	-2.653655E-05
832	9.31	-1.321656E-05	-2.636628E-05
833	9.32	-1.313173E-05	-2.619729E-05
834	9.33	-1.304753E-05	-2.602955E-05
835	9.34	-1.296396E-05	-2.586306E-05
836	9.35	-1.288102E-05	-2.569782E-05
837	9.36	-1.279869E-05	-2.553380E-05
838	9.37	-1.271697E-05	-2.537100E-05
839	9.38	-1.263587E-05	-2.520941E-05
840	9.39	-1.255536E-05	-2.504902E-05
841	9.40	-1.247546E-05	-2.488981E-05
842	9.41	-1.239614E-05	-2.473178E-05
843	9.42	-1.231741E-05	-2.457492E-05
844	9.43	-1.223927E-05	-2.441922E-05
845	9.44	-1.216170E-05	-2.426466E-05
846	9.45	-1.208471E-05	-2.411125E-05
847	9.46	-1.200828E-05	-2.395896E-05
848	9.47	-1.193242E-05	-2.380779E-05
849	9.48	-1.185711E-05	-2.365774E-05
850	9.49	-1.178236E-05	-2.350878E-05
851	9.50	-1.170815E-05	-2.336092E-05
852	9.51	-1.163449E-05	-2.321413E-05
853	9.52	-1.156137E-05	-2.306842E-05
854	9.53	-1.148879E-05	-2.292378E-05
855	9.54	-1.141674E-05	-2.278019E-05
856	9.55	-1.134521E-05	-2.263765E-05
857	9.56	-1.127420E-05	-2.249615E-05
858	9.57	-1.120372E-05	-2.235567E-05
859	9.58	-1.113374E-05	-2.221622E-05
860	9.59	-1.106428E-05	-2.207778E-05
861	9.60	-1.099532E-05	-2.194034E-05
862	9.61	-1.092686E-05	-2.180390E-05
863	9.62	-1.085889E-05	-2.166845E-05
864	9.63	-1.079142E-05	-2.153398E-05
865	9.64	-1.072444E-05	-2.140048E-05
866	9.65	-1.065794E-05	-2.126794E-05
867	9.66	-1.059193E-05	-2.113636E-05
868	9.67	-1.052638E-05	-2.100572E-05
869	9.68	-1.046131E-05	-2.087603E-05
870	9.69	-1.039671E-05	-2.074726E-05
871	9.70	-1.033258E-05	-2.061942E-05
872	9.71	-1.026890E-05	-2.049250E-05
873	9.72	-1.020568E-05	-2.036649E-05
874	9.73	-1.014292E-05	-2.024138E-05
875	9.74	-1.008061E-05	-2.011717E-05
876	9.75	-1.001874E-05	-1.999384E-05
877	9.76	-9.957310E-06	-1.987139E-05
878	9.77	-9.896322E-06	-1.974982E-05
879	9.78	-9.835769E-06	-1.962911E-05
880	9.79	-9.775647E-06	-1.950926E-05
881	9.80	-9.715954E-06	-1.939026E-05
882	9.81	-9.656686E-06	-1.927211E-05
883	9.82	-9.597838E-06	-1.915480E-05
884	9.83	-9.539409E-06	-1.903832E-05
885	9.84	-9.481394E-06	-1.892266E-05
886	9.85	-9.423789E-06	-1.880782E-05
887	9.86	-9.366593E-06	-1.869379E-05
888	9.87	-9.309801E-06	-1.858057E-05
889	9.88	-9.253410E-06	-1.846814E-05
890	9.89	-9.197417E-06	-1.835651E-05
891	9.90	-9.141819E-06	-1.824566E-05
892	9.91	-9.086612E-06	-1.813559E-05
893	9.92	-9.031793E-06	-1.802630E-05
894	9.93	-8.977360E-06	-1.791777E-05
895	9.94	-8.923309E-06	-1.781000E-05
896	9.95	-8.869637E-06	-1.770299E-05
897	9.96	-8.816342E-06	-1.759673E-05
898	9.97	-8.763419E-06	-1.749121E-05
899	9.98	-8.710866E-06	-1.738642E-05
900	9.99	-8.658681E-06	-1.728237E-05
901	10.00	-8.606860E-06	-1.717904E-05
902	10.01	-8.555400E-06	-1.707643E-05
903	10.02	-8.504298E-06	-1.697454E-05
904	10.03	-8.453553E-06	-1.687335E-05
905	10.04	-8.403159E-06	-1.677286E-05
906	10.05	-8.353116E-06	-1.667308E-05
907	10.06	-8.303421E-06	-1.657398E-05
908	10.07	-8.254069E-06	-1.647557E-05
909	10.08	-8.205059E-06	-1.637784E-05
910	10.09	-8.156389E-06	-1.628078E-05
911	10.10	-8.108054E-06	-1.618440E-05
912	10.11	-8.060054E-06	-1.608868E-05
913	10.12	-8.012384E-06	-1.599362E-05
914	10.13	-7.965043E-06	-1.589921E-05
915	10.14	-7.918028E-06	-1.580545E-05
916	10.15	-7.871336E-06	-1.571233E-05
917	10.16	-7.824965E-06	-1.561986E-05
918	10.17	-7.778912E-06	-1.552802E-05
919	10.18	-7.733175E-06	-1.543680E-05
920	10.19	-7.687752E-06	-1.534621E-05
921	10.20	-7.642639E-06	-1.525624E-05
922	10.21	-7.597834E-06	-1.516689E-05
923	10.22	-7.553336E-06	-1.507814E-05
924	10.23	-7.509141E-06	-1.499000E-05
925	10.24	-7.465248E-06	-1.490246E-05
926	10.25	-7.421653E-06	-1.481551E-05
927	10.26	-7.378355E-06	-1.472916E-05
928	10.27	-7.335352E-06	-1.464339E-05
929	10.28	-7.292640E-06	-1.455820E-05
930	10.29	-7.250218E-06	-1.447359E-05
931	10.30	-7.208084E-06	-1.438955E-05
932	10.31	-7.166235E-06	-1.430608E-05
933	10.32	-7.124669E-06	-1.422318E-05
934	10.33	-7.083384E-06	-1.414083E-05
935	10.34	-7.042378E-06	-1.405904E-05
936	10.35	-7.001648E-06	-1.397780E-05
937	10.36	-6.961193E-06	-1.389711E-05
938	10.37	-6.921010E-06	-1.381696E-05
939	10.38	-6.881098E-06	-1.373735E-05
940	10.39	-6.841453E-06	-1.365827E-05
941	10.40	-6.802075E-06	-1.357972E-05
942	10.41	-6.762961E-06	-1.350170E-05
943	10.42	-6.724109E-06	-1.342420E-05
944	10.43	-6.685517E-06	-1.334722E-05
945	10.44	-6.647183E-06	-1.327075E-05
946	10.45	-6.609105E-06	-1.319479E-05
947	10.46	-6.571281E-06	-1.311934E-05
948	10.47	-6.533710E-06	-1.304440E-05
949	10.48	-6.496389E-06	-1.296995E-05
950	10.49	-6.459316E-06	-1.289599E-05
951	10.50	-6.422490E-06	-1.282253E-05
952	10.51	-6.385908E-06	-1.274955E-05
953	10.52	-6.349569E-06	-1.267706E-05
954	10.53	-6.313471E-06	-1.260505E-05
955	10.54	-6.277613E-06	-1.253352E-05
956	10.55	-6.241991E-06	-1.246245E-05
957	10.56	-6.206605E-06	-1.239186E-05
958	10.57	-6.171453E-06	-1.232173E-05
959	10.58	-6.136533E-06	-1.225207E-05
960	10.59	-6.101843E-06	-1.218286E-05
961	10.60	-6.067382E-06	-1.211411E-05
962	10.61	-6.033147E-06	-1.204581E-05
963	10.62	-5.999137E-06	-1.197796E-05
964	10.63	-5.965351E-06	-1.191056E-05
965	10.64	-5.931787E-06	-1.184359E-05
966	10.65	-5.898443E-06	-1.177707E-05
967	10.66	-5.865317E-06	-1.171098E-05
968	10.67	-5.832407E-06	-1.164532E-05
969	10.68	-5.799713E-06	-1.158009E-05
970	10.69	-5.767233E-06	-1.151529E-05
971	10.70	-5.734965E-06	-1.145091E-05
972	10.71	-5.702906E-06	-1.138695E-05
973	10.72	-5.671057E-06	-1.132340E-05
974	10.73	-5.639415E-06	-1.126027E-05
975	10.74	-5.607979E-06	-1.119755E-05
976	10.75	-5.576747E-06	-1.113523E-05
977	10.76	-5.545717E-06	-1.107332E-05
978	10.77	-5.514889E-06	-1.101181E-05
979	10.78	-5.484261E-06	-1.095070E-05
980	10.79	-5.453831E-06	-1.088998E-05
981	10.80	-5.423597E-06	-1.082965E-05
982	10.81	-5.393559E-06	-1.076972E-05
983	10.82	-5.363714E-06	-1.071017E-05
984	10.83	-5.334063E-06	-1.065100E-05
985	10.84	-5.304602E-06	-1.059222E-05
986	10.85	-5.275330E-06	-1.053381E-05
987	10.86	-5.246247E-06	-1.047578E-05
988	10.87	-5.217351E-06	-1.041812E-05
989	10.88	-5.188640E-06	-1.036083E-05
990	10.89	-5.160114E-06	-1.030391E-05
991	10.90	-5.131770E-06	-1.024735E-05
992	10.91	-5.103608E-06	-1.019115E-05
993	10.92	-5.075625E-06	-1.013532E-05
994	10.93	-5.047822E-06	-1.007984E-05
995	10.94	-5.020196E-06	-1.002471E-05
996	10.95	-4.992746E-06	-9.969933E-06
997	10.96	-4.965471E-06	-9.915505E-06
998	10.97	-4.938370E-06	-9.861424E-06
999	10.98	-4.911441E-06	-9.807687E-06
1000	10.99	-4.884683E-06	-9.754290E-06
1001	11.00	-4.858095E-06	-9.701233E-06
1002	11.01	-4.831676E-06	-9.648511E-06
1003	11.02	-4.805424E-06	-9.596123E-06
1004	11.03	-4.779338E-06	-9.544067E-06
1005	11.04	-4.753418E-06	-9.492340E-06
1006	11.05	-4.727661E-06	-9.440939E-06
1007	11.06	-4.702067E-06	-9.389863E-06
1008	11.07	-4.676634E-06	-9.339108E-06
1009	11.08	-4.651362E-06	-9.288673E-06
1010	11.09	-4.626249E-06	-9.238556E-06
1011	11.10	-4.601294E-06	-9.188753E-06
1012	11.11	-4.576495E-06	-9.139264E-06
1013	11.12	-4.551853E-06	-9.090085E-06
1014	11.13	-4.527365E-06	-9.041214E-06
1015	11.14	-4.503031E-06	-8.992649E-06
1016	11.15	-4.478849E-06	-8.944388E-06
1017	11.16	-4.454818E-06	-8.896429E-06
1018	11.17	-4.430938E-06	-8.848770E-06
1019	11.18	-4.407207E-06	-8.801408E-06
1020	11.19	-4.383624E-06	-8.754341E-06
1021	11.20	-4.360188E-06	-8.707568E-06
1022	11.21	-4.336898E-06	-8.661086E-06
1023	11.22	-4.313753E-06	-8.614893E-06
1024	11.23	-4.290752E-06	-8.568987E-06
1025	11.24	-4.267894E-06	-8.523366E-06
1026	11.25	-4.245177E-06	-8.478028E-06
1027	11.26	-4.222602E-06	-8.432971E-06
1028	11.27	-4.200167E-06	-8.388193E-06
1029	11.28	-4.177870E-06	-8.343692E-06
1030	11.29	-4.155712E-06	-8.299466E-06
1031	11.30	-4.133690E-06	-8.255513E-06
1032	11.31	-4.111805E-06	-8.211832E-06
1033	11.32	-4.090054E-06	-8.168419E-06
1034	11.33	-4.068438E-06	-8.125275E-06
1035	11.34	-4.046955E-06	-8.082395E-06
1036	11.35	-4.025604E-06	-8.039780E-06
1037	11.36	-4.004384E-06	-7.997426E-06
1038	11.37	-3.983295E-06	-7.955332E-06
1039	11.38	-3.962335E-06	-7.913496E-06
1040	11.39	-3.941503E-06	-7.871917E-06
1041	11.40	-3.920799E-06	-7.830592E-06
1042	11.41	-3.900222E-06	-7.789520E-06
1043	11.42	-3.879771E-06	-7.748699E-06
1044	11.43	-3.859445E-06	-7.708127E-06
1045	11.44	-3.839243E-06	-7.667803E-06
1046	11.45	-3.819164E-06	-7.627724E-06
1047	11.46	-3.799208E-06	-7.587890E-06
1048	11.47	-3.779373E-06	-7.548298E-06
1049	11.48	-3.759659E-06	-7.508947E-06
1050	11.49	-3.740064E-06	-7.469835E-06
1051	11.50	-3.720589E-06	-7.430960E-06
1052	11.51	-3.701232E-06	-7.392321E-06
1053	11.52	-3.681992E-06	-7.353916E-06
1054	11.53	-3.662869E-06	-7.315743E-06
1055	11.54	-3.643861E-06	-7.277802E-06
1056	11.55	-3.624969E-06	-7.240089E-06
1057	11.56	-3.606191E-06	-7.202605E-06
1058	11.57	-3.587526E-06	-7.165346E-06
1059	11.58	-3.568973E-06	-7.128312E-06
1060	11.59	-3.550533E-06	-7.091502E-06
1061	11.60	-3.532203E-06	-7.054912E-06
1062	11.61	-3.513984E-06	-7.018543E-06
1063	11.62	-3.495874E-06	-6.982392E-06
1064	11.63	-3.477873E-06	-6.946458E-06
1065	11.64	-3.459980E-06	-6.910740E-06
1066	11.65	-3.442195E-06	-6.875235E-06
1067	11.66	-3.424516E-06	-6.839944E-06
1068	11.67	-3.406943E-06	-6.804863E-06
1069	11.68	-3.389475E-06	-6.769992E-06
1070	11.69	-3.372111E-06	-6.735329E-06
1071	11.70	-3.354851E-06	-6.700873E-06
1072	11.71	-3.337694E-06	-6.666622E-06
1073	11.72	-3.320639E-06	-6.632576E-06
1074	11.73	-3.303686E-06	-6.598732E-06
1075	11.74	-3.286833E-06	-6.565089E-06
1076	11.75	-3.270081E-06	-6.531646E-06
1077	11.76	-3.253429E-06	-6.498402E-06
1078	11.77	-3.236875E-06	-6.465355E-06
1079	11.78	-3.220419E-06	-6.432503E-06
1080	11.79	-3.204061E-06	-6.399846E-06
1081	11.80	-3.187800E-06	-6.367383E-06
1082	11.81	-3.171635E-06	-6.335111E-06
1083	11.82	-3.155565E-06	-6.303030E-06
1084	11.83	-3.139590E-06	-6.271138E-06
1085	11.84	-3.123710E-06	-6.239434E-06
1086	11.85	-3.107923E-06	-6.207917E-06
1087	11.86	-3.092230E-06	-6.176586E-06
1088	11.87	-3.076628E-06	-6.145439E-06
1089	11.88	-3.061118E-06	-6.114475E-06
1090	11.89	-3.045700E-06	-6.083692E-06
1091	11.90	-3.030372E-06	-6.053090E-06
1092	11.91	-3.015134E-06	-6.022668E-06
1093	11.92	-2.999985E-06	-5.992424E-06
1094	11.93	-2.984925E-06	-5.962357E-06
1095	11.94	-2.969953E-06	-5.932465E-06
1096	11.95	-2.955069E-06	-5.902749E-06
1097	11.96	-2.940271E-06	-5.873205E-06
1098	11.97	-2.925560E-06	-5.843834E-06
1099	11.98	-2.910935E-06	-5.814635E-06
1100	11.99	-2.896394E-06	-5.785605E-06
1101	12.00	-2.881939E-06	-5.756744E-06
1102	12.01	-2.867568E-06	-5.728051E-06
1103	12.02	-2.853280E-06	-5.699524E-06
1104	12.03	-2.839075E-06	-5.671164E-06
1105	12.04	-2.824953E-06	-5.642967E-06
1106	12.05	-2.810912E-06	-5.614934E-06
1107	12.06	-2.796953E-06	-5.587063E-06
1108	12.07	-2.783074E-06	-5.559354E-06
1109	12.08	-2.769276E-06	-5.531805E-06
1110	12.09	-2.755558E-06	-5.504414E-06
1111	12.10	-2.741919E-06	-5.477182E-06
1112	12.11	-2.728358E-06	-5.450107E-06
1113	12.12	-2.714876E-06	-5.423188E-06
1114	12.13	-2.701471E-06	-5.396423E-06
1115	12.14	-2.688144E-06	-5.369813E-06
1116	12.15	-2.674893E-06	-5.343356E-06
1117	12.16	-2.661718E-06	-5.317050E-06
1118	12.17	-2.648619E-06	-5.290896E-06
1119	12.18	-2.635595E-06	-5.264891E-06
1120	12.19	-2.622646E-06	-5.239035E-06
1121	12.20	-2.609770E-06	-5.213328E-06
1122	12.21	-2.596969E-06	-5.187767E-06
1123	12.22	-2.584241E-06	-5.162352E-06
1124	12.23	-2.571585E-06	-5.137083E-06
1125	12.24	-2.559002E-06	-5.111957E-06
1126	12.25	-2.546490E-06	-5.086975E-06
1127	12.26	-2.534050E-06	-5.062135E-06
1128	12.27	-2.521680E-06	-5.037437E-06
1129	12.28	-2.509381E-06	-5.012879E-06
1130	12.29	-2.497152E-06	-4.988460E-06
1131	12.30	-2.484992E-06	-4.964180E-06
1132	12.31	-2.472902E-06	-4.940038E-06
1133	12.32	-2.460880E-06	-4.916033E-06
1134	12.33	-2.448926E-06	-4.892164E-06
1135	12.34	-2.437040E-06	-4.868429E-06
1136	12.35	-2.425221E-06	-4.844829E-06
1137	12.36	-2.413468E-06	-4.821362E-06
1138	12.37	-2.401782E-06	-4.798028E-06
1139	12.38	-2.390163E-06	-4.774825E-06
1140	12.39	-2.378608E-06	-4.751753E-06
1141	12.40	-2.367119E-06	-4.728811E-06
1142	12.41	-2.355694E-06	-4.705999E-06
1143	12.42	-2.344334E-06	-4.683314E-06
1144	12.43	-2.333038E-06	-4.660757E-06
1145	12.44	-2.321805E-06	-4.638326E-06
1146	12.45	-2.310635E-06	-4.616021E-06
1147	12.46	-2.299528E-06	-4.593842E-06
1148	12.47	-2.288483E-06	-4.571786E-06
1149	12.48	-2.277499E-06	-4.549854E-06
1150	12.49	-2.266578E-06	-4.528044E-06
1151	12.50	-2.255717E-06	-4.506357E-06
1152	12.51	-2.244917E-06	-4.484790E-06
1153	12.52	-2.234177E-06	-4.463344E-06
1154	12.53	-2.223497E-06	-4.442017E-06
1155	12.54	-2.212877E-06	-4.420809E-06
1156	12.55	-2.202316E-06	-4.399719E-06
1157	12.56	-2.191813E-06	-4.378747E-06
1158	12.57	-2.181369E-06	-4.357890E-06
1159	12.58	-2.170983E-06	-4.337150E-06
1160	12.59	-2.160654E-06	-4.316525E-06
1161	12.60	-2.150383E-06	-4.296013E-06
1162	12.61	-2.140169E-06	-4.275616E-06
1163	12.62	-2.130011E-06	-4.255331E-06
1164	12.63	-2.119910E-06	-4.235159E-06
1165	12.64	-2.109864E-06	-4.215098E-06
1166	12.65	-2.099874E-06	-4.195148E-06
1167	12.66	-2.089939E-06	-4.175308E-06
1168	12.67	-2.080059E-06	-4.155577E-06
1169	12.68	-2.070233E-06	-4.135955E-06
1170	12.69	-2.060461E-06	-4.116441E-06
1171	12.70	-2.050743E-06	-4.097034E-06
1172	12.71	-2.041079E-06	-4.077734E-06
1173	12.72	-2.031467E-06	-4.058539E-06
1174	12.73	-2.021909E-06	-4.039451E-06
1175	12.74	-2.012402E-06	-4.020466E-06
1176	12.75	-2.002948E-06	-4.001586E-06
1177	12.76	-1.993546E-06	-3.982809E-06
1178	12.77	-1.984195E-06	-3.964135E-06
1179	12.78	-1.974895E-06	-3.945563E-06
1180	12.79	-1.965646E-06	-3.927092E-06
1181	12.80	-1.956448E-06	-3.908722E-06
1182	12.81	-1.947300E-06	-3.890452E-06
1183	12.82	-1.938201E-06	-3.872282E-06
1184	12.83	-1.929152E-06	-3.854210E-06
1185	12.84	-1.920153E-06	-3.836237E-06
1186	12.85	-1.911202E-06	-3.818362E-06
1187	12.86	-1.902300E-06	-3.800584E-06
1188	12.87	-1.893446E-06	-3.782902E-06
1189	12.88	-1.884640E-06	-3.765316E-06
1190	12.89	-1.875883E-06	-3.747825E-06
1191	12.90	-1.867172E-06	-3.730429E-06
1192	12.91	-1.858509E-06	-3.713127E-06
1193	12.92	-1.849892E-06	-3.695919E-06
1194	12.93	-1.841322E-06	-3.678804E-06
1195	12.94	-1.832799E-06	-3.661781E-06
1196	12.95	-1.824321E-06	-3.644849E-06
1197	12.96	-1.815889E-06	-3.628010E-06
1198	12.97	-1.807503E-06	-3.611260E-06
1199	12.98	-1.799161E-06	-3.594601E-06
1200	12.99	-1.790865E-06	-3.578032E-06
