# DATE: 2024-07-07  UNITS: metal  CONTRIBUTOR: By STUDENT			
# FHEP: Temp 303 [K], mr 0.5 [g/mol], Sigma 2.57 [A], Epsilon 0.0019078775842068 [eV]			
			
ENTRY			
N 1200 R 1.0 12.99			
			
1	1.00	1.737533E+03	1.844450E+04
2	1.01	1.522463E+03	1.596359E+04
3	1.02	1.335863E+03	1.383768E+04
4	1.03	1.173724E+03	1.201302E+04
5	1.04	1.032636E+03	1.044445E+04
6	1.05	9.096926E+02	9.093920E+03
7	1.06	8.024107E+02	7.929344E+03
8	1.07	7.086677E+02	6.923610E+03
9	1.08	6.266454E+02	6.053775E+03
10	1.09	5.547843E+02	5.300386E+03
11	1.10	4.917444E+02	4.646926E+03
12	1.11	4.363731E+02	4.079350E+03
13	1.12	3.876773E+02	3.585693E+03
14	1.13	3.448000E+02	3.155750E+03
15	1.14	3.070008E+02	2.780801E+03
16	1.15	2.736394E+02	2.453386E+03
17	1.16	2.441606E+02	2.167112E+03
18	1.17	2.180833E+02	1.916496E+03
19	1.18	1.949892E+02	1.696823E+03
20	1.19	1.745148E+02	1.504039E+03
21	1.20	1.563434E+02	1.334650E+03
22	1.21	1.401991E+02	1.185641E+03
23	1.22	1.258407E+02	1.054409E+03
24	1.23	1.130578E+02	9.387006E+02
25	1.24	1.016660E+02	8.365653E+02
26	1.25	9.150408E+01	7.463111E+02
27	1.26	8.243040E+01	6.664694E+02
28	1.27	7.432075E+01	5.957633E+02
29	1.28	6.706591E+01	5.330814E+02
30	1.29	6.056983E+01	4.774555E+02
31	1.30	5.474788E+01	4.280409E+02
32	1.31	4.952547E+01	3.840998E+02
33	1.32	4.483675E+01	3.449873E+02
34	1.33	4.062356E+01	3.101388E+02
35	1.34	3.683448E+01	2.790595E+02
36	1.35	3.342396E+01	2.513157E+02
37	1.36	3.035167E+01	2.265261E+02
38	1.37	2.758184E+01	2.043559E+02
39	1.38	2.508269E+01	1.845103E+02
40	1.39	2.282603E+01	1.667297E+02
41	1.40	2.078675E+01	1.507854E+02
42	1.41	1.894252E+01	1.364751E+02
43	1.42	1.727343E+01	1.236206E+02
44	1.43	1.576176E+01	1.120639E+02
45	1.44	1.439165E+01	1.016655E+02
46	1.45	1.314898E+01	9.230157E+01
47	1.46	1.202109E+01	8.386241E+01
48	1.47	1.099669E+01	7.625066E+01
49	1.48	1.006564E+01	6.937980E+01
50	1.49	9.218870E+00	6.317293E+01
51	1.50	8.448246E+00	5.756161E+01
52	1.51	7.746464E+00	5.248488E+01
53	1.52	7.106967E+00	4.788842E+01
54	1.53	6.523860E+00	4.372373E+01
55	1.54	5.991841E+00	3.994755E+01
56	1.55	5.506139E+00	3.652120E+01
57	1.56	5.062454E+00	3.341009E+01
58	1.57	4.656912E+00	3.058327E+01
59	1.58	4.286018E+00	2.801300E+01
60	1.59	3.946617E+00	2.567442E+01
61	1.60	3.635859E+00	2.354525E+01
62	1.61	3.351169E+00	2.160546E+01
63	1.62	3.090216E+00	1.983706E+01
64	1.63	2.850892E+00	1.822389E+01
65	1.64	2.631289E+00	1.675139E+01
66	1.65	2.429675E+00	1.540647E+01
67	1.66	2.244480E+00	1.417732E+01
68	1.67	2.074283E+00	1.305329E+01
69	1.68	1.917789E+00	1.202479E+01
70	1.69	1.773824E+00	1.108314E+01
71	1.70	1.641322E+00	1.022051E+01
72	1.71	1.519310E+00	9.429811E+00
73	1.72	1.406907E+00	8.704645E+00
74	1.73	1.303306E+00	8.039207E+00
75	1.74	1.207776E+00	7.428242E+00
76	1.75	1.119648E+00	6.866988E+00
77	1.76	1.038312E+00	6.351124E+00
78	1.77	9.632132E-01	5.876729E+00
79	1.78	8.938424E-01	5.440243E+00
80	1.79	8.297363E-01	5.038430E+00
81	1.80	7.704707E-01	4.668350E+00
82	1.81	7.156577E-01	4.327325E+00
83	1.82	6.649426E-01	4.012919E+00
84	1.83	6.180005E-01	3.722915E+00
85	1.84	5.745338E-01	3.455289E+00
86	1.85	5.342699E-01	3.208198E+00
87	1.86	4.969588E-01	2.979961E+00
88	1.87	4.623713E-01	2.769041E+00
89	1.88	4.302969E-01	2.574036E+00
90	1.89	4.005424E-01	2.393664E+00
91	1.90	3.729305E-01	2.226755E+00
92	1.91	3.472980E-01	2.072234E+00
93	1.92	3.234951E-01	1.929123E+00
94	1.93	3.013839E-01	1.796522E+00
95	1.94	2.808374E-01	1.673607E+00
96	1.95	2.617389E-01	1.559626E+00
97	1.96	2.439809E-01	1.453884E+00
98	1.97	2.274641E-01	1.355748E+00
99	1.98	2.120972E-01	1.264634E+00
100	1.99	1.977961E-01	1.180007E+00
101	2.00	1.844829E-01	1.101376E+00
102	2.01	1.720859E-01	1.028287E+00
103	2.02	1.605390E-01	9.603243E-01
104	2.03	1.497809E-01	8.971060E-01
105	2.04	1.397551E-01	8.382793E-01
106	2.05	1.304095E-01	7.835196E-01
107	2.06	1.216956E-01	7.325278E-01
108	2.07	1.135689E-01	6.850284E-01
109	2.08	1.059880E-01	6.407670E-01
110	2.09	9.891449E-02	5.995092E-01
111	2.10	9.231308E-02	5.610384E-01
112	2.11	8.615087E-02	5.251547E-01
113	2.12	8.039745E-02	4.916735E-01
114	2.13	7.502460E-02	4.604241E-01
115	2.14	7.000616E-02	4.312487E-01
116	2.15	6.531786E-02	4.040014E-01
117	2.16	6.093719E-02	3.785472E-01
118	2.17	5.684325E-02	3.547611E-01
119	2.18	5.301661E-02	3.325273E-01
120	2.19	4.943925E-02	3.117387E-01
121	2.20	4.609442E-02	2.922959E-01
122	2.21	4.296654E-02	2.741069E-01
123	2.22	4.004113E-02	2.570861E-01
124	2.23	3.730473E-02	2.411544E-01
125	2.24	3.474482E-02	2.262382E-01
126	2.25	3.234973E-02	2.122692E-01
127	2.26	3.010862E-02	1.991842E-01
128	2.27	2.801137E-02	1.869240E-01
129	2.28	2.604858E-02	1.754341E-01
130	2.29	2.421147E-02	1.646634E-01
131	2.30	2.249189E-02	1.545647E-01
132	2.31	2.088220E-02	1.450940E-01
133	2.32	1.937531E-02	1.362102E-01
134	2.33	1.796459E-02	1.278751E-01
135	2.34	1.664386E-02	1.200534E-01
136	2.35	1.540736E-02	1.127118E-01
137	2.36	1.424969E-02	1.058196E-01
138	2.37	1.316585E-02	9.934796E-02
139	2.38	1.215112E-02	9.327011E-02
140	2.39	1.120113E-02	8.756104E-02
141	2.40	1.031178E-02	8.219745E-02
142	2.41	9.479245E-03	7.715757E-02
143	2.42	8.699942E-03	7.242106E-02
144	2.43	7.970527E-03	6.796897E-02
145	2.44	7.287870E-03	6.378357E-02
146	2.45	6.649046E-03	5.984829E-02
147	2.46	6.051315E-03	5.614767E-02
148	2.47	5.492115E-03	5.266723E-02
149	2.48	4.969048E-03	4.939345E-02
150	2.49	4.479868E-03	4.631367E-02
151	2.50	4.022473E-03	4.341604E-02
152	2.51	3.594893E-03	4.068950E-02
153	2.52	3.195284E-03	3.812366E-02
154	2.53	2.821917E-03	3.570882E-02
155	2.54	2.473174E-03	3.343587E-02
156	2.55	2.147535E-03	3.129629E-02
157	2.56	1.843579E-03	2.928210E-02
158	2.57	1.559970E-03	2.738581E-02
159	2.58	1.295459E-03	2.560041E-02
160	2.59	1.048871E-03	2.391930E-02
161	2.60	8.191052E-04	2.233633E-02
162	2.61	6.051297E-04	2.084569E-02
163	2.62	4.059752E-04	1.944196E-02
164	2.63	2.207320E-04	1.812003E-02
165	2.64	4.854654E-05	1.687511E-02
166	2.65	-1.113826E-04	1.570271E-02
167	2.66	-2.598078E-04	1.459860E-02
168	2.67	-3.974358E-04	1.355882E-02
169	2.68	-5.249299E-04	1.257963E-02
170	2.69	-6.429135E-04	1.165753E-02
171	2.70	-7.519721E-04	1.078923E-02
172	2.71	-8.526557E-04	9.971627E-03
173	2.72	-9.454811E-04	9.201810E-03
174	2.73	-1.030934E-03	8.477039E-03
175	2.74	-1.109471E-03	7.794737E-03
176	2.75	-1.181520E-03	7.152479E-03
177	2.76	-1.247486E-03	6.547980E-03
178	2.77	-1.307746E-03	5.979094E-03
179	2.78	-1.362658E-03	5.443797E-03
180	2.79	-1.412557E-03	4.940183E-03
181	2.80	-1.457756E-03	4.466458E-03
182	2.81	-1.498554E-03	4.020933E-03
183	2.82	-1.535227E-03	3.602015E-03
184	2.83	-1.568038E-03	3.208204E-03
185	2.84	-1.597234E-03	2.838085E-03
186	2.85	-1.623046E-03	2.490326E-03
187	2.86	-1.645693E-03	2.163669E-03
188	2.87	-1.665378E-03	1.856930E-03
189	2.88	-1.682294E-03	1.568992E-03
190	2.89	-1.696625E-03	1.298800E-03
191	2.90	-1.708538E-03	1.045361E-03
192	2.91	-1.718196E-03	8.077357E-04
193	2.92	-1.725749E-03	5.850396E-04
194	2.93	-1.731339E-03	3.764373E-04
195	2.94	-1.735099E-03	1.811406E-04
196	2.95	-1.737156E-03	-1.594959E-06
197	2.96	-1.737627E-03	-1.724718E-04
198	2.97	-1.736623E-03	-3.321534E-04
199	2.98	-1.734248E-03	-4.812662E-04
200	2.99	-1.730602E-03	-6.204017E-04
201	3.00	-1.725776E-03	-7.501189E-04
202	3.01	-1.719857E-03	-8.709455E-04
203	3.02	-1.712927E-03	-9.833803E-04
204	3.03	-1.705062E-03	-1.087895E-03
205	3.04	-1.696335E-03	-1.184933E-03
206	3.05	-1.686813E-03	-1.274917E-03
207	3.06	-1.676560E-03	-1.358244E-03
208	3.07	-1.665637E-03	-1.435290E-03
209	3.08	-1.654098E-03	-1.506410E-03
210	3.09	-1.641997E-03	-1.571940E-03
211	3.10	-1.629384E-03	-1.632198E-03
212	3.11	-1.616304E-03	-1.687482E-03
213	3.12	-1.602802E-03	-1.738079E-03
214	3.13	-1.588919E-03	-1.784255E-03
215	3.14	-1.574693E-03	-1.826265E-03
216	3.15	-1.560159E-03	-1.864349E-03
217	3.16	-1.545353E-03	-1.898733E-03
218	3.17	-1.530305E-03	-1.929633E-03
219	3.18	-1.515045E-03	-1.957251E-03
220	3.19	-1.499601E-03	-1.981780E-03
221	3.20	-1.483999E-03	-2.003401E-03
222	3.21	-1.468263E-03	-2.022286E-03
223	3.22	-1.452416E-03	-2.038598E-03
224	3.23	-1.436479E-03	-2.052490E-03
225	3.24	-1.420472E-03	-2.064108E-03
226	3.25	-1.404413E-03	-2.073590E-03
227	3.26	-1.388320E-03	-2.081065E-03
228	3.27	-1.372210E-03	-2.086658E-03
229	3.28	-1.356096E-03	-2.090483E-03
230	3.29	-1.339993E-03	-2.092652E-03
231	3.30	-1.323914E-03	-2.093269E-03
232	3.31	-1.307870E-03	-2.092432E-03
233	3.32	-1.291874E-03	-2.090234E-03
234	3.33	-1.275936E-03	-2.086764E-03
235	3.34	-1.260064E-03	-2.082106E-03
236	3.35	-1.244269E-03	-2.076337E-03
237	3.36	-1.228558E-03	-2.069533E-03
238	3.37	-1.212939E-03	-2.061764E-03
239	3.38	-1.197418E-03	-2.053097E-03
240	3.39	-1.182003E-03	-2.043595E-03
241	3.40	-1.166699E-03	-2.033317E-03
242	3.41	-1.151511E-03	-2.022320E-03
243	3.42	-1.136444E-03	-2.010656E-03
244	3.43	-1.121503E-03	-1.998377E-03
245	3.44	-1.106692E-03	-1.985530E-03
246	3.45	-1.092014E-03	-1.972159E-03
247	3.46	-1.077473E-03	-1.958308E-03
248	3.47	-1.063072E-03	-1.944015E-03
249	3.48	-1.048812E-03	-1.929320E-03
250	3.49	-1.034698E-03	-1.914257E-03
251	3.50	-1.020730E-03	-1.898860E-03
252	3.51	-1.006910E-03	-1.883161E-03
253	3.52	-9.932395E-04	-1.867191E-03
254	3.53	-9.797204E-04	-1.850976E-03
255	3.54	-9.663534E-04	-1.834544E-03
256	3.55	-9.531393E-04	-1.817920E-03
257	3.56	-9.400789E-04	-1.801128E-03
258	3.57	-9.271725E-04	-1.784190E-03
259	3.58	-9.144204E-04	-1.767127E-03
260	3.59	-9.018229E-04	-1.749958E-03
261	3.60	-8.893799E-04	-1.732702E-03
262	3.61	-8.770912E-04	-1.715377E-03
263	3.62	-8.649568E-04	-1.697999E-03
264	3.63	-8.529760E-04	-1.680584E-03
265	3.64	-8.411486E-04	-1.663145E-03
266	3.65	-8.294739E-04	-1.645697E-03
267	3.66	-8.179512E-04	-1.628251E-03
268	3.67	-8.065797E-04	-1.610821E-03
269	3.68	-7.953587E-04	-1.593418E-03
270	3.69	-7.842872E-04	-1.576051E-03
271	3.70	-7.733642E-04	-1.558730E-03
272	3.71	-7.625887E-04	-1.541465E-03
273	3.72	-7.519596E-04	-1.524264E-03
274	3.73	-7.414757E-04	-1.507135E-03
275	3.74	-7.311359E-04	-1.490085E-03
276	3.75	-7.209388E-04	-1.473121E-03
277	3.76	-7.108832E-04	-1.456251E-03
278	3.77	-7.009679E-04	-1.439478E-03
279	3.78	-6.911913E-04	-1.422810E-03
280	3.79	-6.815522E-04	-1.406250E-03
281	3.80	-6.720492E-04	-1.389804E-03
282	3.81	-6.626808E-04	-1.373476E-03
283	3.82	-6.534456E-04	-1.357270E-03
284	3.83	-6.443421E-04	-1.341189E-03
285	3.84	-6.353688E-04	-1.325237E-03
286	3.85	-6.265244E-04	-1.309417E-03
287	3.86	-6.178071E-04	-1.293731E-03
288	3.87	-6.092156E-04	-1.278182E-03
289	3.88	-6.007484E-04	-1.262772E-03
290	3.89	-5.924039E-04	-1.247503E-03
291	3.90	-5.841806E-04	-1.232377E-03
292	3.91	-5.760769E-04	-1.217395E-03
293	3.92	-5.680915E-04	-1.202559E-03
294	3.93	-5.602227E-04	-1.187870E-03
295	3.94	-5.524690E-04	-1.173328E-03
296	3.95	-5.448289E-04	-1.158935E-03
297	3.96	-5.373009E-04	-1.144691E-03
298	3.97	-5.298836E-04	-1.130597E-03
299	3.98	-5.225753E-04	-1.116653E-03
300	3.99	-5.153747E-04	-1.102859E-03
301	4.00	-5.082803E-04	-1.089215E-03
302	4.01	-5.012905E-04	-1.075722E-03
303	4.02	-4.944039E-04	-1.062379E-03
304	4.03	-4.876192E-04	-1.049186E-03
305	4.04	-4.809348E-04	-1.036143E-03
306	4.05	-4.743493E-04	-1.023250E-03
307	4.06	-4.678613E-04	-1.010505E-03
308	4.07	-4.614694E-04	-9.979092E-04
309	4.08	-4.551722E-04	-9.854607E-04
310	4.09	-4.489684E-04	-9.731594E-04
311	4.10	-4.428566E-04	-9.610044E-04
312	4.11	-4.368354E-04	-9.489949E-04
313	4.12	-4.309035E-04	-9.371301E-04
314	4.13	-4.250596E-04	-9.254091E-04
315	4.14	-4.193024E-04	-9.138310E-04
316	4.15	-4.136306E-04	-9.023946E-04
317	4.16	-4.080429E-04	-8.910991E-04
318	4.17	-4.025381E-04	-8.799433E-04
319	4.18	-3.971149E-04	-8.689261E-04
320	4.19	-3.917721E-04	-8.580465E-04
321	4.20	-3.865085E-04	-8.473031E-04
322	4.21	-3.813229E-04	-8.366950E-04
323	4.22	-3.762141E-04	-8.262208E-04
324	4.23	-3.711809E-04	-8.158793E-04
325	4.24	-3.662223E-04	-8.056693E-04
326	4.25	-3.613369E-04	-7.955896E-04
327	4.26	-3.565238E-04	-7.856388E-04
328	4.27	-3.517818E-04	-7.758157E-04
329	4.28	-3.471099E-04	-7.661189E-04
330	4.29	-3.425069E-04	-7.565473E-04
331	4.30	-3.379718E-04	-7.470993E-04
332	4.31	-3.335035E-04	-7.377739E-04
333	4.32	-3.291010E-04	-7.285695E-04
334	4.33	-3.247634E-04	-7.194850E-04
335	4.34	-3.204895E-04	-7.105189E-04
336	4.35	-3.162785E-04	-7.016699E-04
337	4.36	-3.121293E-04	-6.929368E-04
338	4.37	-3.080409E-04	-6.843181E-04
339	4.38	-3.040125E-04	-6.758125E-04
340	4.39	-3.000431E-04	-6.674188E-04
341	4.40	-2.961318E-04	-6.591356E-04
342	4.41	-2.922777E-04	-6.509615E-04
343	4.42	-2.884798E-04	-6.428953E-04
344	4.43	-2.847374E-04	-6.349357E-04
345	4.44	-2.810495E-04	-6.270813E-04
346	4.45	-2.774153E-04	-6.193309E-04
347	4.46	-2.738340E-04	-6.116832E-04
348	4.47	-2.703047E-04	-6.041368E-04
349	4.48	-2.668267E-04	-5.966906E-04
350	4.49	-2.633990E-04	-5.893432E-04
351	4.50	-2.600211E-04	-5.820934E-04
352	4.51	-2.566920E-04	-5.749400E-04
353	4.52	-2.534110E-04	-5.678817E-04
354	4.53	-2.501773E-04	-5.609173E-04
355	4.54	-2.469903E-04	-5.540455E-04
356	4.55	-2.438492E-04	-5.472653E-04
357	4.56	-2.407532E-04	-5.405753E-04
358	4.57	-2.377017E-04	-5.339744E-04
359	4.58	-2.346940E-04	-5.274614E-04
360	4.59	-2.317294E-04	-5.210351E-04
361	4.60	-2.288073E-04	-5.146945E-04
362	4.61	-2.259269E-04	-5.084383E-04
363	4.62	-2.230876E-04	-5.022655E-04
364	4.63	-2.202888E-04	-4.961749E-04
365	4.64	-2.175298E-04	-4.901654E-04
366	4.65	-2.148101E-04	-4.842359E-04
367	4.66	-2.121290E-04	-4.783854E-04
368	4.67	-2.094859E-04	-4.726127E-04
369	4.68	-2.068803E-04	-4.669169E-04
370	4.69	-2.043115E-04	-4.612968E-04
371	4.70	-2.017790E-04	-4.557514E-04
372	4.71	-1.992822E-04	-4.502798E-04
373	4.72	-1.968206E-04	-4.448809E-04
374	4.73	-1.943936E-04	-4.395537E-04
375	4.74	-1.920007E-04	-4.342973E-04
376	4.75	-1.896414E-04	-4.291106E-04
377	4.76	-1.873151E-04	-4.239927E-04
378	4.77	-1.850213E-04	-4.189426E-04
379	4.78	-1.827596E-04	-4.139594E-04
380	4.79	-1.805294E-04	-4.090422E-04
381	4.80	-1.783303E-04	-4.041901E-04
382	4.81	-1.761618E-04	-3.994022E-04
383	4.82	-1.740234E-04	-3.946775E-04
384	4.83	-1.719146E-04	-3.900153E-04
385	4.84	-1.698350E-04	-3.854145E-04
386	4.85	-1.677842E-04	-3.808745E-04
387	4.86	-1.657617E-04	-3.763942E-04
388	4.87	-1.637671E-04	-3.719730E-04
389	4.88	-1.617999E-04	-3.676099E-04
390	4.89	-1.598598E-04	-3.633042E-04
391	4.90	-1.579463E-04	-3.590550E-04
392	4.91	-1.560590E-04	-3.548616E-04
393	4.92	-1.541975E-04	-3.507232E-04
394	4.93	-1.523615E-04	-3.466391E-04
395	4.94	-1.505505E-04	-3.426083E-04
396	4.95	-1.487641E-04	-3.386303E-04
397	4.96	-1.470021E-04	-3.347043E-04
398	4.97	-1.452640E-04	-3.308295E-04
399	4.98	-1.435494E-04	-3.270053E-04
400	4.99	-1.418581E-04	-3.232308E-04
401	5.00	-1.401896E-04	-3.195055E-04
402	5.01	-1.385436E-04	-3.158287E-04
403	5.02	-1.369198E-04	-3.121996E-04
404	5.03	-1.353179E-04	-3.086175E-04
405	5.04	-1.337374E-04	-3.050819E-04
406	5.05	-1.321782E-04	-3.015921E-04
407	5.06	-1.306398E-04	-2.981475E-04
408	5.07	-1.291221E-04	-2.947473E-04
409	5.08	-1.276245E-04	-2.913910E-04
410	5.09	-1.261469E-04	-2.880780E-04
411	5.10	-1.246890E-04	-2.848077E-04
412	5.11	-1.232505E-04	-2.815794E-04
413	5.12	-1.218310E-04	-2.783926E-04
414	5.13	-1.204304E-04	-2.752467E-04
415	5.14	-1.190482E-04	-2.721411E-04
416	5.15	-1.176843E-04	-2.690753E-04
417	5.16	-1.163384E-04	-2.660487E-04
418	5.17	-1.150102E-04	-2.630608E-04
419	5.18	-1.136994E-04	-2.601109E-04
420	5.19	-1.124059E-04	-2.571987E-04
421	5.20	-1.111293E-04	-2.543236E-04
422	5.21	-1.098693E-04	-2.514850E-04
423	5.22	-1.086259E-04	-2.486824E-04
424	5.23	-1.073986E-04	-2.459154E-04
425	5.24	-1.061873E-04	-2.431834E-04
426	5.25	-1.049918E-04	-2.404860E-04
427	5.26	-1.038117E-04	-2.378227E-04
428	5.27	-1.026470E-04	-2.351930E-04
429	5.28	-1.014973E-04	-2.325964E-04
430	5.29	-1.003624E-04	-2.300325E-04
431	5.30	-9.924220E-05	-2.275009E-04
432	5.31	-9.813640E-05	-2.250010E-04
433	5.32	-9.704480E-05	-2.225325E-04
434	5.33	-9.596721E-05	-2.200949E-04
435	5.34	-9.490342E-05	-2.176877E-04
436	5.35	-9.385324E-05	-2.153107E-04
437	5.36	-9.281646E-05	-2.129633E-04
438	5.37	-9.179290E-05	-2.106451E-04
439	5.38	-9.078237E-05	-2.083558E-04
440	5.39	-8.978467E-05	-2.060949E-04
441	5.40	-8.879963E-05	-2.038620E-04
442	5.41	-8.782707E-05	-2.016569E-04
443	5.42	-8.686681E-05	-1.994790E-04
444	5.43	-8.591867E-05	-1.973280E-04
445	5.44	-8.498248E-05	-1.952036E-04
446	5.45	-8.405807E-05	-1.931054E-04
447	5.46	-8.314528E-05	-1.910330E-04
448	5.47	-8.224394E-05	-1.889860E-04
449	5.48	-8.135389E-05	-1.869642E-04
450	5.49	-8.047496E-05	-1.849672E-04
451	5.50	-7.960701E-05	-1.829946E-04
452	5.51	-7.874988E-05	-1.810461E-04
453	5.52	-7.790341E-05	-1.791215E-04
454	5.53	-7.706746E-05	-1.772202E-04
455	5.54	-7.624188E-05	-1.753422E-04
456	5.55	-7.542653E-05	-1.734869E-04
457	5.56	-7.462125E-05	-1.716542E-04
458	5.57	-7.382592E-05	-1.698437E-04
459	5.58	-7.304039E-05	-1.680551E-04
460	5.59	-7.226453E-05	-1.662882E-04
461	5.60	-7.149819E-05	-1.645426E-04
462	5.61	-7.074126E-05	-1.628180E-04
463	5.62	-6.999360E-05	-1.611142E-04
464	5.63	-6.925508E-05	-1.594309E-04
465	5.64	-6.852558E-05	-1.577677E-04
466	5.65	-6.780497E-05	-1.561246E-04
467	5.66	-6.709313E-05	-1.545011E-04
468	5.67	-6.638993E-05	-1.528970E-04
469	5.68	-6.569527E-05	-1.513120E-04
470	5.69	-6.500902E-05	-1.497459E-04
471	5.70	-6.433106E-05	-1.481985E-04
472	5.71	-6.366129E-05	-1.466695E-04
473	5.72	-6.299960E-05	-1.451586E-04
474	5.73	-6.234587E-05	-1.436657E-04
475	5.74	-6.169999E-05	-1.421904E-04
476	5.75	-6.106186E-05	-1.407325E-04
477	5.76	-6.043137E-05	-1.392919E-04
478	5.77	-5.980843E-05	-1.378682E-04
479	5.78	-5.919292E-05	-1.364613E-04
480	5.79	-5.858474E-05	-1.350710E-04
481	5.80	-5.798381E-05	-1.336969E-04
482	5.81	-5.739002E-05	-1.323390E-04
483	5.82	-5.680327E-05	-1.309969E-04
484	5.83	-5.622347E-05	-1.296705E-04
485	5.84	-5.565053E-05	-1.283596E-04
486	5.85	-5.508435E-05	-1.270640E-04
487	5.86	-5.452485E-05	-1.257834E-04
488	5.87	-5.397193E-05	-1.245178E-04
489	5.88	-5.342552E-05	-1.232668E-04
490	5.89	-5.288551E-05	-1.220303E-04
491	5.90	-5.235183E-05	-1.208081E-04
492	5.91	-5.182440E-05	-1.196000E-04
493	5.92	-5.130312E-05	-1.184059E-04
494	5.93	-5.078792E-05	-1.172255E-04
495	5.94	-5.027872E-05	-1.160587E-04
496	5.95	-4.977544E-05	-1.149053E-04
497	5.96	-4.927800E-05	-1.137651E-04
498	5.97	-4.878633E-05	-1.126380E-04
499	5.98	-4.830034E-05	-1.115238E-04
500	5.99	-4.781997E-05	-1.104223E-04
501	6.00	-4.734514E-05	-1.093333E-04
502	6.01	-4.687578E-05	-1.082568E-04
503	6.02	-4.641181E-05	-1.071925E-04
504	6.03	-4.595317E-05	-1.061403E-04
505	6.04	-4.549979E-05	-1.051000E-04
506	6.05	-4.505159E-05	-1.040715E-04
507	6.06	-4.460852E-05	-1.030546E-04
508	6.07	-4.417051E-05	-1.020492E-04
509	6.08	-4.373748E-05	-1.010551E-04
510	6.09	-4.330938E-05	-1.000723E-04
511	6.10	-4.288614E-05	-9.910043E-05
512	6.11	-4.246770E-05	-9.813951E-05
513	6.12	-4.205400E-05	-9.718935E-05
514	6.13	-4.164497E-05	-9.624984E-05
515	6.14	-4.124056E-05	-9.532082E-05
516	6.15	-4.084071E-05	-9.440216E-05
517	6.16	-4.044536E-05	-9.349375E-05
518	6.17	-4.005445E-05	-9.259544E-05
519	6.18	-3.966792E-05	-9.170712E-05
520	6.19	-3.928573E-05	-9.082865E-05
521	6.20	-3.890781E-05	-8.995991E-05
522	6.21	-3.853411E-05	-8.910079E-05
523	6.22	-3.816457E-05	-8.825115E-05
524	6.23	-3.779915E-05	-8.741089E-05
525	6.24	-3.743780E-05	-8.657989E-05
526	6.25	-3.708045E-05	-8.575803E-05
527	6.26	-3.672706E-05	-8.494519E-05
528	6.27	-3.637759E-05	-8.414127E-05
529	6.28	-3.603197E-05	-8.334616E-05
530	6.29	-3.569017E-05	-8.255974E-05
531	6.30	-3.535213E-05	-8.178191E-05
532	6.31	-3.501782E-05	-8.101257E-05
533	6.32	-3.468717E-05	-8.025160E-05
534	6.33	-3.436015E-05	-7.949891E-05
535	6.34	-3.403671E-05	-7.875439E-05
536	6.35	-3.371680E-05	-7.801795E-05
537	6.36	-3.340039E-05	-7.728948E-05
538	6.37	-3.308743E-05	-7.656889E-05
539	6.38	-3.277787E-05	-7.585608E-05
540	6.39	-3.247168E-05	-7.515095E-05
541	6.40	-3.216881E-05	-7.445341E-05
542	6.41	-3.186922E-05	-7.376338E-05
543	6.42	-3.157287E-05	-7.308075E-05
544	6.43	-3.127973E-05	-7.240545E-05
545	6.44	-3.098974E-05	-7.173737E-05
546	6.45	-3.070288E-05	-7.107643E-05
547	6.46	-3.041911E-05	-7.042255E-05
548	6.47	-3.013838E-05	-6.977564E-05
549	6.48	-2.986066E-05	-6.913562E-05
550	6.49	-2.958592E-05	-6.850240E-05
551	6.50	-2.931411E-05	-6.787590E-05
552	6.51	-2.904520E-05	-6.725604E-05
553	6.52	-2.877917E-05	-6.664274E-05
554	6.53	-2.851596E-05	-6.603593E-05
555	6.54	-2.825555E-05	-6.543552E-05
556	6.55	-2.799790E-05	-6.484144E-05
557	6.56	-2.774299E-05	-6.425361E-05
558	6.57	-2.749077E-05	-6.367196E-05
559	6.58	-2.724122E-05	-6.309642E-05
560	6.59	-2.699430E-05	-6.252690E-05
561	6.60	-2.674998E-05	-6.196335E-05
562	6.61	-2.650823E-05	-6.140569E-05
563	6.62	-2.626902E-05	-6.085385E-05
564	6.63	-2.603232E-05	-6.030776E-05
565	6.64	-2.579810E-05	-5.976735E-05
566	6.65	-2.556633E-05	-5.923256E-05
567	6.66	-2.533698E-05	-5.870332E-05
568	6.67	-2.511002E-05	-5.817957E-05
569	6.68	-2.488543E-05	-5.766123E-05
570	6.69	-2.466317E-05	-5.714826E-05
571	6.70	-2.444321E-05	-5.664057E-05
572	6.71	-2.422554E-05	-5.613812E-05
573	6.72	-2.401013E-05	-5.564084E-05
574	6.73	-2.379694E-05	-5.514868E-05
575	6.74	-2.358595E-05	-5.466156E-05
576	6.75	-2.337713E-05	-5.417943E-05
577	6.76	-2.317047E-05	-5.370224E-05
578	6.77	-2.296593E-05	-5.322993E-05
579	6.78	-2.276349E-05	-5.276244E-05
580	6.79	-2.256312E-05	-5.229971E-05
581	6.80	-2.236481E-05	-5.184169E-05
582	6.81	-2.216852E-05	-5.138833E-05
583	6.82	-2.197423E-05	-5.093957E-05
584	6.83	-2.178193E-05	-5.049536E-05
585	6.84	-2.159158E-05	-5.005564E-05
586	6.85	-2.140317E-05	-4.962037E-05
587	6.86	-2.121667E-05	-4.918950E-05
588	6.87	-2.103206E-05	-4.876296E-05
589	6.88	-2.084931E-05	-4.834072E-05
590	6.89	-2.066842E-05	-4.792273E-05
591	6.90	-2.048935E-05	-4.750893E-05
592	6.91	-2.031208E-05	-4.709928E-05
593	6.92	-2.013660E-05	-4.669373E-05
594	6.93	-1.996288E-05	-4.629224E-05
595	6.94	-1.979091E-05	-4.589475E-05
596	6.95	-1.962065E-05	-4.550123E-05
597	6.96	-1.945210E-05	-4.511163E-05
598	6.97	-1.928524E-05	-4.472590E-05
599	6.98	-1.912004E-05	-4.434400E-05
600	6.99	-1.895649E-05	-4.396589E-05
601	7.00	-1.879456E-05	-4.359152E-05
602	7.01	-1.863425E-05	-4.322085E-05
603	7.02	-1.847552E-05	-4.285385E-05
604	7.03	-1.831837E-05	-4.249047E-05
605	7.04	-1.816277E-05	-4.213066E-05
606	7.05	-1.800871E-05	-4.177439E-05
607	7.06	-1.785617E-05	-4.142163E-05
608	7.07	-1.770513E-05	-4.107232E-05
609	7.08	-1.755558E-05	-4.072644E-05
610	7.09	-1.740750E-05	-4.038394E-05
611	7.10	-1.726088E-05	-4.004478E-05
612	7.11	-1.711569E-05	-3.970894E-05
613	7.12	-1.697192E-05	-3.937636E-05
614	7.13	-1.682955E-05	-3.904703E-05
615	7.14	-1.668858E-05	-3.872089E-05
616	7.15	-1.654898E-05	-3.839792E-05
617	7.16	-1.641073E-05	-3.807808E-05
618	7.17	-1.627384E-05	-3.776134E-05
619	7.18	-1.613827E-05	-3.744765E-05
620	7.19	-1.600401E-05	-3.713700E-05
621	7.20	-1.587106E-05	-3.682934E-05
622	7.21	-1.573939E-05	-3.652464E-05
623	7.22	-1.560899E-05	-3.622287E-05
624	7.23	-1.547985E-05	-3.592400E-05
625	7.24	-1.535195E-05	-3.562799E-05
626	7.25	-1.522528E-05	-3.533482E-05
627	7.26	-1.509983E-05	-3.504446E-05
628	7.27	-1.497558E-05	-3.475686E-05
629	7.28	-1.485252E-05	-3.447201E-05
630	7.29	-1.473064E-05	-3.418988E-05
631	7.30	-1.460992E-05	-3.391042E-05
632	7.31	-1.449035E-05	-3.363363E-05
633	7.32	-1.437192E-05	-3.335945E-05
634	7.33	-1.425462E-05	-3.308788E-05
635	7.34	-1.413843E-05	-3.281888E-05
636	7.35	-1.402335E-05	-3.255242E-05
637	7.36	-1.390935E-05	-3.228847E-05
638	7.37	-1.379643E-05	-3.202701E-05
639	7.38	-1.368459E-05	-3.176802E-05
640	7.39	-1.357379E-05	-3.151146E-05
641	7.40	-1.346404E-05	-3.125730E-05
642	7.41	-1.335532E-05	-3.100554E-05
643	7.42	-1.324763E-05	-3.075612E-05
644	7.43	-1.314094E-05	-3.050905E-05
645	7.44	-1.303526E-05	-3.026428E-05
646	7.45	-1.293056E-05	-3.002179E-05
647	7.46	-1.282685E-05	-2.978156E-05
648	7.47	-1.272410E-05	-2.954357E-05
649	7.48	-1.262231E-05	-2.930779E-05
650	7.49	-1.252147E-05	-2.907419E-05
651	7.50	-1.242156E-05	-2.884277E-05
652	7.51	-1.232259E-05	-2.861348E-05
653	7.52	-1.222453E-05	-2.838631E-05
654	7.53	-1.212738E-05	-2.816124E-05
655	7.54	-1.203113E-05	-2.793825E-05
656	7.55	-1.193577E-05	-2.771731E-05
657	7.56	-1.184129E-05	-2.749840E-05
658	7.57	-1.174768E-05	-2.728151E-05
659	7.58	-1.165493E-05	-2.706660E-05
660	7.59	-1.156303E-05	-2.685366E-05
661	7.60	-1.147198E-05	-2.664267E-05
662	7.61	-1.138176E-05	-2.643361E-05
663	7.62	-1.129236E-05	-2.622645E-05
664	7.63	-1.120379E-05	-2.602119E-05
665	7.64	-1.111602E-05	-2.581779E-05
666	7.65	-1.102906E-05	-2.561624E-05
667	7.66	-1.094288E-05	-2.541653E-05
668	7.67	-1.085749E-05	-2.521862E-05
669	7.68	-1.077288E-05	-2.502251E-05
670	7.69	-1.068903E-05	-2.482817E-05
671	7.70	-1.060595E-05	-2.463558E-05
672	7.71	-1.052361E-05	-2.444474E-05
673	7.72	-1.044202E-05	-2.425561E-05
674	7.73	-1.036117E-05	-2.406819E-05
675	7.74	-1.028104E-05	-2.388245E-05
676	7.75	-1.020164E-05	-2.369838E-05
677	7.76	-1.012295E-05	-2.351596E-05
678	7.77	-1.004497E-05	-2.333517E-05
679	7.78	-9.967686E-06	-2.315600E-05
680	7.79	-9.891095E-06	-2.297843E-05
681	7.80	-9.815190E-06	-2.280244E-05
682	7.81	-9.739963E-06	-2.262803E-05
683	7.82	-9.665407E-06	-2.245516E-05
684	7.83	-9.591516E-06	-2.228383E-05
685	7.84	-9.518282E-06	-2.211403E-05
686	7.85	-9.445700E-06	-2.194572E-05
687	7.86	-9.373762E-06	-2.177891E-05
688	7.87	-9.302462E-06	-2.161358E-05
689	7.88	-9.231794E-06	-2.144970E-05
690	7.89	-9.161751E-06	-2.128727E-05
691	7.90	-9.092327E-06	-2.112627E-05
692	7.91	-9.023515E-06	-2.096669E-05
693	7.92	-8.955310E-06	-2.080851E-05
694	7.93	-8.887705E-06	-2.065172E-05
695	7.94	-8.820695E-06	-2.049631E-05
696	7.95	-8.754273E-06	-2.034225E-05
697	7.96	-8.688433E-06	-2.018954E-05
698	7.97	-8.623170E-06	-2.003817E-05
699	7.98	-8.558478E-06	-1.988812E-05
700	7.99	-8.494351E-06	-1.973938E-05
701	8.00	-8.430784E-06	-1.959193E-05
702	8.01	-8.367771E-06	-1.944576E-05
703	8.02	-8.305306E-06	-1.930086E-05
704	8.03	-8.243384E-06	-1.915722E-05
705	8.04	-8.182000E-06	-1.901482E-05
706	8.05	-8.121149E-06	-1.887365E-05
707	8.06	-8.060824E-06	-1.873371E-05
708	8.07	-8.001021E-06	-1.859497E-05
709	8.08	-7.941735E-06	-1.845742E-05
710	8.09	-7.882961E-06	-1.832107E-05
711	8.10	-7.824693E-06	-1.818588E-05
712	8.11	-7.766927E-06	-1.805185E-05
713	8.12	-7.709658E-06	-1.791898E-05
714	8.13	-7.652880E-06	-1.778724E-05
715	8.14	-7.596590E-06	-1.765663E-05
716	8.15	-7.540781E-06	-1.752714E-05
717	8.16	-7.485450E-06	-1.739875E-05
718	8.17	-7.430592E-06	-1.727146E-05
719	8.18	-7.376203E-06	-1.714525E-05
720	8.19	-7.322277E-06	-1.702011E-05
721	8.20	-7.268810E-06	-1.689604E-05
722	8.21	-7.215798E-06	-1.677302E-05
723	8.22	-7.163236E-06	-1.665104E-05
724	8.23	-7.111120E-06	-1.653010E-05
725	8.24	-7.059446E-06	-1.641018E-05
726	8.25	-7.008209E-06	-1.629127E-05
727	8.26	-6.957406E-06	-1.617336E-05
728	8.27	-6.907031E-06	-1.605645E-05
729	8.28	-6.857081E-06	-1.594052E-05
730	8.29	-6.807552E-06	-1.582556E-05
731	8.30	-6.758440E-06	-1.571158E-05
732	8.31	-6.709740E-06	-1.559854E-05
733	8.32	-6.661449E-06	-1.548645E-05
734	8.33	-6.613563E-06	-1.537531E-05
735	8.34	-6.566078E-06	-1.526509E-05
736	8.35	-6.518991E-06	-1.515578E-05
737	8.36	-6.472296E-06	-1.504740E-05
738	8.37	-6.425991E-06	-1.493991E-05
739	8.38	-6.380072E-06	-1.483332E-05
740	8.39	-6.334535E-06	-1.472761E-05
741	8.40	-6.289377E-06	-1.462278E-05
742	8.41	-6.244594E-06	-1.451882E-05
743	8.42	-6.200182E-06	-1.441571E-05
744	8.43	-6.156138E-06	-1.431347E-05
745	8.44	-6.112459E-06	-1.421206E-05
746	8.45	-6.069141E-06	-1.411149E-05
747	8.46	-6.026180E-06	-1.401175E-05
748	8.47	-5.983573E-06	-1.391284E-05
749	8.48	-5.941318E-06	-1.381473E-05
750	8.49	-5.899410E-06	-1.371743E-05
751	8.50	-5.857846E-06	-1.362093E-05
752	8.51	-5.816624E-06	-1.352522E-05
753	8.52	-5.775740E-06	-1.343029E-05
754	8.53	-5.735190E-06	-1.333614E-05
755	8.54	-5.694972E-06	-1.324275E-05
756	8.55	-5.655082E-06	-1.315013E-05
757	8.56	-5.615518E-06	-1.305826E-05
758	8.57	-5.576277E-06	-1.296714E-05
759	8.58	-5.537355E-06	-1.287676E-05
760	8.59	-5.498749E-06	-1.278711E-05
761	8.60	-5.460457E-06	-1.269819E-05
762	8.61	-5.422476E-06	-1.260999E-05
763	8.62	-5.384802E-06	-1.252251E-05
764	8.63	-5.347433E-06	-1.243573E-05
765	8.64	-5.310367E-06	-1.234965E-05
766	8.65	-5.273600E-06	-1.226426E-05
767	8.66	-5.237129E-06	-1.217956E-05
768	8.67	-5.200952E-06	-1.209554E-05
769	8.68	-5.165067E-06	-1.201220E-05
770	8.69	-5.129469E-06	-1.192953E-05
771	8.70	-5.094158E-06	-1.184752E-05
772	8.71	-5.059130E-06	-1.176616E-05
773	8.72	-5.024382E-06	-1.168546E-05
774	8.73	-4.989913E-06	-1.160540E-05
775	8.74	-4.955719E-06	-1.152598E-05
776	8.75	-4.921798E-06	-1.144719E-05
777	8.76	-4.888147E-06	-1.136903E-05
778	8.77	-4.854765E-06	-1.129149E-05
779	8.78	-4.821648E-06	-1.121457E-05
780	8.79	-4.788794E-06	-1.113826E-05
781	8.80	-4.756202E-06	-1.106255E-05
782	8.81	-4.723867E-06	-1.098744E-05
783	8.82	-4.691789E-06	-1.091293E-05
784	8.83	-4.659965E-06	-1.083900E-05
785	8.84	-4.628392E-06	-1.076566E-05
786	8.85	-4.597068E-06	-1.069290E-05
787	8.86	-4.565991E-06	-1.062070E-05
788	8.87	-4.535159E-06	-1.054908E-05
789	8.88	-4.504570E-06	-1.047802E-05
790	8.89	-4.474221E-06	-1.040751E-05
791	8.90	-4.444110E-06	-1.033756E-05
792	8.91	-4.414236E-06	-1.026816E-05
793	8.92	-4.384595E-06	-1.019930E-05
794	8.93	-4.355186E-06	-1.013097E-05
795	8.94	-4.326007E-06	-1.006318E-05
796	8.95	-4.297056E-06	-9.995921E-06
797	8.96	-4.268331E-06	-9.929183E-06
798	8.97	-4.239829E-06	-9.862963E-06
799	8.98	-4.211549E-06	-9.797258E-06
800	8.99	-4.183489E-06	-9.732063E-06
801	9.00	-4.155647E-06	-9.667373E-06
802	9.01	-4.128020E-06	-9.603184E-06
803	9.02	-4.100608E-06	-9.539492E-06
804	9.03	-4.073408E-06	-9.476291E-06
805	9.04	-4.046418E-06	-9.413578E-06
806	9.05	-4.019636E-06	-9.351349E-06
807	9.06	-3.993061E-06	-9.289599E-06
808	9.07	-3.966690E-06	-9.228324E-06
809	9.08	-3.940523E-06	-9.167519E-06
810	9.09	-3.914557E-06	-9.107181E-06
811	9.10	-3.888790E-06	-9.047306E-06
812	9.11	-3.863220E-06	-8.987890E-06
813	9.12	-3.837847E-06	-8.928927E-06
814	9.13	-3.812668E-06	-8.870416E-06
815	9.14	-3.787681E-06	-8.812351E-06
816	9.15	-3.762885E-06	-8.754729E-06
817	9.16	-3.738278E-06	-8.697545E-06
818	9.17	-3.713859E-06	-8.640797E-06
819	9.18	-3.689625E-06	-8.584480E-06
820	9.19	-3.665576E-06	-8.528591E-06
821	9.20	-3.641710E-06	-8.473126E-06
822	9.21	-3.618024E-06	-8.418080E-06
823	9.22	-3.594518E-06	-8.363452E-06
824	9.23	-3.571190E-06	-8.309236E-06
825	9.24	-3.548039E-06	-8.255430E-06
826	9.25	-3.525062E-06	-8.202029E-06
827	9.26	-3.502259E-06	-8.149031E-06
828	9.27	-3.479627E-06	-8.096432E-06
829	9.28	-3.457166E-06	-8.044228E-06
830	9.29	-3.434874E-06	-7.992417E-06
831	9.30	-3.412750E-06	-7.940994E-06
832	9.31	-3.390791E-06	-7.889957E-06
833	9.32	-3.368998E-06	-7.839302E-06
834	9.33	-3.347367E-06	-7.789025E-06
835	9.34	-3.325898E-06	-7.739125E-06
836	9.35	-3.304590E-06	-7.689596E-06
837	9.36	-3.283441E-06	-7.640437E-06
838	9.37	-3.262449E-06	-7.591644E-06
839	9.38	-3.241614E-06	-7.543215E-06
840	9.39	-3.220934E-06	-7.495145E-06
841	9.40	-3.200408E-06	-7.447432E-06
842	9.41	-3.180034E-06	-7.400072E-06
843	9.42	-3.159811E-06	-7.353064E-06
844	9.43	-3.139738E-06	-7.306403E-06
845	9.44	-3.119814E-06	-7.260088E-06
846	9.45	-3.100037E-06	-7.214114E-06
847	9.46	-3.080406E-06	-7.168480E-06
848	9.47	-3.060920E-06	-7.123182E-06
849	9.48	-3.041578E-06	-7.078218E-06
850	9.49	-3.022378E-06	-7.033584E-06
851	9.50	-3.003319E-06	-6.989278E-06
852	9.51	-2.984400E-06	-6.945297E-06
853	9.52	-2.965621E-06	-6.901639E-06
854	9.53	-2.946979E-06	-6.858300E-06
855	9.54	-2.928473E-06	-6.815278E-06
856	9.55	-2.910103E-06	-6.772571E-06
857	9.56	-2.891867E-06	-6.730176E-06
858	9.57	-2.873765E-06	-6.688090E-06
859	9.58	-2.855794E-06	-6.646310E-06
860	9.59	-2.837955E-06	-6.604835E-06
861	9.60	-2.820245E-06	-6.563661E-06
862	9.61	-2.802664E-06	-6.522786E-06
863	9.62	-2.785211E-06	-6.482208E-06
864	9.63	-2.767884E-06	-6.441924E-06
865	9.64	-2.750684E-06	-6.401931E-06
866	9.65	-2.733607E-06	-6.362228E-06
867	9.66	-2.716654E-06	-6.322812E-06
868	9.67	-2.699824E-06	-6.283680E-06
869	9.68	-2.683115E-06	-6.244830E-06
870	9.69	-2.666527E-06	-6.206260E-06
871	9.70	-2.650058E-06	-6.167968E-06
872	9.71	-2.633708E-06	-6.129951E-06
873	9.72	-2.617476E-06	-6.092207E-06
874	9.73	-2.601360E-06	-6.054734E-06
875	9.74	-2.585359E-06	-6.017530E-06
876	9.75	-2.569473E-06	-5.980591E-06
877	9.76	-2.553702E-06	-5.943917E-06
878	9.77	-2.538042E-06	-5.907505E-06
879	9.78	-2.522495E-06	-5.871353E-06
880	9.79	-2.507059E-06	-5.835459E-06
881	9.80	-2.491733E-06	-5.799820E-06
882	9.81	-2.476516E-06	-5.764435E-06
883	9.82	-2.461407E-06	-5.729302E-06
884	9.83	-2.446406E-06	-5.694418E-06
885	9.84	-2.431511E-06	-5.659781E-06
886	9.85	-2.416722E-06	-5.625390E-06
887	9.86	-2.402038E-06	-5.591243E-06
888	9.87	-2.387458E-06	-5.557337E-06
889	9.88	-2.372981E-06	-5.523671E-06
890	9.89	-2.358606E-06	-5.490242E-06
891	9.90	-2.344333E-06	-5.457049E-06
892	9.91	-2.330161E-06	-5.424090E-06
893	9.92	-2.316088E-06	-5.391362E-06
894	9.93	-2.302114E-06	-5.358865E-06
895	9.94	-2.288239E-06	-5.326596E-06
896	9.95	-2.274461E-06	-5.294554E-06
897	9.96	-2.260780E-06	-5.262736E-06
898	9.97	-2.247194E-06	-5.231141E-06
899	9.98	-2.233704E-06	-5.199767E-06
900	9.99	-2.220308E-06	-5.168612E-06
901	10.00	-2.207006E-06	-5.137675E-06
902	10.01	-2.193797E-06	-5.106953E-06
903	10.02	-2.180680E-06	-5.076446E-06
904	10.03	-2.167654E-06	-5.046151E-06
905	10.04	-2.154719E-06	-5.016066E-06
906	10.05	-2.141874E-06	-4.986191E-06
907	10.06	-2.129118E-06	-4.956523E-06
908	10.07	-2.116451E-06	-4.927060E-06
909	10.08	-2.103871E-06	-4.897802E-06
910	10.09	-2.091379E-06	-4.868746E-06
911	10.10	-2.078973E-06	-4.839891E-06
912	10.11	-2.066653E-06	-4.811235E-06
913	10.12	-2.054418E-06	-4.782777E-06
914	10.13	-2.042267E-06	-4.754516E-06
915	10.14	-2.030200E-06	-4.726448E-06
916	10.15	-2.018217E-06	-4.698574E-06
917	10.16	-2.006315E-06	-4.670892E-06
918	10.17	-1.994496E-06	-4.643399E-06
919	10.18	-1.982757E-06	-4.616095E-06
920	10.19	-1.971100E-06	-4.588978E-06
921	10.20	-1.959522E-06	-4.562047E-06
922	10.21	-1.948023E-06	-4.535300E-06
923	10.22	-1.936603E-06	-4.508735E-06
924	10.23	-1.925261E-06	-4.482352E-06
925	10.24	-1.913996E-06	-4.456149E-06
926	10.25	-1.902809E-06	-4.430125E-06
927	10.26	-1.891697E-06	-4.404277E-06
928	10.27	-1.880661E-06	-4.378605E-06
929	10.28	-1.869700E-06	-4.353108E-06
930	10.29	-1.858814E-06	-4.327784E-06
931	10.30	-1.848001E-06	-4.302631E-06
932	10.31	-1.837262E-06	-4.277649E-06
933	10.32	-1.826596E-06	-4.252835E-06
934	10.33	-1.816001E-06	-4.228190E-06
935	10.34	-1.805479E-06	-4.203711E-06
936	10.35	-1.795027E-06	-4.179397E-06
937	10.36	-1.784646E-06	-4.155247E-06
938	10.37	-1.774335E-06	-4.131259E-06
939	10.38	-1.764093E-06	-4.107433E-06
940	10.39	-1.753920E-06	-4.083767E-06
941	10.40	-1.743816E-06	-4.060260E-06
942	10.41	-1.733779E-06	-4.036911E-06
943	10.42	-1.723810E-06	-4.013718E-06
944	10.43	-1.713907E-06	-3.990680E-06
945	10.44	-1.704071E-06	-3.967797E-06
946	10.45	-1.694301E-06	-3.945066E-06
947	10.46	-1.684596E-06	-3.922487E-06
948	10.47	-1.674956E-06	-3.900059E-06
949	10.48	-1.665380E-06	-3.877780E-06
950	10.49	-1.655868E-06	-3.855650E-06
951	10.50	-1.646419E-06	-3.833667E-06
952	10.51	-1.637033E-06	-3.811829E-06
953	10.52	-1.627709E-06	-3.790137E-06
954	10.53	-1.618448E-06	-3.768589E-06
955	10.54	-1.609247E-06	-3.747183E-06
956	10.55	-1.600108E-06	-3.725919E-06
957	10.56	-1.591029E-06	-3.704796E-06
958	10.57	-1.582010E-06	-3.683812E-06
959	10.58	-1.573051E-06	-3.662967E-06
960	10.59	-1.564151E-06	-3.642259E-06
961	10.60	-1.555310E-06	-3.621688E-06
962	10.61	-1.546527E-06	-3.601252E-06
963	10.62	-1.537801E-06	-3.580950E-06
964	10.63	-1.529133E-06	-3.560782E-06
965	10.64	-1.520523E-06	-3.540747E-06
966	10.65	-1.511968E-06	-3.520842E-06
967	10.66	-1.503470E-06	-3.501068E-06
968	10.67	-1.495027E-06	-3.481424E-06
969	10.68	-1.486640E-06	-3.461908E-06
970	10.69	-1.478307E-06	-3.442519E-06
971	10.70	-1.470029E-06	-3.423257E-06
972	10.71	-1.461805E-06	-3.404120E-06
973	10.72	-1.453634E-06	-3.385109E-06
974	10.73	-1.445517E-06	-3.366221E-06
975	10.74	-1.437453E-06	-3.347456E-06
976	10.75	-1.429441E-06	-3.328812E-06
977	10.76	-1.421481E-06	-3.310290E-06
978	10.77	-1.413573E-06	-3.291888E-06
979	10.78	-1.405716E-06	-3.273605E-06
980	10.79	-1.397910E-06	-3.255440E-06
981	10.80	-1.390154E-06	-3.237393E-06
982	10.81	-1.382449E-06	-3.219463E-06
983	10.82	-1.374793E-06	-3.201648E-06
984	10.83	-1.367187E-06	-3.183948E-06
985	10.84	-1.359630E-06	-3.166362E-06
986	10.85	-1.352121E-06	-3.148890E-06
987	10.86	-1.344661E-06	-3.131529E-06
988	10.87	-1.337249E-06	-3.114281E-06
989	10.88	-1.329885E-06	-3.097143E-06
990	10.89	-1.322567E-06	-3.080115E-06
991	10.90	-1.315297E-06	-3.063196E-06
992	10.91	-1.308073E-06	-3.046385E-06
993	10.92	-1.300896E-06	-3.029682E-06
994	10.93	-1.293764E-06	-3.013086E-06
995	10.94	-1.286678E-06	-2.996595E-06
996	10.95	-1.279638E-06	-2.980210E-06
997	10.96	-1.272642E-06	-2.963929E-06
998	10.97	-1.265691E-06	-2.947752E-06
999	10.98	-1.258784E-06	-2.931678E-06
1000	10.99	-1.251921E-06	-2.915706E-06
1001	11.00	-1.245101E-06	-2.899835E-06
1002	11.01	-1.238325E-06	-2.884065E-06
1003	11.02	-1.231592E-06	-2.868395E-06
1004	11.03	-1.224901E-06	-2.852824E-06
1005	11.04	-1.218253E-06	-2.837352E-06
1006	11.05	-1.211647E-06	-2.821978E-06
1007	11.06	-1.205083E-06	-2.806700E-06
1008	11.07	-1.198560E-06	-2.791519E-06
1009	11.08	-1.192078E-06	-2.776434E-06
1010	11.09	-1.185637E-06	-2.761444E-06
1011	11.10	-1.179237E-06	-2.746548E-06
1012	11.11	-1.172877E-06	-2.731746E-06
1013	11.12	-1.166557E-06	-2.717036E-06
1014	11.13	-1.160277E-06	-2.702419E-06
1015	11.14	-1.154036E-06	-2.687894E-06
1016	11.15	-1.147834E-06	-2.673460E-06
1017	11.16	-1.141671E-06	-2.659116E-06
1018	11.17	-1.135547E-06	-2.644861E-06
1019	11.18	-1.129461E-06	-2.630696E-06
1020	11.19	-1.123413E-06	-2.616619E-06
1021	11.20	-1.117403E-06	-2.602630E-06
1022	11.21	-1.111430E-06	-2.588728E-06
1023	11.22	-1.105494E-06	-2.574913E-06
1024	11.23	-1.099596E-06	-2.561184E-06
1025	11.24	-1.093734E-06	-2.547540E-06
1026	11.25	-1.087908E-06	-2.533980E-06
1027	11.26	-1.082119E-06	-2.520505E-06
1028	11.27	-1.076365E-06	-2.507114E-06
1029	11.28	-1.070648E-06	-2.493805E-06
1030	11.29	-1.064965E-06	-2.480578E-06
1031	11.30	-1.059318E-06	-2.467434E-06
1032	11.31	-1.053706E-06	-2.454370E-06
1033	11.32	-1.048128E-06	-2.441388E-06
1034	11.33	-1.042585E-06	-2.428485E-06
1035	11.34	-1.037076E-06	-2.415661E-06
1036	11.35	-1.031601E-06	-2.402917E-06
1037	11.36	-1.026159E-06	-2.390251E-06
1038	11.37	-1.020751E-06	-2.377663E-06
1039	11.38	-1.015376E-06	-2.365152E-06
1040	11.39	-1.010035E-06	-2.352718E-06
1041	11.40	-1.004726E-06	-2.340360E-06
1042	11.41	-9.994492E-07	-2.328077E-06
1043	11.42	-9.942050E-07	-2.315870E-06
1044	11.43	-9.889929E-07	-2.303738E-06
1045	11.44	-9.838127E-07	-2.291679E-06
1046	11.45	-9.786641E-07	-2.279694E-06
1047	11.46	-9.735469E-07	-2.267782E-06
1048	11.47	-9.684609E-07	-2.255943E-06
1049	11.48	-9.634058E-07	-2.244176E-06
1050	11.49	-9.583816E-07	-2.232480E-06
1051	11.50	-9.533878E-07	-2.220855E-06
1052	11.51	-9.484244E-07	-2.209301E-06
1053	11.52	-9.434911E-07	-2.197817E-06
1054	11.53	-9.385878E-07	-2.186402E-06
1055	11.54	-9.337141E-07	-2.175057E-06
1056	11.55	-9.288699E-07	-2.163780E-06
1057	11.56	-9.240551E-07	-2.152571E-06
1058	11.57	-9.192693E-07	-2.141431E-06
1059	11.58	-9.145124E-07	-2.130357E-06
1060	11.59	-9.097843E-07	-2.119350E-06
1061	11.60	-9.050846E-07	-2.108409E-06
1062	11.61	-9.004132E-07	-2.097534E-06
1063	11.62	-8.957699E-07	-2.086725E-06
1064	11.63	-8.911545E-07	-2.075980E-06
1065	11.64	-8.865669E-07	-2.065300E-06
1066	11.65	-8.820068E-07	-2.054684E-06
1067	11.66	-8.774740E-07	-2.044132E-06
1068	11.67	-8.729684E-07	-2.033642E-06
1069	11.68	-8.684898E-07	-2.023216E-06
1070	11.69	-8.640379E-07	-2.012852E-06
1071	11.70	-8.596126E-07	-2.002549E-06
1072	11.71	-8.552138E-07	-1.992308E-06
1073	11.72	-8.508412E-07	-1.982129E-06
1074	11.73	-8.464947E-07	-1.972009E-06
1075	11.74	-8.421740E-07	-1.961950E-06
1076	11.75	-8.378791E-07	-1.951951E-06
1077	11.76	-8.336097E-07	-1.942011E-06
1078	11.77	-8.293656E-07	-1.932131E-06
1079	11.78	-8.251467E-07	-1.922308E-06
1080	11.79	-8.209529E-07	-1.912545E-06
1081	11.80	-8.167839E-07	-1.902838E-06
1082	11.81	-8.126396E-07	-1.893190E-06
1083	11.82	-8.085198E-07	-1.883598E-06
1084	11.83	-8.044243E-07	-1.874063E-06
1085	11.84	-8.003531E-07	-1.864584E-06
1086	11.85	-7.963058E-07	-1.855161E-06
1087	11.86	-7.922824E-07	-1.845794E-06
1088	11.87	-7.882827E-07	-1.836481E-06
1089	11.88	-7.843066E-07	-1.827224E-06
1090	11.89	-7.803538E-07	-1.818021E-06
1091	11.90	-7.764243E-07	-1.808872E-06
1092	11.91	-7.725178E-07	-1.799776E-06
1093	11.92	-7.686342E-07	-1.790734E-06
1094	11.93	-7.647734E-07	-1.781745E-06
1095	11.94	-7.609352E-07	-1.772809E-06
1096	11.95	-7.571194E-07	-1.763924E-06
1097	11.96	-7.533260E-07	-1.755092E-06
1098	11.97	-7.495547E-07	-1.746311E-06
1099	11.98	-7.458054E-07	-1.737581E-06
1100	11.99	-7.420780E-07	-1.728903E-06
1101	12.00	-7.383723E-07	-1.720274E-06
1102	12.01	-7.346882E-07	-1.711696E-06
1103	12.02	-7.310255E-07	-1.703168E-06
1104	12.03	-7.273841E-07	-1.694689E-06
1105	12.04	-7.237639E-07	-1.686260E-06
1106	12.05	-7.201646E-07	-1.677879E-06
1107	12.06	-7.165862E-07	-1.669547E-06
1108	12.07	-7.130285E-07	-1.661264E-06
1109	12.08	-7.094915E-07	-1.653028E-06
1110	12.09	-7.059749E-07	-1.644839E-06
1111	12.10	-7.024786E-07	-1.636698E-06
1112	12.11	-6.990025E-07	-1.628604E-06
1113	12.12	-6.955464E-07	-1.620557E-06
1114	12.13	-6.921103E-07	-1.612556E-06
1115	12.14	-6.886939E-07	-1.604601E-06
1116	12.15	-6.852972E-07	-1.596692E-06
1117	12.16	-6.819201E-07	-1.588828E-06
1118	12.17	-6.785623E-07	-1.581009E-06
1119	12.18	-6.752238E-07	-1.573235E-06
1120	12.19	-6.719045E-07	-1.565506E-06
1121	12.20	-6.686042E-07	-1.557821E-06
1122	12.21	-6.653228E-07	-1.550180E-06
1123	12.22	-6.620601E-07	-1.542583E-06
1124	12.23	-6.588161E-07	-1.535029E-06
1125	12.24	-6.555907E-07	-1.527518E-06
1126	12.25	-6.523836E-07	-1.520050E-06
1127	12.26	-6.491949E-07	-1.512625E-06
1128	12.27	-6.460243E-07	-1.505242E-06
1129	12.28	-6.428717E-07	-1.497901E-06
1130	12.29	-6.397371E-07	-1.490601E-06
1131	12.30	-6.366203E-07	-1.483343E-06
1132	12.31	-6.335213E-07	-1.476127E-06
1133	12.32	-6.304398E-07	-1.468951E-06
1134	12.33	-6.273758E-07	-1.461816E-06
1135	12.34	-6.243291E-07	-1.454721E-06
1136	12.35	-6.212997E-07	-1.447667E-06
1137	12.36	-6.182874E-07	-1.440652E-06
1138	12.37	-6.152922E-07	-1.433677E-06
1139	12.38	-6.123138E-07	-1.426741E-06
1140	12.39	-6.093523E-07	-1.419844E-06
1141	12.40	-6.064075E-07	-1.412987E-06
1142	12.41	-6.034792E-07	-1.406168E-06
1143	12.42	-6.005675E-07	-1.399387E-06
1144	12.43	-5.976721E-07	-1.392644E-06
1145	12.44	-5.947930E-07	-1.385939E-06
1146	12.45	-5.919301E-07	-1.379272E-06
1147	12.46	-5.890832E-07	-1.372643E-06
1148	12.47	-5.862523E-07	-1.366050E-06
1149	12.48	-5.834373E-07	-1.359494E-06
1150	12.49	-5.806380E-07	-1.352975E-06
1151	12.50	-5.778544E-07	-1.346493E-06
1152	12.51	-5.750863E-07	-1.340046E-06
1153	12.52	-5.723337E-07	-1.333636E-06
1154	12.53	-5.695964E-07	-1.327261E-06
1155	12.54	-5.668744E-07	-1.320922E-06
1156	12.55	-5.641676E-07	-1.314618E-06
1157	12.56	-5.614758E-07	-1.308350E-06
1158	12.57	-5.587991E-07	-1.302116E-06
1159	12.58	-5.561371E-07	-1.295916E-06
1160	12.59	-5.534900E-07	-1.289751E-06
1161	12.60	-5.508576E-07	-1.283621E-06
1162	12.61	-5.482398E-07	-1.277524E-06
1163	12.62	-5.456364E-07	-1.271461E-06
1164	12.63	-5.430475E-07	-1.265432E-06
1165	12.64	-5.404729E-07	-1.259436E-06
1166	12.65	-5.379125E-07	-1.253473E-06
1167	12.66	-5.353663E-07	-1.247543E-06
1168	12.67	-5.328341E-07	-1.241645E-06
1169	12.68	-5.303159E-07	-1.235780E-06
1170	12.69	-5.278115E-07	-1.229948E-06
1171	12.70	-5.253210E-07	-1.224147E-06
1172	12.71	-5.228441E-07	-1.218379E-06
1173	12.72	-5.203809E-07	-1.212642E-06
1174	12.73	-5.179312E-07	-1.206936E-06
1175	12.74	-5.154949E-07	-1.201262E-06
1176	12.75	-5.130720E-07	-1.195619E-06
1177	12.76	-5.106624E-07	-1.190007E-06
1178	12.77	-5.082659E-07	-1.184426E-06
1179	12.78	-5.058826E-07	-1.178875E-06
1180	12.79	-5.035123E-07	-1.173354E-06
1181	12.80	-5.011550E-07	-1.167864E-06
1182	12.81	-4.988105E-07	-1.162403E-06
1183	12.82	-4.964788E-07	-1.156973E-06
1184	12.83	-4.941598E-07	-1.151572E-06
1185	12.84	-4.918534E-07	-1.146200E-06
1186	12.85	-4.895596E-07	-1.140857E-06
1187	12.86	-4.872783E-07	-1.135544E-06
1188	12.87	-4.850094E-07	-1.130259E-06
1189	12.88	-4.827527E-07	-1.125003E-06
1190	12.89	-4.805083E-07	-1.119776E-06
1191	12.90	-4.782761E-07	-1.114577E-06
1192	12.91	-4.760560E-07	-1.109405E-06
1193	12.92	-4.738479E-07	-1.104262E-06
1194	12.93	-4.716517E-07	-1.099147E-06
1195	12.94	-4.694674E-07	-1.094060E-06
1196	12.95	-4.672949E-07	-1.088999E-06
1197	12.96	-4.651341E-07	-1.083966E-06
1198	12.97	-4.629849E-07	-1.078961E-06
1199	12.98	-4.608474E-07	-1.073982E-06
1200	12.99	-4.587213E-07	-1.069030E-06
